K = 7, n = [784 100 100 100 100 100 100  10]



     Layer : 1, taille : 100

         Neuron : 0
            W = [ 1.98000e-04  1.32000e-04  2.59000e-04  1.63000e-04  2.14000e-04
  2.09000e-04  1.16000e-04  8.30000e-05  2.03000e-04  4.20000e-05
  1.43000e-04  1.60000e-04  4.90000e-05  1.14000e-04  2.17000e-04
  2.39000e-04  3.14000e-04  2.64000e-04  2.54000e-04  4.23000e-04
  2.63000e-04 -6.00000e-06  2.92000e-04  1.83000e-04 -4.10000e-05
  2.04000e-04  3.01000e-04  2.01000e-04  6.92000e-04  2.11000e-04
  1.61000e-04  2.57000e-04  2.15000e-04  4.50000e-05  1.33000e-04
  3.45000e-04  2.18000e-04  2.49000e-04  2.67000e-04  2.58000e-04
  2.16000e-04  1.57000e-04  2.86000e-04  7.40000e-05  1.99000e-04
  7.50000e-05  1.47000e-04  3.88000e-04  3.29000e-04 -2.40000e-05
  1.93000e-04  3.97000e-04  4.12000e-04  5.20000e-05  4.09000e-04
  2.53000e-04  1.20000e-05  3.53000e-04  1.11000e-04  2.55000e-04
  5.92000e-04  2.90000e-04  2.36000e-04  4.60000e-05  2.22000e-04
  7.00000e-06  2.71000e-04  5.01000e-04  2.35000e-04  5.44000e-04
  6.20000e-05  1.08000e-04  1.16000e-04  2.65000e-04  1.70000e-05
  2.50000e-04  1.19000e-04 -3.50000e-05  1.29000e-04  2.42000e-04
  3.23000e-04  6.00000e-05  1.64000e-04  1.11000e-04  1.82000e-04
  4.85000e-04  1.65000e-04  5.64000e-04 -4.10000e-05  2.73000e-04
  6.00000e-04  4.42000e-04  4.37000e-04  3.70000e-05  2.24000e-04
  5.16000e-04  5.48000e-04  8.49000e-04  5.30000e-04  7.19000e-04
 -5.10000e-05  3.62000e-04  3.50000e-04  4.99000e-04  5.85000e-04
  6.20000e-04  2.39000e-04  3.67000e-04  1.91000e-04 -2.00000e-05
  4.94000e-04 -3.10000e-05  2.40000e-05  7.20000e-05  2.06000e-04
  1.21000e-04  2.74000e-04  1.99000e-04  2.45000e-04  6.10000e-04
  6.79000e-04  6.21000e-04  6.42000e-04  1.43300e-03  7.49000e-04
 -8.30000e-05  1.27800e-03  1.37400e-03  8.75000e-04  1.02600e-03
  8.84000e-04  7.76000e-04  6.04000e-04  2.82000e-04  3.92000e-04
  1.91000e-04  2.47000e-04  2.83000e-04 -1.20000e-04  3.60000e-05
  2.60000e-05  3.76000e-04  2.63000e-04  1.41000e-04  1.06000e-04
 -1.06000e-04 -3.00000e-06  4.91000e-04  3.90000e-04  5.02000e-04
  7.01000e-04  9.30000e-04  1.12100e-03  3.52500e-02  6.45740e-02
  1.23836e-01  2.18535e-01  1.43023e-01  4.58800e-03  4.33000e-04
  2.93000e-04 -1.32000e-04 -2.63000e-04  1.80000e-04 -1.78000e-04
  1.12000e-04  1.22000e-04  1.52000e-04 -6.50000e-05  1.78000e-04
  6.21000e-04  2.50000e-04  8.90000e-05 -4.03000e-04 -2.43000e-04
 -2.06000e-04 -6.50000e-05  7.52000e-04  7.89000e-04  9.77000e-04
  2.35300e-02  6.41760e-02  6.32830e-02  5.70410e-02  4.42560e-02
  3.86120e-02  1.04420e-02  1.31900e-03  1.98000e-04 -7.64000e-04
 -7.78000e-04 -3.07000e-04  5.70000e-05 -1.11000e-04  1.20000e-04
  4.47000e-04  1.58000e-04  1.91000e-04  1.32000e-04  8.60000e-05
  5.80000e-05  1.30000e-05 -2.80000e-05  3.93000e-04  1.02300e-03
  1.23400e-03  1.35700e-03  2.63700e-03  1.04700e-02  1.24110e-02
  7.02840e-02  9.26780e-02  9.44090e-02  5.57440e-02  1.68850e-02
  8.79700e-03  4.62500e-03  8.72000e-04 -3.24000e-04  3.10000e-05
  2.78000e-04  5.13000e-04  4.95000e-04  1.83000e-04  1.42000e-04
  2.84000e-04  1.02000e-04  4.40000e-04 -5.60000e-05  1.50000e-04
  5.80000e-05  1.21200e-03  2.01500e-03  1.96600e-03  2.52930e-02
  2.36440e-02  9.80200e-03  3.24630e-02  4.32330e-02  1.79270e-02
  2.09530e-02  3.95610e-02  5.81250e-02  3.59370e-02  1.17720e-02
 -5.00000e-04 -1.42400e-03  2.64000e-04  3.68000e-04  4.20000e-04
  2.07000e-04 -2.08000e-04  2.58000e-04  3.38000e-04  2.25000e-04
  6.90000e-05 -1.95000e-04 -8.20000e-05  5.82000e-04  8.85000e-04
  1.42600e-03  2.88000e-03  4.48700e-03  1.80680e-02  2.12980e-02
  3.19120e-02 -1.37380e-02 -1.52210e-02  5.93000e-02  1.97920e-01
  1.95022e-01  9.60570e-02  2.84870e-02 -4.93000e-04 -9.01000e-04
  5.01000e-04  6.02000e-04  3.26000e-04  4.22000e-04  5.52000e-04
 -9.00000e-06  5.50000e-05  3.49000e-04 -1.63000e-04  9.70000e-05
 -9.70000e-05 -2.62000e-04 -7.20000e-05 -7.37000e-04  8.82000e-04
 -1.98400e-03 -1.99550e-02  1.76200e-03  2.77800e-03  1.16730e-02
  1.10520e-02  1.34488e-01  2.73651e-01  2.40375e-01  1.09678e-01
  6.85200e-03  1.12500e-03  1.19300e-03  8.00000e-05  3.60000e-04
  4.50000e-05  4.06000e-04  1.35000e-04  3.53000e-04  1.00000e-06
  3.48000e-04  2.28000e-04 -3.70000e-05  1.36000e-04 -5.60000e-05
 -8.91000e-04  3.50000e-05  1.01640e-02 -1.37042e-01 -1.42437e-01
 -3.06360e-02  6.03800e-03  2.45210e-02  3.69610e-02  5.48220e-02
  1.52758e-01  8.21130e-02  2.18210e-02  1.46000e-03  4.29000e-04
  1.27600e-03  1.28000e-04 -5.00000e-06  5.12000e-04  3.65000e-04
  4.24000e-04  1.89000e-04  3.28000e-04  4.88000e-04  1.21000e-04
 -4.52000e-04 -4.21000e-04  2.27000e-04 -7.00000e-04  4.35000e-04
 -8.88520e-02 -3.20692e-01 -2.99214e-01 -7.05200e-02 -1.45500e-03
 -8.01800e-03  2.11560e-02  5.37110e-02  7.61630e-02  1.84240e-02
 -9.12200e-03 -2.20500e-03  1.00900e-03  7.64000e-04  8.84000e-04
  3.24000e-04 -5.80000e-05  2.75000e-04  8.20000e-05  3.50000e-05
  2.17000e-04  2.34000e-04 -3.10000e-05 -2.71000e-04 -1.78000e-04
  1.21000e-04  5.70000e-04  1.12140e-02 -1.40891e-01 -3.76779e-01
 -3.03036e-01 -5.53590e-02 -3.70770e-02 -2.08993e-01 -1.43600e-02
  2.39890e-02  4.89700e-03 -1.67800e-02 -2.07670e-02 -1.20400e-03
  7.15000e-04  8.43000e-04  1.30000e-04  1.78000e-04  1.92000e-04
  1.52000e-04 -1.11000e-04  2.06000e-04  1.60000e-04  5.60000e-05
  4.40000e-05 -1.88000e-04 -6.00000e-06  2.45000e-04  6.31000e-04
  9.39700e-03 -5.98750e-02 -1.16173e-01 -7.45150e-02 -8.34030e-02
 -9.56590e-02 -7.24880e-02  4.19500e-03 -1.11890e-02 -4.28950e-02
 -2.90440e-02 -1.73670e-02 -8.70000e-04  1.26300e-03  6.59000e-04
  5.84000e-04  1.75000e-04  1.84000e-04  6.80000e-05  1.48000e-04
  2.48000e-04  2.92000e-04  1.29000e-04  4.60000e-05 -5.20000e-05
  2.80000e-05  5.41000e-04  1.25400e-02  8.37980e-02  8.70360e-02
  5.15630e-02  1.24932e-01  1.11477e-01  1.99233e-01  2.58157e-01
  1.21400e-02  7.01500e-03 -3.91600e-02 -1.26780e-02 -8.65700e-03
 -1.99200e-03  1.32600e-03  7.47000e-04  7.67000e-04  2.66000e-04
  2.65000e-04  2.17000e-04  3.70000e-05  4.33000e-04  5.13000e-04
  2.83000e-04  1.54000e-04  2.09000e-04  4.21000e-04  1.06000e-03
  6.35610e-02  1.99484e-01  2.62485e-01  2.03869e-01  3.74755e-01
  3.40771e-01  4.41646e-01  4.25211e-01  4.04810e-02  2.11910e-02
 -4.09500e-03 -2.08900e-03 -5.91100e-03 -5.90000e-04  6.82000e-04
  5.46000e-04  7.74000e-04  5.78000e-04  2.71000e-04  1.88000e-04
  3.42000e-04  1.58000e-04  2.76000e-04 -4.40000e-05  1.42000e-04
  2.64000e-04  2.84000e-04  1.29900e-03  1.14130e-02  1.15745e-01
  1.45439e-01  3.94298e-01  5.48435e-01  4.31922e-01  3.44400e-01
  3.84873e-01  7.34130e-02  2.68820e-02  4.32400e-03  4.36000e-04
 -1.58300e-03 -6.81000e-04 -1.60000e-05  5.81000e-04  8.04000e-04
 -3.60000e-05  1.64000e-04  3.83000e-04  3.58000e-04  8.50000e-05
 -6.80000e-05  4.54000e-04  1.18000e-04  1.23000e-04  2.81000e-04
  1.63000e-03  8.96100e-03  6.06870e-02  9.40080e-02  6.08411e-01
  4.39151e-01  9.27580e-02  1.08813e-01  8.35470e-02  6.99600e-03
  1.47740e-02  9.50400e-03  1.95900e-03  8.08000e-04 -9.80000e-05
 -6.10000e-05  6.39000e-04  7.00000e-04  9.90000e-05  2.28000e-04
  1.24000e-04  2.56000e-04  1.24000e-04  8.50000e-05 -2.50000e-05
  3.80000e-05  6.30000e-05 -7.30000e-05  1.36900e-03  6.91800e-03
  1.00337e-01  1.60006e-01  2.77523e-01  2.14569e-01  3.60820e-02
  9.62400e-03 -4.60700e-03  3.95300e-03  6.80900e-03  3.88300e-03
  1.64200e-03  4.25000e-04  8.50000e-05  3.01000e-04 -1.66000e-04
  1.52000e-04  1.49000e-04  3.28000e-04  2.04000e-04  1.89000e-04
  1.67000e-04  1.74000e-04 -1.46000e-04  1.60000e-05  8.00000e-06
  2.88000e-04  5.79000e-04  7.02600e-03  2.88038e-01  1.98649e-01
  1.49016e-01  8.76440e-02 -1.19530e-02 -4.63020e-02 -1.39900e-02
  1.65070e-02  9.26900e-03  8.22200e-03  3.16000e-03 -2.50800e-03
  6.00000e-04  8.00000e-06 -2.80000e-04  9.10000e-05  3.70000e-04
  2.28000e-04  2.30000e-04  2.08000e-04  4.31000e-04  2.54000e-04
 -8.40000e-05 -6.70000e-05  5.95000e-04  2.63000e-04  3.44000e-04
  1.19000e-04  5.34120e-02  1.06425e-01  5.25820e-02  8.94100e-03
 -4.08000e-03 -6.22100e-03  9.10000e-05  2.01700e-03  2.13300e-03
  1.09600e-03  1.34400e-03  7.58000e-04  1.51000e-04 -4.74000e-04
 -1.61000e-04 -1.19000e-04  2.48000e-04  3.03000e-04  1.68000e-04
  5.00000e-04 -7.10000e-05  1.82000e-04  3.99000e-04  1.07000e-04
  2.76000e-04  3.50000e-05 -9.30000e-05  2.82000e-04  1.04500e-03
  1.88340e-02  2.44190e-02  2.64500e-03 -1.66800e-03 -2.97900e-03
  1.39500e-03  4.86200e-03  7.28400e-03  1.97800e-03  1.22800e-03
  2.50000e-05 -3.00000e-04 -2.50000e-05  2.42000e-04  2.19000e-04
  1.07000e-04  1.59000e-04  3.99000e-04  1.09000e-04  1.63000e-04
  2.71000e-04  2.09000e-04 -3.40000e-05  2.20000e-05 -1.89000e-04
 -3.37000e-04 -4.47000e-04  1.93000e-04  2.04500e-03 -2.01360e-02
 -6.06840e-02 -2.16610e-02  3.02500e-02  4.19790e-02  4.44620e-02
  2.33600e-03  3.57000e-04  2.20000e-05 -5.11000e-04 -1.69000e-04
  1.99000e-04  3.08000e-04  2.49000e-04  8.90000e-05  2.52000e-04
  1.18000e-04  3.07000e-04  2.33000e-04  3.20000e-05  2.20000e-04
  3.34000e-04 -1.37000e-04  2.96000e-04  2.28000e-04  1.00000e-04
  9.45000e-04  6.23000e-04 -5.44000e-04 -1.28800e-03 -2.94000e-04
  1.26800e-03  1.07500e-03  8.50000e-05 -8.35000e-04 -3.33000e-04
  2.88000e-04 -1.61000e-04 -1.80000e-04  1.51000e-04  1.72000e-04
  2.99000e-04  1.60000e-04  2.80000e-04  1.77000e-04  1.30000e-04
 -1.05000e-04  2.31000e-04  5.50000e-05  2.72000e-04  4.33000e-04
  3.46000e-04  2.82000e-04  3.78000e-04  2.34000e-04  3.47000e-04
 -4.88000e-04 -6.90000e-04  2.10000e-05  3.21000e-04  7.91000e-04
 -2.45000e-04 -2.07000e-04  1.22000e-04  3.20000e-05  4.75000e-04
  1.60000e-04  1.38000e-04  3.99000e-04  3.63000e-04  1.94000e-04
  2.54000e-04 -4.00000e-06  2.35000e-04  8.00000e-05  2.51000e-04
  4.49000e-04  2.55000e-04  4.87000e-04  3.42000e-04  7.70000e-05
  4.30000e-04  1.98000e-04  2.18000e-04 -1.12000e-04 -2.23000e-04
  5.70000e-05  3.96000e-04  3.54000e-04  2.77000e-04 -1.20000e-05
  0.00000e+00 -3.20000e-05  2.61000e-04  3.03000e-04  2.85000e-04
  1.85000e-04  1.57000e-04  2.19000e-04  3.71000e-04  4.70000e-05
  2.01000e-04  2.77000e-04 -3.80000e-05  9.50000e-05  3.24000e-04
 -1.83000e-04  2.04000e-04  8.00000e-06  2.18000e-04  3.06000e-04
  1.85000e-04  1.00000e-04  1.63000e-04  2.80000e-04  1.42000e-04
  3.68000e-04  2.93000e-04 -1.50000e-05  1.28000e-04  1.69000e-04
  4.80000e-05  1.94000e-04  1.47000e-04  2.06000e-04 -1.10000e-05
 -2.27000e-04  3.90000e-05  5.34000e-04  8.00000e-05]
            b = 0.084779
            U = 1.504917, L = 1.177517

         Neuron : 1
            W = [ 1.460000e-04 -4.470000e-04  1.790000e-04 -9.300000e-04  1.980000e-04
  8.860000e-04  6.550000e-04 -5.890000e-04 -1.900000e-04 -5.440000e-04
  5.880000e-04 -2.400000e-04 -5.790000e-04 -1.880000e-04 -2.520000e-04
  1.444000e-03  8.740000e-04 -3.360000e-04  5.370000e-04 -4.160000e-04
  3.730000e-04  5.410000e-04 -1.780000e-04  1.311000e-03  2.500000e-05
  1.041000e-03  5.260000e-04  8.700000e-04  6.100000e-04 -4.090000e-04
 -5.800000e-04  2.430000e-04 -6.920000e-04 -4.810000e-04  7.370000e-04
  5.060000e-04  2.140000e-04  1.040000e-04  7.270000e-04  8.700000e-05
  1.030000e-04  8.720000e-04  6.300000e-04 -1.300000e-05 -1.377000e-03
 -1.270000e-04 -1.230000e-04 -2.100000e-05  8.100000e-05  3.420000e-04
  9.700000e-05  2.560000e-04 -4.710000e-04  1.960000e-04  2.820000e-04
  3.460000e-04  6.350000e-04 -2.600000e-04  1.430000e-04 -5.250000e-04
  9.300000e-05 -7.080000e-04  4.600000e-04 -1.610000e-04  7.170000e-04
  4.700000e-05  1.960000e-04  1.590000e-04 -5.580000e-04 -4.710000e-04
 -5.180000e-04 -7.420000e-04  1.470000e-04  4.600000e-05  6.510000e-04
  6.130000e-04  1.930000e-04 -8.000000e-06  2.600000e-05 -1.400000e-04
 -5.870000e-04  1.121000e-03 -8.120000e-04  6.260000e-04 -1.090000e-04
 -4.210000e-04  4.620000e-04  1.265000e-03 -4.500000e-05 -5.980000e-04
  3.980000e-04  1.600000e-04 -3.210000e-04 -4.990000e-04 -1.793000e-03
 -1.949000e-03 -2.043000e-03 -2.381000e-03 -1.382000e-03 -4.740000e-04
 -5.270000e-04  8.700000e-05 -2.980000e-04 -4.910000e-04  1.100000e-03
  2.880000e-04 -8.210000e-04  2.550000e-04  1.950000e-04 -2.200000e-04
  7.200000e-05  1.476000e-03  1.380000e-04  1.200000e-04  2.660000e-04
 -3.160000e-04  3.550000e-04 -4.320000e-04  1.900000e-05 -1.190000e-04
 -1.680000e-04 -1.091000e-03 -1.210000e-03 -2.645000e-03 -3.838000e-03
 -5.628000e-03 -3.630000e-03 -1.882000e-03 -9.800000e-04 -4.290000e-04
  8.700000e-05  4.380000e-04  6.240000e-04 -3.500000e-04 -2.390000e-04
 -2.470000e-04  1.210000e-03  8.500000e-05 -3.470000e-04 -6.190000e-04
  9.220000e-04 -4.460000e-04  1.035000e-03 -2.080000e-04  4.430000e-04
  9.100000e-05  1.370000e-04 -5.980000e-04 -3.750000e-04 -1.215000e-03
 -1.906000e-03 -5.930000e-03 -1.131300e-02 -2.757370e-01 -2.948290e-01
 -2.445150e-01 -1.694730e-01 -5.185300e-02 -3.663000e-03  9.630000e-04
  1.024000e-03  1.082000e-03  5.500000e-04  1.150000e-04 -1.170000e-04
  2.800000e-05  9.900000e-05  2.130000e-04  5.430000e-04  5.810000e-04
  2.549000e-03  2.393000e-03  2.226000e-03  9.030000e-04 -7.920000e-04
  1.766000e-03  3.465000e-03  8.496000e-03  1.414100e-02  4.892000e-03
  1.756000e-03 -1.139700e-02 -5.631100e-02 -1.100280e-01 -4.533500e-02
 -2.469800e-02 -1.971600e-02 -3.054000e-03  1.757000e-03 -2.440000e-04
 -9.130000e-04 -8.370000e-04 -4.690000e-04 -3.800000e-05  7.390000e-04
 -2.230000e-04  1.830000e-04 -3.420000e-04  1.352000e-03  7.600000e-04
  2.109000e-03  1.886000e-03  7.243000e-03  2.080300e-02  2.014940e-01
  9.793100e-02  3.660400e-02  2.170900e-02  9.234200e-02  1.125250e-01
  3.790400e-02 -2.923000e-03 -1.102620e-01 -6.180900e-02 -4.273500e-02
 -7.045000e-03 -2.400000e-04  2.010000e-04 -5.780000e-04 -5.630000e-04
  1.200000e-05  1.260000e-04  1.630000e-04 -4.030000e-04 -5.680000e-04
  3.700000e-04  1.270000e-04  8.210000e-04  3.024000e-03  5.980000e-03
  3.677370e-01  2.246240e-01  1.044770e-01  2.235000e-02  4.776300e-02
  4.051900e-02  1.181160e-01  1.362390e-01  1.916490e-01  1.305250e-01
  3.172700e-02 -8.502400e-02 -4.060000e-02 -4.509100e-02 -3.033400e-02
  9.630000e-04 -2.790000e-04 -6.580000e-04 -2.430000e-04 -7.400000e-05
 -5.080000e-04 -2.200000e-04 -5.030000e-04  4.870000e-04  1.298000e-03
  1.689000e-03  5.781000e-03  5.996000e-03  2.269500e-02  5.040000e-03
 -2.778000e-03 -1.622300e-02 -2.143400e-02 -1.132220e-01 -5.614600e-02
 -2.273500e-02  1.105640e-01 -9.129000e-03  1.209950e-01  1.367000e-03
 -5.803900e-02 -7.757400e-02 -2.582200e-02  1.487000e-03 -7.710000e-04
 -4.000000e-04 -1.780000e-04  8.500000e-05  1.210000e-04 -5.940000e-04
 -3.390000e-04 -1.370000e-04  1.325000e-03  2.261000e-03  4.190000e-03
  4.828000e-03  4.043000e-03  1.890000e-04 -1.855000e-03 -7.620000e-03
 -1.235740e-01 -9.914500e-02 -4.188300e-02 -2.581300e-02  8.316000e-03
 -9.262900e-02  1.869760e-01  1.120510e-01  2.563000e-02 -1.992000e-02
 -8.890000e-04  2.063000e-03  1.954000e-03  1.434000e-03  7.100000e-05
 -3.020000e-04  3.800000e-05 -9.900000e-05  1.081000e-03 -5.530000e-04
  1.748000e-03  2.440000e-03  3.041000e-03  3.550000e-03 -3.600000e-04
 -2.186000e-03 -6.157000e-03 -5.958600e-02 -1.199980e-01 -5.841600e-02
 -4.913800e-02 -1.725400e-02 -4.178700e-02 -7.766000e-03  8.954700e-02
  4.896300e-02  5.518900e-02  2.196000e-03 -1.596000e-03 -1.609000e-03
  1.003000e-03  6.530000e-04 -9.600000e-05  4.520000e-04 -1.114000e-03
 -3.020000e-04 -5.030000e-04 -4.030000e-04  1.480000e-04  2.540000e-04
  7.200000e-04  5.240000e-04 -2.767000e-03 -4.904000e-03 -3.373000e-03
 -9.548400e-02 -5.125100e-02 -6.205100e-02 -5.597100e-02  2.440000e-04
  3.781200e-02  1.852500e-02  2.659600e-02  3.007900e-02  2.641500e-02
  5.960000e-03 -1.141000e-03 -4.300000e-05  1.910000e-04  9.800000e-04
  1.125000e-03  6.140000e-04  1.633000e-03  1.240000e-04  5.200000e-04
 -7.300000e-04  7.090000e-04 -4.600000e-05  9.030000e-04 -1.044000e-03
 -3.898000e-03 -9.422000e-03 -1.881100e-02 -8.469700e-02 -5.825700e-02
 -1.158580e-01 -9.285000e-03  7.520000e-03  1.596370e-01  3.386000e-02
 -1.750000e-02 -5.000000e-06  9.285000e-03 -2.108000e-03 -3.700000e-04
 -2.605000e-03 -5.710000e-04  1.453000e-03  1.901000e-03  9.240000e-04
  5.490000e-04 -8.360000e-04 -3.390000e-04  2.210000e-04 -4.840000e-04
 -3.940000e-04 -3.600000e-05 -1.233000e-03 -4.351000e-03 -5.536000e-03
 -3.053500e-02 -9.026300e-02 -6.764300e-02 -4.737400e-02 -2.819600e-02
  1.027810e-01  8.648600e-02 -5.957000e-03 -7.777000e-02 -6.728400e-02
 -2.705800e-02 -5.680000e-04 -7.150000e-04 -1.922000e-03  7.450000e-04
  2.288000e-03  6.300000e-04 -1.510000e-04 -5.620000e-04 -3.800000e-05
  3.460000e-04 -3.990000e-04  3.500000e-04 -1.930000e-04  2.940000e-04
  8.510000e-04 -5.100000e-04 -1.604600e-02 -1.087110e-01 -9.421800e-02
 -9.446600e-02 -1.417750e-01  4.147800e-02  3.599200e-02  6.839000e-02
 -6.465000e-03 -4.432100e-02 -1.464840e-01 -1.539500e-02  3.235000e-03
  2.122000e-03  2.800000e-04  8.160000e-04  1.170000e-04  2.030000e-04
  5.410000e-04  3.490000e-04  1.650000e-04 -1.730000e-04  9.740000e-04
  7.170000e-04 -1.720000e-04 -8.170000e-04  7.020000e-04 -1.320000e-03
 -5.670800e-02 -1.105070e-01 -5.004800e-02 -7.615400e-02 -1.326840e-01
  4.417200e-02  1.455980e-01  9.651700e-02  1.302600e-02  4.435900e-02
 -1.839500e-02  8.940000e-04 -2.958000e-03  2.159000e-03  1.701000e-03
  3.750000e-04 -6.260000e-04  8.510000e-04  8.710000e-04  4.700000e-05
  8.270000e-04  8.370000e-04  1.960000e-04  4.360000e-04 -8.620000e-04
 -6.300000e-04 -2.390000e-04 -8.910000e-04 -8.168000e-03 -7.429700e-02
 -5.425800e-02 -1.721230e-01 -2.672090e-01  1.587300e-02  7.034800e-02
  1.803800e-01  3.816000e-02 -1.111900e-02 -7.600000e-05  4.704000e-03
  1.349000e-03  1.221000e-03  2.469000e-03 -1.990000e-04 -1.855000e-03
 -4.280000e-04 -4.700000e-05  1.229000e-03  8.070000e-04  3.600000e-04
  3.260000e-04 -2.740000e-04  1.920000e-04  5.520000e-04 -1.575000e-03
 -1.094000e-03 -8.847000e-03 -4.731400e-02 -4.913600e-02 -2.792310e-01
 -1.304890e-01 -7.074000e-03 -1.107160e-01 -4.277500e-02 -3.037200e-02
 -5.017100e-02 -2.160500e-02  2.158000e-03  3.695000e-03  1.282000e-03
  1.545000e-03  1.175000e-03  8.620000e-04  1.640000e-04  1.300000e-05
  1.082000e-03  3.050000e-04 -4.150000e-04 -4.300000e-04  7.120000e-04
  3.110000e-04  1.238000e-03  1.112000e-03 -1.417000e-03 -2.147000e-03
 -3.186700e-02 -6.578600e-02 -1.512900e-01 -8.943400e-02  3.617500e-02
 -1.109190e-01 -1.321140e-01 -6.410800e-02 -5.998500e-02 -1.578300e-02
 -1.519000e-03  2.612900e-02  1.883500e-02  7.410000e-03  5.586000e-03
  3.004000e-03  2.986000e-03  1.395000e-03 -5.620000e-04 -1.130000e-04
  1.410000e-04 -1.870000e-04  2.000000e-06 -1.200000e-05  9.990000e-04
  1.097000e-03  1.427000e-03 -1.412000e-03 -8.179000e-03 -4.448200e-02
 -9.305200e-02 -9.238800e-02  4.001300e-02 -4.263200e-02 -7.230800e-02
 -1.738540e-01 -1.220700e-01 -5.636400e-02  5.388500e-02  7.976310e-01
  1.025774e+00  6.808840e-01  1.684970e-01  3.646000e-03  2.744000e-03
  3.560000e-04 -5.440000e-04  1.137000e-03  2.150000e-04  2.540000e-04
 -4.360000e-04  1.402000e-03 -1.900000e-05  4.940000e-04 -1.059000e-03
 -1.724000e-03 -1.049000e-03 -1.548200e-02 -5.571800e-02 -8.968000e-03
 -1.620000e-02 -2.001000e-02 -1.321300e-02 -1.534900e-02 -1.130800e-02
 -3.225000e-03  5.751000e-02  6.228100e-02  3.875900e-02  3.459000e-03
 -4.430000e-04 -4.170000e-04 -4.500000e-05  3.430000e-04 -1.160000e-04
 -1.610000e-04  3.220000e-04 -2.270000e-04  4.440000e-04  3.880000e-04
  9.410000e-04  1.217000e-03 -2.580000e-04 -1.630000e-04 -6.170000e-04
 -8.440000e-03 -6.124800e-02 -4.933200e-02 -1.446100e-02 -2.295900e-02
 -3.072100e-02 -2.422300e-02 -7.699000e-03  7.402000e-03  9.451000e-03
  7.006000e-03  2.181000e-03 -7.480000e-04 -1.534000e-03  2.130000e-04
  2.150000e-04  6.480000e-04 -1.410000e-04  6.970000e-04 -1.390000e-04
 -2.280000e-04  1.660000e-04  3.790000e-04  8.370000e-04  8.780000e-04
  5.050000e-04 -1.175000e-03 -2.000000e-06 -6.002000e-03 -6.834600e-02
 -1.457820e-01 -9.590900e-02 -1.077130e-01 -7.524100e-02  4.042000e-03
  1.263400e-02  3.860000e-03  5.167000e-03  1.370000e-03  1.420000e-04
 -7.800000e-05 -1.294000e-03 -1.205000e-03  1.200000e-04  2.520000e-04
  3.800000e-05 -2.390000e-04 -2.120000e-04 -7.430000e-04  4.180000e-04
 -3.960000e-04 -1.570000e-04 -3.910000e-04 -1.590000e-04 -4.470000e-04
 -1.270000e-03  2.230000e-04 -1.920000e-03 -2.430000e-04 -2.457000e-03
 -2.413000e-03 -2.083000e-03  3.115000e-03  3.661000e-03  2.550000e-03
  1.389000e-03  1.080000e-03  5.680000e-04 -8.750000e-04 -1.175000e-03
 -2.270000e-04 -3.550000e-04  3.950000e-04 -2.150000e-04  4.760000e-04
  4.910000e-04  3.110000e-04  2.480000e-04  3.880000e-04  9.530000e-04
 -7.200000e-05  7.470000e-04  6.610000e-04  1.083000e-03  1.688000e-03
 -1.060000e-04  4.250000e-04  5.660000e-04 -9.840000e-04 -6.190000e-04
  1.843000e-03  2.227000e-03 -5.310000e-04  1.619000e-03  1.574000e-03
  1.119000e-03 -1.920000e-04  3.800000e-05  4.410000e-04 -3.580000e-04
 -1.203000e-03  1.760000e-04  5.700000e-05 -1.310000e-04  1.158000e-03
  5.190000e-04 -1.500000e-04 -6.790000e-04  1.350000e-04  4.500000e-04
 -1.390000e-04  4.300000e-05  9.110000e-04  2.860000e-04  7.720000e-04
  9.270000e-04  9.500000e-05 -1.339000e-03 -9.070000e-04 -1.190000e-04
  1.100000e-05 -8.200000e-05  1.086000e-03 -8.820000e-04  2.000000e-05
  4.330000e-04  3.670000e-04  6.060000e-04 -3.540000e-04  6.640000e-04
  4.370000e-04  1.300000e-03 -2.770000e-04 -8.390000e-04  2.950000e-04
  1.670000e-04  6.540000e-04 -1.156000e-03 -1.680000e-04 -5.360000e-04
 -2.200000e-04  1.000000e-03 -3.900000e-05 -1.650000e-04 -6.800000e-05
 -1.340000e-04  2.590000e-04  8.650000e-04 -3.380000e-04  8.650000e-04
 -1.190000e-04  9.000000e-05  6.150000e-04  6.700000e-04  5.330000e-04
  5.710000e-04  4.390000e-04  5.410000e-04 -1.990000e-04]
            b = -0.314001
            U = -1.817345, L = -2.146718

         Neuron : 2
            W = [-1.23000e-02 -1.08150e-02 -1.18240e-02 -1.19930e-02 -9.53000e-03
 -9.31800e-03 -1.03800e-02 -1.22460e-02 -9.21600e-03 -1.03050e-02
 -1.46190e-02 -8.08700e-03 -1.02880e-02 -1.05790e-02 -8.59800e-03
 -6.92300e-03 -7.35600e-03 -1.29590e-02 -1.27410e-02 -6.98300e-03
 -1.38010e-02 -5.99600e-03 -1.22870e-02 -1.24590e-02 -1.51760e-02
 -7.96300e-03 -1.03480e-02 -1.10370e-02 -5.33600e-03 -1.28860e-02
 -1.05240e-02 -1.21880e-02 -9.18200e-03 -1.07630e-02 -6.35100e-03
 -1.17780e-02 -1.15160e-02 -1.44980e-02 -5.11700e-03 -7.29700e-03
 -1.31610e-02 -8.90600e-03 -1.72790e-02 -6.24500e-03 -6.76900e-03
 -1.35920e-02 -9.75700e-03 -6.15500e-03 -7.54600e-03 -1.42970e-02
 -1.58160e-02 -1.33920e-02 -1.25530e-02 -8.62200e-03 -1.41570e-02
 -5.18300e-03 -8.48000e-03 -7.15500e-03 -9.71600e-03 -1.25180e-02
 -1.02550e-02 -1.00870e-02 -1.38580e-02 -5.26100e-03 -1.27060e-02
 -1.25180e-02 -3.31200e-03 -1.47330e-02 -7.34600e-03 -9.10000e-03
 -1.34650e-02 -1.10650e-02 -1.04820e-02 -1.88200e-02 -2.19130e-02
 -5.40700e-03 -1.01160e-02 -8.33800e-03 -9.22600e-03 -1.50360e-02
 -1.48140e-02 -8.35700e-03 -1.02230e-02 -1.09780e-02 -1.20480e-02
 -5.34600e-03 -1.60940e-02 -7.65700e-03 -7.30600e-03 -5.09600e-03
 -1.10070e-02 -7.03700e-03 -1.44160e-02 -1.00970e-02 -7.79000e-03
 -4.60700e-03 -1.09520e-02 -6.35100e-03 -7.11000e-03 -4.63300e-03
 -1.39820e-02 -1.64320e-02 -1.77760e-02 -1.09250e-02 -1.37180e-02
 -1.51230e-02 -6.02900e-03 -9.51800e-03 -6.84500e-03 -8.24600e-03
 -1.40640e-02 -1.17990e-02 -4.87900e-03 -1.03370e-02 -1.02640e-02
 -1.54940e-02 -1.65050e-02 -1.43100e-02 -1.51300e-02 -2.42880e-02
 -1.32450e-02 -1.24110e-02 -8.95700e-03 -5.32900e-03 -6.68300e-03
 -2.19180e-02 -2.15720e-02 -2.54710e-02 -1.45280e-02 -1.94250e-02
 -1.09200e-02 -1.70900e-02 -9.11600e-03 -1.02160e-02 -8.45900e-03
 -9.06200e-03 -9.50600e-03 -9.40800e-03 -4.01800e-03 -7.99800e-03
 -7.77300e-03 -6.17000e-03 -1.43380e-02 -4.05200e-03 -8.52200e-03
 -1.19710e-02 -1.58300e-02 -1.53700e-02 -1.35490e-02 -8.46000e-03
 -8.51300e-03 -9.10400e-03 -9.21500e-03 -3.01231e-01 -3.20590e-02
 -1.70255e-01 -2.04628e-01 -1.38725e-01 -6.09800e-03 -7.08600e-03
 -1.37900e-02 -1.16450e-02 -1.86400e-03 -7.19700e-03 -6.08100e-03
 -1.02240e-02 -1.23240e-02 -1.41050e-02 -4.23700e-03 -5.79600e-03
 -9.38500e-03 -9.15200e-03 -8.13700e-03 -4.97300e-03 -6.44400e-03
 -9.89000e-03 -1.68330e-02 -1.11150e-02 -1.38180e-02  2.47000e-03
  3.08610e-02 -6.66530e-02 -5.25920e-02 -3.87750e-02  2.06630e-02
  1.39555e-01  1.84160e-02 -3.43320e-02 -9.49500e-03 -1.32440e-02
 -6.41300e-03 -6.76000e-03 -1.05080e-02 -1.21240e-02 -9.16500e-03
 -9.66000e-03 -9.70200e-03 -1.24790e-02 -1.37160e-02 -1.05170e-02
 -1.06490e-02 -5.27800e-03 -1.09400e-03 -7.48400e-03 -8.56500e-03
 -1.08180e-02 -7.37500e-03  3.33320e-02  6.41680e-02  3.87280e-02
  2.31070e-02  7.25880e-02  1.49919e-01  8.81860e-02  6.24380e-02
 -8.25760e-02 -4.34500e-02 -1.09930e-02 -9.47600e-03 -7.02200e-03
 -7.24600e-03 -1.19020e-02 -1.09980e-02 -9.26700e-03 -1.36300e-02
 -6.58000e-03 -7.08700e-03 -9.78100e-03 -1.51390e-02 -1.53000e-03
 -2.93900e-03 -5.87400e-03 -1.80370e-02 -1.94860e-02 -2.24170e-02
 -7.47700e-03 -9.92250e-02 -6.78640e-02 -4.86690e-02  1.57700e-01
  1.04214e-01  2.24880e-02 -3.75090e-02 -7.46360e-02 -1.81847e-01
 -1.59030e-02 -1.18980e-02 -4.81200e-03 -1.05330e-02 -1.24820e-02
 -1.04240e-02 -1.40090e-02 -8.68600e-03 -1.11590e-02 -8.67700e-03
 -1.27930e-02 -9.19100e-03 -6.71700e-03 -8.07200e-03 -6.03100e-03
 -1.24520e-02 -1.41760e-02 -2.03540e-02 -2.07980e-02  2.40400e-02
 -1.00422e-01 -1.67258e-01 -5.95590e-02 -6.33050e-02 -5.75700e-02
  6.31500e-03 -6.67940e-02 -2.52688e-01 -8.01900e-03  2.46300e-03
 -1.80500e-03 -1.03570e-02 -8.82500e-03 -7.77600e-03 -1.10030e-02
 -8.47100e-03 -1.10300e-02 -1.19880e-02 -9.82300e-03 -7.83600e-03
 -1.06070e-02 -1.36060e-02 -7.59300e-03 -2.37500e-03  3.95100e-03
  3.01990e-02 -3.22850e-02 -1.05879e-01 -1.08210e-01 -1.18958e-01
 -6.64970e-02 -1.20311e-01 -9.78030e-02  6.46530e-02  1.49961e-01
 -1.50311e-01 -6.73600e-03  2.84000e-04 -1.05680e-02 -1.55900e-02
 -1.37150e-02 -1.17400e-02 -1.00930e-02 -7.01300e-03 -1.05350e-02
 -8.81000e-03 -1.13200e-02 -4.89100e-03 -1.26800e-02 -1.47330e-02
 -1.29170e-02 -2.15600e-03 -1.88000e-04 -5.11340e-02 -1.52534e-01
 -1.93813e-01 -7.49630e-02 -5.83780e-02 -7.77180e-02 -9.89070e-02
 -9.47300e-02  9.81640e-02  1.08703e-01 -6.41880e-02  4.50100e-03
 -5.63700e-03 -9.42000e-03 -6.52100e-03 -6.13500e-03 -1.07160e-02
 -1.20240e-02 -6.32400e-03 -9.26700e-03 -9.55500e-03 -9.00700e-03
 -4.27300e-03 -8.52000e-03 -3.20230e-02 -4.11910e-02 -1.39410e-02
 -1.00058e-01 -1.59576e-01 -2.78342e-01 -1.81005e-01 -2.55160e-02
 -7.78140e-02 -3.82470e-02 -1.48605e-01 -1.13010e-02  4.78880e-02
  7.27920e-02 -6.56400e-03 -6.72400e-03 -2.82300e-03 -8.95500e-03
 -2.79400e-03 -1.38470e-02 -1.12120e-02 -1.04410e-02 -8.16800e-03
 -8.63400e-03 -7.68600e-03 -7.10700e-03 -1.14270e-02 -8.47800e-03
 -2.09690e-02 -3.02840e-02 -6.14510e-02 -1.27866e-01 -1.03327e-01
 -1.60013e-01 -3.04550e-02 -4.57020e-02 -5.13060e-02 -9.03010e-02
 -1.46034e-01 -2.45510e-02  9.85110e-02 -3.69900e-03 -5.60300e-03
 -1.84190e-02 -1.89470e-02 -1.18640e-02 -1.38400e-02 -9.79500e-03
 -5.26100e-03 -1.03060e-02 -8.91000e-03 -1.39520e-02 -1.03160e-02
 -8.76200e-03 -1.39210e-02 -1.04770e-02 -3.22250e-02 -1.85070e-02
 -7.09350e-02 -1.43295e-01 -1.86592e-01  1.33170e-02  8.56630e-02
  9.18580e-02 -6.97790e-02 -1.21777e-01 -9.95490e-02  8.36080e-02
  5.14680e-02 -2.25710e-02 -1.00870e-02 -2.47250e-02 -2.23230e-02
 -8.60100e-03 -8.17600e-03 -1.05470e-02 -5.63100e-03 -1.15400e-02
 -6.75100e-03 -1.21760e-02 -5.10700e-03 -1.15170e-02 -1.51990e-02
 -5.85400e-03 -1.67130e-02 -3.51270e-02 -6.26800e-02 -9.11410e-02
 -2.47930e-02  1.01298e-01  1.36253e-01  1.87360e-02 -7.66630e-02
 -2.49290e-02  5.29680e-02  1.15519e-01  1.62240e-02  3.18900e-03
 -2.55140e-02 -2.23310e-02 -2.03710e-02 -6.87500e-03 -8.24700e-03
 -9.01500e-03 -1.37760e-02 -8.02200e-03 -5.23800e-03 -8.66100e-03
 -1.31110e-02 -1.06580e-02 -7.92600e-03 -7.58500e-03 -3.27270e-02
 -1.04609e-01 -1.89930e-01 -1.31231e-01  1.86165e-01  1.32358e-01
  5.53610e-02 -1.23110e-02 -3.34670e-02 -2.86030e-02  3.70040e-02
  1.01360e-02  2.88700e-02 -2.89410e-02 -4.00960e-02 -2.90370e-02
 -1.31910e-02 -9.94600e-03 -2.10000e-03 -1.42400e-02 -8.70700e-03
 -9.28500e-03 -1.43530e-02 -1.42520e-02 -8.85900e-03 -7.65800e-03
 -1.17500e-02 -2.12040e-02 -4.50660e-02 -5.55060e-02 -2.54499e-01
  6.28050e-02  2.27874e-01  4.72660e-02  6.42230e-02  1.34597e-01
  7.11890e-02  3.08610e-02  3.65110e-02  9.33570e-02  6.67480e-02
 -1.40400e-03 -6.61700e-03 -3.19070e-02 -2.00330e-02 -3.62100e-03
 -8.84500e-03 -1.29510e-02 -1.27170e-02 -1.22090e-02 -1.39760e-02
 -9.10300e-03 -1.21690e-02 -1.77720e-02 -1.08450e-02 -1.69500e-02
 -4.34180e-02 -2.11532e-01 -1.81609e-01  2.10563e-01  8.93780e-02
 -1.35718e-01 -1.44340e-02  1.12984e-01  3.79680e-02  1.45690e-02
  1.22909e-01  1.69342e-01  9.83310e-02  5.97130e-02  6.71150e-02
 -1.37460e-02 -8.96100e-03 -5.30000e-03 -1.02680e-02 -1.24940e-02
 -8.17100e-03 -1.14400e-02 -1.08170e-02 -6.35300e-03 -7.19900e-03
 -1.50460e-02 -5.80500e-03 -8.21900e-03 -2.50920e-02 -1.74942e-01
 -2.48274e-01  2.19726e-01  1.95319e-01 -1.63010e-01 -7.47650e-02
  1.62094e-01  5.36180e-02  3.15190e-02  3.04290e-02 -1.94680e-02
 -1.57390e-02 -1.21800e-03 -2.08000e-03 -5.03700e-03 -2.37400e-03
 -4.60500e-03 -1.10120e-02 -6.07200e-03 -7.96700e-03 -1.35680e-02
 -7.89100e-03 -1.03750e-02 -1.44110e-02 -1.40660e-02 -5.61300e-03
 -7.87700e-03 -1.12630e-02 -1.59723e-01 -2.70563e-01  1.97760e-01
  2.18198e-01 -1.41342e-01 -1.01890e-02  7.86240e-02  8.75040e-02
 -2.32970e-02 -1.06643e-01 -1.53715e-01 -1.12191e-01 -5.67950e-02
 -1.77130e-02 -7.50200e-03 -3.17000e-03 -3.68600e-03 -8.94000e-03
 -1.37520e-02 -1.02640e-02 -7.18300e-03 -1.04130e-02 -1.22970e-02
 -1.01010e-02 -1.19340e-02 -1.10490e-02 -6.78000e-03 -2.67800e-03
 -9.38200e-03 -3.11183e-01  1.10728e-01  1.39559e-01  1.26882e-01
  7.45740e-02  3.92120e-02 -3.56600e-03 -2.10420e-02 -3.80070e-02
 -3.20620e-02 -2.81270e-02 -2.32930e-02 -2.03780e-02 -6.75300e-03
 -1.70710e-02 -7.79600e-03 -1.19500e-02 -1.48890e-02 -1.13400e-02
 -1.25390e-02 -6.79400e-03 -1.18200e-02 -6.37800e-03 -9.46100e-03
 -1.50330e-02 -7.26900e-03 -1.52990e-02 -5.52000e-03 -9.21470e-02
 -7.44200e-02  9.05630e-02  1.17963e-01  2.98350e-02  6.98300e-03
 -3.97820e-02 -3.99520e-02 -5.68510e-02 -3.52730e-02 -1.93910e-02
 -1.96440e-02 -1.05850e-02 -1.30120e-02 -1.00940e-02 -2.63000e-03
 -3.27300e-03 -1.73530e-02 -3.45500e-03 -1.44210e-02 -5.89200e-03
 -5.44000e-03 -7.94300e-03 -8.45400e-03 -9.11900e-03 -4.22800e-03
 -4.27500e-03 -7.90740e-02 -1.59498e-01 -2.62970e-02 -5.94400e-02
 -1.32752e-01 -1.83432e-01 -2.07887e-01 -1.85394e-01 -2.31770e-01
 -4.77260e-02 -2.31930e-02 -1.76750e-02 -1.65800e-02 -8.89200e-03
 -6.58600e-03 -1.30490e-02 -5.39600e-03 -1.22150e-02 -1.10320e-02
 -3.98000e-03 -8.86400e-03 -6.69800e-03 -1.43310e-02 -7.25000e-03
 -1.19070e-02 -2.05500e-03 -4.65200e-03 -1.80900e-03 -6.10600e-02
 -3.13160e-01 -2.77008e-01 -1.09980e-02 -4.61530e-02 -1.07460e-02
 -1.56240e-02 -1.38700e-02 -4.17300e-03 -1.32040e-02 -8.18000e-03
 -6.28400e-03 -7.40100e-03 -7.48200e-03 -5.42000e-03 -6.61500e-03
 -1.23170e-02 -7.28100e-03 -1.42490e-02 -6.79600e-03 -8.30700e-03
 -8.37300e-03 -7.20500e-03 -9.71800e-03 -1.52100e-02 -1.02070e-02
 -9.01900e-03 -7.06000e-03 -2.48000e-03 -9.96000e-04 -7.27300e-03
 -1.36850e-02 -3.66800e-03 -3.70100e-03 -9.44000e-03 -1.65740e-02
 -9.37200e-03 -1.06290e-02 -5.79900e-03 -6.99700e-03 -1.02920e-02
 -1.07160e-02 -8.46500e-03 -5.87500e-03 -1.60060e-02 -8.43700e-03
 -6.00900e-03 -1.36260e-02 -1.29980e-02 -1.04880e-02 -9.94400e-03
 -1.13540e-02 -9.24300e-03 -1.52780e-02 -1.43210e-02 -7.61800e-03
 -9.48800e-03 -6.08600e-03 -1.55950e-02 -1.81480e-02 -6.23000e-03
 -8.34300e-03 -4.96400e-03 -6.08700e-03 -7.91500e-03 -1.32830e-02
 -9.71500e-03 -7.99000e-03 -6.67100e-03 -5.82500e-03 -7.90200e-03
 -1.14160e-02 -1.04960e-02 -1.32740e-02 -9.70600e-03 -1.33530e-02
 -1.65430e-02 -1.04000e-02 -8.88500e-03 -1.21360e-02 -7.25400e-03
 -8.42200e-03 -5.31800e-03 -6.32300e-03 -1.03920e-02 -8.77300e-03
 -8.43900e-03 -1.16000e-02 -1.34680e-02 -8.74600e-03 -8.87400e-03
 -1.33990e-02 -7.46100e-03 -9.88400e-03 -1.25230e-02 -1.29830e-02
 -8.54500e-03 -1.01180e-02 -8.43800e-03 -5.90600e-03 -1.35970e-02
 -1.25110e-02 -9.24900e-03 -6.16800e-03 -8.59200e-03]
            b = 0.028114
            U = -1.235731, L = -1.75106

         Neuron : 3
            W = [-1.88100e-03 -4.87100e-03 -3.50100e-03 -4.02800e-03 -2.73800e-03
 -4.54400e-03 -2.86600e-03 -4.41200e-03 -5.17500e-03 -2.68400e-03
 -2.74500e-03 -5.70000e-03 -3.42400e-03 -4.04700e-03 -3.52900e-03
 -5.36000e-03 -4.96100e-03 -2.43200e-03 -4.18400e-03 -5.12200e-03
 -3.27700e-03 -3.79100e-03 -4.96400e-03 -6.05100e-03 -4.28200e-03
 -5.04300e-03 -2.91900e-03 -6.36100e-03 -3.81000e-03 -4.53200e-03
 -4.64200e-03 -4.00200e-03 -5.52300e-03 -4.03800e-03 -4.74300e-03
 -2.97900e-03 -5.17100e-03 -2.69000e-03 -4.49600e-03 -4.42200e-03
 -6.14400e-03 -3.80500e-03 -4.46800e-03 -4.00700e-03 -3.19000e-03
 -3.87100e-03 -4.61400e-03 -4.94600e-03 -4.21400e-03 -3.62700e-03
 -3.80100e-03 -5.69000e-03 -3.49200e-03 -4.33800e-03 -4.89600e-03
 -4.33100e-03 -4.83200e-03 -5.12600e-03 -2.34300e-03 -6.48200e-03
 -4.75200e-03 -4.15400e-03 -5.23200e-03 -3.16300e-03 -2.32000e-03
 -4.44300e-03 -3.81600e-03 -5.60900e-03 -5.26100e-03 -6.96800e-03
 -6.15800e-03 -5.53900e-03 -3.08600e-03 -6.05500e-03 -4.97200e-03
 -4.67500e-03 -5.17600e-03 -4.43600e-03 -5.07100e-03 -4.19200e-03
 -5.11600e-03 -3.58900e-03 -3.98600e-03 -5.23500e-03 -3.29600e-03
 -3.02900e-03 -4.44600e-03 -3.33900e-03 -5.59900e-03 -4.69500e-03
 -3.83100e-03 -5.23000e-03 -3.63700e-03 -4.75600e-03 -3.61800e-03
 -6.33300e-03 -4.08900e-03 -7.50700e-03 -2.46000e-03 -6.42400e-03
 -3.86100e-03 -4.32500e-03 -6.31500e-03 -7.26300e-03 -5.14000e-03
 -5.82500e-03 -3.76700e-03 -5.71100e-03 -5.97000e-03 -5.00900e-03
 -5.04200e-03 -7.77600e-03 -4.82700e-03 -4.66800e-03 -4.65300e-03
 -3.66500e-03 -3.17500e-03 -3.59100e-03 -4.18900e-03 -3.64800e-03
 -4.27700e-03 -1.23900e-03 -1.49500e-03 -3.65400e-03 -7.44200e-03
 -1.42000e-04 -9.37000e-04 -2.40600e-03 -1.19370e-02 -1.25910e-02
 -6.02900e-03 -3.97800e-03 -7.81500e-03 -5.91800e-03 -3.61600e-03
 -2.18200e-03 -3.92300e-03 -4.72500e-03 -6.25800e-03 -5.57200e-03
 -5.40300e-03 -3.27400e-03 -5.52000e-03 -3.96300e-03 -3.77400e-03
 -3.44500e-03 -4.37500e-03 -6.24400e-03 -2.71300e-03 -4.22000e-03
 -3.03800e-03 -6.59500e-03 -9.62400e-03 -4.12740e-02 -1.15780e-01
 -1.91764e-01 -2.72427e-01 -5.38630e-02  8.53600e-03  1.39000e-04
 -2.62700e-03 -8.09200e-03 -9.29300e-03 -9.83400e-03 -3.45200e-03
 -4.78300e-03 -3.76800e-03 -6.20400e-03 -4.90000e-03 -3.34800e-03
 -5.81400e-03 -2.59100e-03 -4.29300e-03 -6.38000e-03 -3.45300e-03
 -7.35800e-03 -6.95900e-03 -6.85200e-03 -9.02900e-03 -1.49320e-02
 -1.59191e-01 -1.96059e-01  4.59980e-02  7.72680e-02  5.27500e-03
  3.06370e-02  2.33760e-02  1.38840e-02 -8.16000e-04 -7.80400e-03
 -6.46300e-03 -7.00400e-03 -5.26900e-03 -5.11700e-03 -7.56900e-03
 -5.07500e-03 -6.58500e-03 -5.98300e-03 -6.32100e-03 -5.17000e-03
 -2.85000e-03 -2.37300e-03 -3.46100e-03 -4.09200e-03 -3.98100e-03
 -8.43900e-03 -1.70260e-02 -2.69490e-02 -1.24691e-01 -1.02187e-01
  1.16457e-01  1.21930e-01  8.54760e-02 -6.66950e-02 -1.83100e-03
  6.12700e-03  7.62600e-03  1.89800e-03 -9.94500e-03 -5.85800e-03
 -4.34500e-03 -6.83200e-03 -5.23300e-03 -2.79000e-03 -5.00500e-03
 -5.75100e-03 -4.06200e-03 -5.96700e-03 -4.36200e-03 -4.18900e-03
 -4.07000e-03 -5.82600e-03 -8.76800e-03 -2.00530e-02 -1.09171e-01
 -9.03890e-02 -3.66220e-02 -7.78730e-02  9.47810e-02  1.07409e-01
 -6.82090e-02 -5.10380e-02  3.02160e-02 -3.20360e-02  5.29590e-02
 -2.16900e-03 -2.96000e-03 -5.97800e-03 -4.24600e-03 -4.95200e-03
 -4.07000e-03 -4.93700e-03 -4.25100e-03 -4.98300e-03 -5.05000e-03
 -4.28400e-03 -4.50700e-03 -5.57800e-03 -4.46900e-03 -3.91500e-03
 -9.82400e-03 -7.68100e-03 -1.25900e-02 -2.62500e-02  4.93000e-04
 -6.00790e-02 -2.49257e-01  1.58340e-02 -8.99690e-02 -5.47040e-02
  1.28620e-02  3.60740e-02  1.34710e-02 -6.05100e-03 -6.89200e-03
 -9.69100e-03 -3.68200e-03 -5.54700e-03 -3.56800e-03 -2.99500e-03
 -4.65000e-03 -4.59900e-03 -5.65400e-03 -1.30300e-03 -5.17700e-03
 -1.16590e-02 -9.00500e-03 -6.46100e-03  3.16100e-03 -6.56000e-04
  3.22920e-02 -6.02000e-04 -1.34980e-02 -1.70010e-02 -1.43576e-01
 -5.01710e-02 -3.39730e-02 -8.99080e-02 -1.34660e-02  5.47410e-02
 -2.78040e-02 -6.79100e-03 -6.55100e-03 -5.32900e-03 -3.37500e-03
 -2.82900e-03 -4.27000e-03 -4.55300e-03 -3.59800e-03 -7.34800e-03
 -4.07100e-03 -4.77200e-03 -9.07500e-03 -4.14400e-03 -4.27100e-03
 -9.23000e-04  1.40600e-03 -3.87000e-02 -2.50820e-02 -8.57000e-02
 -1.02599e-01 -8.00900e-02 -2.09104e-01 -6.64170e-02 -1.06970e-02
 -5.52070e-02  3.71070e-02 -3.04830e-02 -1.97170e-02 -9.86600e-03
 -8.28600e-03 -3.07000e-03 -5.03800e-03 -6.64800e-03 -4.87300e-03
 -6.04000e-03 -4.29900e-03 -6.39500e-03 -4.10500e-03 -5.69000e-03
 -9.88000e-03 -2.85200e-03  1.37600e-03  1.58900e-03 -7.06100e-03
 -1.35829e-01 -1.73941e-01 -1.89571e-01 -1.72876e-01 -9.97880e-02
 -1.57199e-01 -3.78620e-02  2.67630e-02  3.42690e-02  1.77970e-02
 -6.32670e-02 -5.13200e-03 -7.66700e-03 -1.29450e-02 -2.45600e-03
 -3.87900e-03 -6.50500e-03 -4.34700e-03 -3.74500e-03 -3.36600e-03
 -2.20000e-03 -4.16800e-03 -3.47900e-03 -9.44100e-03 -7.26800e-03
  3.74000e-04 -4.70400e-03 -1.10130e-02 -9.77990e-02 -1.14507e-01
 -1.15059e-01 -9.66120e-02 -7.82110e-02 -1.41823e-01  2.42660e-02
  3.90780e-02 -9.11000e-04  9.76700e-03 -2.38390e-02 -1.12490e-02
 -9.06000e-03 -1.49760e-02 -4.15600e-03 -5.42500e-03 -4.48300e-03
 -3.78400e-03 -5.70400e-03 -4.84700e-03 -3.18500e-03 -5.63500e-03
 -3.83900e-03 -5.57800e-03 -6.16600e-03 -1.53250e-02 -8.63100e-03
 -1.17960e-02 -4.31280e-02 -7.03370e-02 -7.65620e-02 -8.51820e-02
 -2.04940e-01 -1.98148e-01  6.47000e-03  6.87390e-02 -4.66800e-03
 -2.13370e-02 -1.66100e-02 -1.32440e-02 -1.07170e-02 -1.27170e-02
 -4.40100e-03 -5.15500e-03 -4.14700e-03 -3.45500e-03 -2.81900e-03
 -4.92800e-03 -2.98500e-03 -5.34800e-03 -6.49700e-03 -5.14500e-03
 -7.31400e-03 -1.24370e-02 -2.86780e-02 -2.52190e-02 -4.16190e-02
 -6.96260e-02 -1.05471e-01 -1.00615e-01 -8.14730e-02 -2.49710e-02
  5.89400e-03 -3.97940e-02 -2.00110e-02 -2.75650e-02 -3.13260e-02
 -1.68320e-02 -1.06510e-02 -8.20000e-03 -2.41200e-03 -3.69100e-03
 -2.19700e-03 -4.02000e-03 -5.34500e-03 -5.32500e-03 -6.27900e-03
 -4.26300e-03 -4.92900e-03 -5.95800e-03 -9.20900e-03 -9.66200e-03
 -7.15680e-02 -1.10513e-01 -5.08770e-02 -1.33080e-02 -4.45400e-02
 -9.97830e-02 -3.58840e-02  1.32634e-01  1.42140e-02 -7.94950e-02
 -6.48850e-02 -2.51880e-02 -4.09420e-02 -1.60960e-02 -9.15500e-03
 -8.97400e-03 -6.04400e-03 -5.23800e-03 -2.38400e-03 -3.04300e-03
 -6.04600e-03 -3.09900e-03 -4.62300e-03 -2.77400e-03 -5.75800e-03
 -7.43000e-03 -1.06910e-02 -7.99100e-03 -1.18590e-02 -1.19704e-01
 -7.02980e-02  7.74440e-02 -4.02040e-02 -1.61585e-01  1.06863e-01
  2.47567e-01  2.55000e-02 -7.66860e-02 -2.91800e-02 -3.92070e-02
 -3.04590e-02 -1.23910e-02 -1.33400e-02 -7.43300e-03 -5.20000e-03
 -6.81800e-03 -4.25900e-03 -5.18300e-03 -4.31000e-03 -4.80100e-03
 -4.85400e-03 -3.86300e-03 -3.76500e-03 -6.70000e-03 -8.62400e-03
 -8.13600e-03 -1.87620e-02 -9.76150e-02 -7.83590e-02 -1.40764e-01
 -3.37454e-01  5.88870e-02  1.38436e-01  1.20210e-01  8.30800e-03
 -5.21080e-02 -6.55620e-02 -3.57730e-02 -3.43380e-02 -1.46590e-02
 -8.93000e-03 -6.02600e-03 -6.03800e-03 -5.33500e-03 -3.49500e-03
 -3.62500e-03 -4.00800e-03 -3.91800e-03 -4.93900e-03 -4.25300e-03
 -5.31500e-03 -3.21300e-03 -8.92900e-03 -1.09560e-02 -9.57300e-03
 -8.77220e-02 -2.09213e-01 -3.42035e-01 -1.89057e-01  1.40230e-01
  1.17691e-01  3.49770e-02 -5.81900e-03 -2.08150e-02 -3.75560e-02
 -2.60060e-02 -4.25370e-02 -2.08410e-02 -7.53300e-03 -5.29200e-03
 -5.42500e-03 -3.88300e-03 -5.21600e-03 -1.52100e-03 -3.85300e-03
 -5.46600e-03 -4.37500e-03 -5.83100e-03 -6.18900e-03 -4.25200e-03
 -8.16300e-03 -1.06090e-02 -5.70100e-03 -1.43899e-01 -2.37280e-01
 -2.88902e-01  1.67896e-01  1.36021e-01  2.27000e-04 -1.52632e-01
 -6.87390e-02 -4.61310e-02 -2.48910e-02 -4.39400e-02 -4.45170e-02
  1.98140e-02  6.63900e-02 -2.80600e-03 -4.42600e-03 -6.36500e-03
 -5.56600e-03 -3.56000e-03 -3.76400e-03 -6.52900e-03 -3.13200e-03
 -4.86200e-03 -2.80600e-03 -4.82400e-03 -6.61200e-03 -6.76100e-03
 -6.99500e-03 -1.92350e-02 -8.66880e-02 -1.06592e-01  4.48470e-02
  2.62840e-02  3.48460e-02  4.07610e-02  2.17295e-01  3.52305e-01
  4.33407e-01  4.52455e-01  3.85803e-01  9.50610e-02  2.80000e-04
 -3.86100e-03 -4.19400e-03 -3.80700e-03 -5.35500e-03 -3.53800e-03
 -2.63600e-03 -2.60100e-03 -4.28400e-03 -3.09300e-03 -6.23300e-03
 -4.82300e-03 -5.80600e-03 -6.61400e-03 -3.74800e-03 -8.72000e-04
 -1.87120e-02  4.72800e-03  5.23390e-02  1.48980e-02  6.40450e-02
  1.82350e-01  2.52989e-01  2.59386e-01  1.49518e-01  1.31827e-01
 -1.84500e-03 -4.85700e-03 -8.10100e-03 -5.88800e-03 -3.30400e-03
 -3.58000e-03 -3.65500e-03 -3.03200e-03 -4.83400e-03 -4.89000e-03
 -2.58300e-03 -4.64900e-03 -5.29700e-03 -7.09800e-03 -3.81300e-03
 -8.47600e-03 -9.16300e-03 -4.14400e-03 -7.27500e-03 -3.27330e-02
 -4.31950e-02  1.57818e-01  1.34336e-01  5.26820e-02 -3.90700e-02
 -6.81400e-03 -8.97400e-03 -9.97500e-03 -1.25260e-02 -6.65800e-03
 -4.60600e-03 -7.25400e-03 -3.58900e-03 -4.05900e-03 -4.01900e-03
 -3.78900e-03 -3.30800e-03 -2.34700e-03 -5.08500e-03 -2.78500e-03
 -3.18300e-03 -3.57200e-03 -4.71400e-03 -4.73900e-03 -8.98400e-03
 -4.88600e-03 -2.82900e-03 -1.43530e-02 -7.41680e-02 -4.93720e-02
 -1.33570e-02 -1.99220e-02 -1.74180e-02 -8.69500e-03 -8.20800e-03
 -9.41200e-03 -6.89400e-03 -5.52600e-03 -8.29300e-03 -6.54000e-03
 -3.39500e-03 -4.00300e-03 -6.42300e-03 -5.99400e-03 -6.53800e-03
 -5.79600e-03 -3.18200e-03 -4.41300e-03 -5.19900e-03 -3.36000e-03
 -3.44400e-03 -1.39600e-03 -5.83800e-03 -7.27100e-03 -1.70500e-02
 -2.57140e-02 -1.99240e-02 -4.61700e-03 -8.84700e-03 -8.14600e-03
 -1.22010e-02 -9.35600e-03 -6.43400e-03 -5.39800e-03 -3.90000e-03
 -5.07700e-03 -6.95200e-03 -3.06200e-03 -4.82200e-03 -3.24200e-03
 -5.82300e-03 -2.80900e-03 -3.49900e-03 -3.94500e-03 -3.67800e-03
 -4.38900e-03 -4.41200e-03 -2.01600e-03 -5.51700e-03 -3.16900e-03
 -6.24500e-03 -6.76200e-03 -9.33400e-03 -8.68600e-03 -6.62500e-03
 -4.03800e-03 -3.79700e-03 -3.02100e-03 -3.89800e-03 -5.30600e-03
 -5.54500e-03 -3.28800e-03 -5.47300e-03 -4.96100e-03 -4.39400e-03
 -2.55800e-03 -3.21500e-03 -5.08800e-03 -2.27500e-03 -2.88300e-03
 -3.45900e-03 -3.91800e-03 -2.57800e-03 -4.36400e-03 -5.60300e-03
 -3.01200e-03 -4.76300e-03 -4.64500e-03 -3.90600e-03 -2.52700e-03
 -3.20300e-03 -5.50100e-03 -4.77000e-03 -3.28600e-03 -5.09200e-03
 -3.84800e-03 -3.09500e-03 -5.39900e-03 -4.33800e-03 -7.10800e-03
 -4.63600e-03 -4.70700e-03 -3.16500e-03 -5.18400e-03 -5.20400e-03
 -4.97200e-03 -5.31500e-03 -4.62000e-03 -3.79000e-03]
            b = -0.116109
            U = -1.257217, L = -1.668209

         Neuron : 4
            W = [ 4.71000e-04  4.74000e-04  6.92000e-04  5.68000e-04  6.42000e-04
  6.57000e-04  6.00000e-04  3.62000e-04  4.02000e-04  5.34000e-04
  1.08000e-04  6.44000e-04  4.29000e-04  5.88000e-04  5.35000e-04
  1.85000e-04  1.75000e-04  4.77000e-04  5.75000e-04  2.93000e-04
  2.47000e-04  6.51000e-04  4.89000e-04  6.58000e-04  6.14000e-04
  2.88000e-04  5.89000e-04  2.16000e-04  5.04000e-04  5.41000e-04
  5.88000e-04  6.74000e-04  1.60000e-04  2.85000e-04  2.20000e-04
  4.13000e-04  6.81000e-04  5.58000e-04  5.64000e-04  5.95000e-04
  5.02000e-04  7.01000e-04  8.31000e-04  4.57000e-04  5.82000e-04
  2.85000e-04  4.04000e-04  6.61000e-04  5.89000e-04  4.37000e-04
  4.88000e-04  2.53000e-04  3.91000e-04  7.60000e-04  2.55000e-04
  5.73000e-04  8.40000e-05  2.61000e-04  3.53000e-04  6.86000e-04
  1.65000e-04  3.11000e-04  8.17000e-04  7.55000e-04  3.57000e-04
  2.23000e-04  6.11000e-04  6.19000e-04  7.89000e-04  9.74000e-04
  4.06000e-04  7.94000e-04  1.21500e-03  4.86000e-04  1.79000e-04
  5.60000e-05  3.70000e-04  4.35000e-04  6.05000e-04  5.95000e-04
  3.60000e-04  5.36000e-04  5.06000e-04  2.93000e-04  4.79000e-04
  4.94000e-04  5.11000e-04  4.90000e-04  4.79000e-04  2.07000e-04
  2.54000e-04  3.04000e-04  3.62000e-04  4.18000e-04  6.92000e-04
  8.10000e-04  1.06100e-03  1.50600e-03  1.55300e-03  1.22200e-03
  1.15900e-03  6.67000e-04  3.04000e-04 -6.00000e-06  7.60000e-05
  7.33000e-04  6.46000e-04  3.67000e-04  8.04000e-04  4.49000e-04
  4.19000e-04  3.46000e-04  3.11000e-04  7.77000e-04  5.07000e-04
  5.76000e-04  4.58000e-04  2.64000e-04  1.24000e-04  1.57000e-04
  1.97000e-04  8.79000e-04  1.18000e-03  6.39000e-04  9.53000e-04
  2.11600e-03  8.82000e-04  1.14300e-03  7.93000e-04  1.21900e-03
  6.59000e-04 -1.15000e-04 -3.11000e-04  1.73000e-04  2.54000e-04
  1.17300e-03  9.69000e-04  6.68000e-04  4.03000e-04  9.30000e-05
  5.36000e-04  4.58000e-04  3.45000e-04  5.03000e-04  1.96000e-04
  3.34000e-04  4.38000e-04  2.74000e-04  3.58000e-04  1.57000e-04
 -4.20000e-05  1.65600e-03  3.39000e-03  1.60870e-02  7.48500e-03
  4.31410e-02  1.73017e-01  1.48718e-01  8.60800e-03  3.15800e-03
  5.21000e-04  7.80000e-04  6.61000e-04  7.06000e-04  7.99000e-04
  7.46000e-04  8.54000e-04  4.06000e-04  5.88000e-04  6.59000e-04
  3.91000e-04  4.19000e-04  6.52000e-04  5.28000e-04 -1.77000e-04
  7.44000e-04 -8.70000e-05 -4.17000e-04  1.45700e-03  2.64700e-03
  1.32870e-02 -3.54490e-02 -7.51770e-02 -5.66120e-02  5.92000e-04
  3.17180e-02  3.47660e-02  9.04800e-03  7.98000e-04  8.14000e-04
  1.23800e-03  1.10600e-03  8.72000e-04  5.45000e-04  2.46000e-04
  4.11000e-04  1.54000e-04  3.67000e-04  9.40000e-04  4.63000e-04
  6.86000e-04  8.63000e-04  4.98000e-04  4.68000e-04  2.98000e-04
 -4.07000e-04  1.73900e-03  7.63300e-03  1.91180e-02 -2.56040e-02
 -9.59000e-02  1.31660e-02  1.47613e-01  9.43820e-02  2.77970e-02
  8.60500e-03 -2.30900e-03  2.79000e-04 -4.60000e-05 -9.90000e-05
 -7.80000e-05  9.62000e-04  2.79000e-04  4.73000e-04  7.23000e-04
  7.45000e-04  4.02000e-04  5.62000e-04  1.26800e-03  9.93000e-04
  2.15000e-04  2.76000e-04 -8.92000e-04  1.20000e-03  5.10870e-02
  8.27170e-02  9.61100e-02  1.02341e-01  1.17373e-01  1.60344e-01
  1.16650e-01  5.89150e-02 -1.29061e-01 -1.52693e-01 -7.10430e-02
 -5.22100e-03 -1.20300e-03  1.46000e-04  8.04000e-04  6.00000e-04
  8.16000e-04  3.68000e-04  6.03000e-04  4.26000e-04  2.23000e-04
  8.50000e-05  4.74000e-04 -2.87000e-04 -5.18000e-04  1.90000e-05
 -1.11000e-04  2.97900e-03  1.07300e-02  9.77320e-02  8.62280e-02
  6.93540e-02  9.84490e-02  1.08127e-01  1.31900e-01 -1.55364e-01
 -4.99211e-01 -2.92392e-01 -1.08831e-01 -1.92700e-03  3.04000e-04
  3.37000e-04  7.17000e-04  6.19000e-04  8.33000e-04  1.81000e-04
  6.36000e-04  9.16000e-04  5.69000e-04 -1.87000e-04  1.56000e-04
  2.17000e-04 -1.33000e-04  7.00000e-05  1.55000e-04  5.08300e-03
  2.65621e-01  2.13687e-01  6.32700e-03 -2.59790e-02 -1.89110e-02
 -9.66000e-04 -7.09640e-02 -4.48721e-01 -5.42159e-01 -2.74268e-01
 -1.32270e-02  7.00000e-05  3.80000e-04  6.05000e-04  2.74000e-04
  1.13100e-03  6.03000e-04  7.24000e-04  8.64000e-04  5.15000e-04
  4.03000e-04  2.68000e-04  7.57000e-04  1.26000e-04  4.11000e-04
  6.65000e-04 -5.29000e-04  1.45493e-01  5.43956e-01  1.46062e-01
 -7.87170e-02 -1.64460e-02 -4.12270e-02 -2.30530e-02 -3.62020e-02
 -1.53188e-01 -8.97620e-02  3.64300e-03  1.43330e-02 -6.07000e-04
 -1.48700e-03  2.91000e-04  6.54000e-04  5.64000e-04  6.76000e-04
  7.50000e-05  2.36000e-04  5.10000e-04  6.12000e-04  3.00000e-04
  4.91000e-04  4.25000e-04 -7.90000e-05  1.33200e-03  1.01200e-03
  4.92596e-01  4.63576e-01 -8.67640e-02 -1.26916e-01 -8.00800e-03
 -1.06900e-02 -5.61000e-04  7.15300e-03  3.61640e-02  4.19460e-02
  5.45410e-02  1.78900e-03 -6.39000e-04 -4.70000e-04  5.31000e-04
  9.19000e-04  7.43000e-04  5.59000e-04  7.48000e-04  4.25000e-04
  9.77000e-04  4.47000e-04  6.77000e-04  1.37000e-04 -4.60000e-04
  2.72000e-04  5.75000e-04  2.60810e-02  4.23299e-01  1.43863e-01
 -1.78794e-01 -5.05070e-02 -2.76100e-02 -1.89863e-01  3.04000e-04
  8.24290e-02  1.16396e-01  8.26370e-02  4.22620e-02 -5.66000e-04
 -6.00000e-05  5.28000e-04  6.88000e-04  1.07200e-03  1.06400e-03
  5.10000e-04  4.04000e-04  5.73000e-04  3.87000e-04  2.41000e-04
  7.15000e-04  7.20000e-04 -8.11000e-04 -8.87000e-04  1.05800e-03
  3.22650e-02  1.72295e-01  7.10700e-02  4.36700e-03 -7.75100e-03
 -7.47390e-02 -1.20688e-01  1.18620e-02  1.77161e-01  2.33136e-01
  6.51900e-02  1.42430e-02 -1.77100e-03  7.00000e-05  1.13500e-03
  1.93000e-04  8.84000e-04  7.95000e-04  4.76000e-04  5.96000e-04
  4.42000e-04  8.31000e-04  5.93000e-04  6.65000e-04  5.00000e-04
 -3.59000e-04 -9.74000e-04  1.06510e-02 -1.13300e-02 -3.80000e-03
  1.18405e-01  2.68657e-01  1.18423e-01  8.83580e-02  1.08135e-01
  2.16280e-02  1.99802e-01  1.72039e-01  1.56810e-02 -1.96200e-03
 -3.31300e-03 -9.01000e-04 -1.85000e-04  8.61000e-04  1.26200e-03
  3.38000e-04  5.18000e-04  5.78000e-04  5.26000e-04  6.03000e-04
  3.11000e-04  4.49000e-04  4.29000e-04 -1.03000e-04  1.75000e-04
  1.31920e-02 -1.30354e-01 -1.46479e-01  3.65800e-02  2.90466e-01
  2.15432e-01  1.76580e-01  2.15040e-01  6.01050e-02  1.06077e-01
  3.03230e-02 -6.50000e-04 -7.08900e-03 -1.05100e-03 -3.05000e-04
 -1.36000e-04  8.49000e-04  9.64000e-04  8.42000e-04  2.85000e-04
  3.75000e-04  1.92000e-04  5.61000e-04  5.38000e-04  1.79000e-04
  8.18000e-04  7.54000e-04  1.57100e-03  4.72900e-03 -7.23670e-02
 -1.19524e-01  4.83700e-03  1.61273e-01  1.51905e-01  8.15740e-02
  1.96390e-01  1.09306e-01  3.79150e-02 -6.81000e-04 -3.29900e-03
 -2.10300e-03 -5.33000e-04  2.27000e-04  4.72000e-04  1.28100e-03
  6.68000e-04  3.78000e-04  3.51000e-04  5.78000e-04  5.49000e-04
  5.76000e-04  3.54000e-04  2.94000e-04  5.69000e-04  5.58000e-04
  1.70400e-03  7.62200e-03  5.58000e-03 -1.33230e-02 -3.95540e-02
  1.03320e-02  2.26300e-03 -2.75500e-03  4.51430e-02  9.20000e-03
  1.92400e-03 -3.28000e-03 -2.03500e-03  7.50000e-05 -7.70000e-05
  2.07000e-04  6.52000e-04  7.94000e-04  5.48000e-04  4.82000e-04
  5.92000e-04  2.06000e-04  6.92000e-04  5.68000e-04  4.43000e-04
  4.92000e-04  4.49000e-04 -2.92000e-04 -6.11000e-04  1.06100e-02
  1.07863e-01  8.97890e-02 -8.01200e-03 -7.29410e-02 -1.35600e-02
  3.37000e-03  2.14900e-03 -3.70000e-04  4.68100e-03  3.98000e-04
 -9.68000e-04 -3.90000e-05  1.97000e-04  8.39000e-04  5.36000e-04
  9.46000e-04  6.07000e-04  2.44000e-04  4.14000e-04  4.43000e-04
  2.98000e-04  3.67000e-04  4.15000e-04  8.41000e-04  8.88000e-04
  2.14000e-04 -2.43000e-04  1.73630e-02  4.07226e-01  2.53762e-01
  1.10243e-01  3.97860e-02  2.93390e-02  3.02440e-02  3.08000e-03
  3.65800e-03  6.14900e-03  5.69900e-03  2.38700e-03  7.62200e-03
  6.31000e-04  5.19000e-04  4.85000e-04  8.40000e-04  3.32000e-04
  6.02000e-04  1.14000e-04  2.41000e-04  3.60000e-04  6.14000e-04
  3.99000e-04  6.76000e-04  4.99000e-04  2.53000e-04  4.95000e-04
  1.97800e-03  8.40560e-02  1.68718e-01  9.67800e-02  3.87030e-02
  2.42070e-02  1.37890e-02  1.66900e-03  1.91700e-03  2.27100e-03
  1.33300e-03 -9.70000e-05 -2.37000e-04 -1.88000e-04  7.41000e-04
  9.16000e-04  6.01000e-04  8.01000e-04  6.46000e-04  5.72000e-04
  3.25000e-04  7.89000e-04  4.66000e-04  4.47000e-04  4.56000e-04
  6.60000e-04  6.23000e-04  3.64000e-04 -1.29000e-04  1.89600e-03
  3.21700e-02  5.70680e-02  6.57140e-02  1.45190e-02  1.89290e-02
  1.16940e-02  8.62700e-03  6.52100e-03  2.34200e-03  6.13000e-04
 -5.38000e-04 -5.90000e-05  6.08000e-04  7.41000e-04  1.13000e-04
  3.65000e-04  2.23000e-04  3.51000e-04  6.82000e-04  7.08000e-04
  8.38000e-04  5.77000e-04  7.33000e-04  6.79000e-04  8.44000e-04
  9.11000e-04 -6.17000e-04 -1.81300e-03  8.52000e-04  3.37680e-02
  1.81179e-01  1.74233e-01  1.22076e-01  7.42880e-02  4.00910e-02
  3.88600e-03  8.38000e-04  3.80000e-05 -1.97000e-04  4.43000e-04
  3.44000e-04  6.18000e-04  5.60000e-04 -2.31000e-04  6.72000e-04
  5.49000e-04  2.94000e-04  5.11000e-04  4.97000e-04  7.79000e-04
  3.13000e-04  4.96000e-04  8.90000e-04  1.24200e-03  4.46000e-04
 -5.95000e-04  1.40000e-04  2.83000e-04  9.86000e-04  1.56800e-03
  2.25800e-03  2.16200e-03  1.55000e-03  9.79000e-04  8.58000e-04
  1.05100e-03  3.77000e-04  4.43000e-04  5.62000e-04  2.56000e-04
  2.01000e-04  6.36000e-04  6.51000e-04  5.74000e-04  6.65000e-04
  2.35000e-04  6.95000e-04  2.47000e-04  4.24000e-04  3.50000e-04
  5.83000e-04  7.64000e-04  7.42000e-04  6.14000e-04  5.03000e-04
  3.61000e-04  3.55000e-04  1.06900e-03  1.38400e-03  9.46000e-04
  1.50900e-03  1.68800e-03  1.30900e-03  1.02700e-03  4.10000e-04
  9.70000e-05  5.87000e-04  4.73000e-04  4.60000e-04  6.48000e-04
  6.03000e-04  3.65000e-04  4.44000e-04  7.40000e-04  4.03000e-04
  5.71000e-04  2.15000e-04  2.40000e-04  4.13000e-04  1.95000e-04
  6.93000e-04  5.99000e-04  1.29000e-03  9.17000e-04  1.08100e-03
  1.38600e-03  1.03200e-03  8.72000e-04  8.79000e-04  9.26000e-04
  6.63000e-04  9.94000e-04  5.75000e-04  5.40000e-04  6.93000e-04
  8.20000e-04  5.98000e-04  3.22000e-04  3.36000e-04  5.52000e-04
  4.34000e-04  2.98000e-04  5.62000e-04  5.81000e-04  6.36000e-04
  4.66000e-04  4.22000e-04  5.13000e-04  5.82000e-04  3.91000e-04
  5.67000e-04  3.21000e-04  7.49000e-04  5.17000e-04  6.93000e-04
  3.52000e-04  7.88000e-04  3.55000e-04  7.09000e-04  7.54000e-04
  4.40000e-04  2.97000e-04  4.22000e-04  6.24000e-04  5.73000e-04
  1.58000e-04  5.83000e-04  2.82000e-04  5.86000e-04]
            b = 0.12482
            U = 2.440853, L = 2.095506

         Neuron : 5
            W = [-6.70000e-04 -1.35500e-03 -6.84000e-04 -4.15000e-04  1.88000e-04
 -4.08000e-04 -2.17000e-04 -2.20600e-03 -2.74000e-04 -4.55000e-04
 -1.24300e-03  2.00000e-04 -6.65000e-04 -7.31000e-04 -5.95000e-04
 -6.05000e-04 -1.06600e-03 -2.66000e-04  8.62000e-04 -4.01000e-04
  2.65000e-04  4.88000e-04 -5.76000e-04 -1.08000e-04 -5.70000e-05
 -9.73000e-04  1.14000e-04 -6.74000e-04 -1.29000e-04 -7.92000e-04
 -1.27300e-03 -7.30000e-05  1.80000e-05 -8.36000e-04 -6.81000e-04
 -7.07000e-04 -3.86000e-04 -3.82000e-04 -1.82000e-04 -1.48000e-04
 -9.64000e-04 -5.01000e-04 -8.68000e-04 -4.31000e-04 -9.70000e-05
 -7.14000e-04 -4.79000e-04 -1.07200e-03 -3.68000e-04 -8.86000e-04
 -9.24000e-04 -2.16000e-04 -4.59000e-04  2.17000e-04 -2.87000e-04
  7.37000e-04 -4.93000e-04  2.09000e-04 -6.13000e-04 -1.77000e-04
 -1.08600e-03  2.26000e-04 -5.17000e-04  1.04000e-04  4.53000e-04
 -1.60900e-03  8.30000e-05 -4.76000e-04 -1.11000e-03 -1.09000e-04
 -2.90000e-05  8.88000e-04  5.90000e-04  1.60000e-05 -7.89000e-04
 -7.51000e-04 -4.29000e-04 -8.82000e-04 -8.22000e-04  2.48000e-04
 -5.36000e-04 -1.30000e-05 -1.55900e-03 -2.11000e-04 -1.23900e-03
 -1.38300e-03 -5.54000e-04 -1.08800e-03 -3.33000e-04  1.01000e-04
 -5.70000e-04 -7.55000e-04 -9.59000e-04 -2.25000e-04 -1.04200e-03
 -1.66000e-04 -8.80000e-04  1.19100e-03  1.84700e-03  2.87000e-04
  2.06200e-03  2.38200e-03  1.35800e-03 -2.52000e-04 -6.11000e-04
 -4.06000e-04 -3.57000e-04 -4.90000e-04  3.20000e-05 -6.82000e-04
 -1.45600e-03 -1.99000e-04 -4.55000e-04 -3.15000e-04 -7.07000e-04
 -1.13000e-03 -1.09500e-03 -1.03800e-03 -1.27900e-03 -1.11400e-03
 -6.28000e-04 -1.81100e-03 -9.77000e-04 -3.24800e-03 -1.65200e-03
 -2.46100e-03 -4.67800e-03 -6.37200e-03 -1.13200e-03  1.83000e-04
  1.63300e-03  7.79000e-04  1.00000e-04 -1.14700e-03 -8.64000e-04
 -8.19000e-04  3.82000e-04 -7.09000e-04 -7.41000e-04 -3.42000e-04
 -3.20000e-05 -5.35000e-04  4.48000e-04 -4.07000e-04 -1.26400e-03
 -1.35000e-04 -7.64000e-04 -1.90900e-03 -2.20800e-03 -2.60200e-03
 -2.03300e-03 -1.44800e-03 -1.44600e-03  2.55810e-02 -5.55060e-02
 -2.46370e-02  1.08439e-01  2.91115e-01  1.54230e-02  4.90000e-05
 -3.47900e-03 -4.02800e-03 -2.32900e-03 -8.30000e-04  6.30000e-05
 -2.13000e-04 -4.23000e-04  2.06000e-04 -1.34800e-03 -4.16000e-04
 -1.84900e-03 -1.21200e-03 -2.70000e-05 -3.86000e-04 -1.04200e-03
 -2.66500e-03 -5.87800e-03 -8.23400e-03 -8.99500e-03 -3.50600e-03
 -9.55600e-03  1.18140e-01  1.30553e-01  3.11230e-02  2.15600e-03
  5.88730e-02  1.75843e-01  6.99000e-04 -5.92300e-03 -9.00100e-03
 -3.39600e-03 -1.65800e-03 -1.30400e-03 -3.99000e-04 -1.93000e-04
 -5.68000e-04 -1.20700e-03 -1.12000e-03 -4.21000e-04  4.00000e-05
 -4.10000e-05  3.83000e-04 -1.14200e-03 -2.19800e-03 -7.10700e-03
 -5.93100e-03 -5.62400e-03  7.15000e-04  1.24728e-01  9.64700e-02
 -3.24660e-02 -1.09689e-01 -1.04865e-01  2.35729e-01  3.77491e-01
  7.85500e-03 -2.60230e-02 -1.07950e-02 -2.70500e-03 -2.05500e-03
 -1.17200e-03 -1.30000e-04  3.11000e-04  1.23000e-04  2.21000e-04
 -4.66000e-04 -6.32000e-04  2.32000e-04 -1.05000e-04 -9.07000e-04
  9.99000e-04 -3.72600e-03 -3.37300e-03 -1.65600e-03 -2.53340e-02
 -1.53640e-02  9.81100e-03  2.79140e-02 -1.02548e-01 -4.20261e-01
  5.67140e-02  2.61174e-01  3.24209e-01 -8.29290e-02 -1.04173e-01
 -8.30500e-03 -2.46800e-03  3.19000e-04 -6.66000e-04 -1.23000e-03
  3.50000e-05 -8.24000e-04 -6.20000e-05 -7.81000e-04 -1.25700e-03
 -1.63000e-04 -2.41600e-03  4.55000e-04 -4.82000e-04 -1.92100e-03
 -1.67300e-03 -5.36600e-03 -1.00790e-02 -1.09838e-01 -5.49630e-02
 -1.43555e-01 -3.96450e-01  4.45130e-02  3.09010e-01  4.08296e-01
 -1.28336e-01 -1.96347e-01 -1.52445e-01 -4.44900e-03  8.45000e-04
 -2.51000e-04 -2.47300e-03 -9.77000e-04 -8.36000e-04  8.10000e-05
  4.48000e-04 -1.03600e-03 -8.79000e-04 -2.06100e-03 -4.47000e-04
  4.48000e-04 -3.60100e-03  1.60000e-04 -1.36700e-03 -4.21000e-03
 -1.17727e-01 -9.37490e-02 -4.02830e-02 -6.81680e-02  1.17026e-01
  2.87137e-01  3.08142e-01 -4.42680e-01 -2.86596e-01 -1.68900e-01
 -3.01300e-02 -3.25200e-03  5.82000e-04 -1.41000e-04 -1.07100e-03
 -5.14000e-04 -5.45000e-04 -9.70000e-05  1.17800e-03 -6.48000e-04
 -4.24000e-04 -9.93000e-04 -6.88000e-04 -3.04000e-03 -1.27000e-03
  9.64000e-04  1.64000e-04 -1.57280e-02 -9.50440e-02 -9.20140e-02
 -6.37990e-02  4.04180e-02  4.95764e-01  1.02717e-01 -1.90791e-01
 -3.32987e-01 -7.68650e-02 -2.45240e-02 -1.75600e-02 -3.29200e-03
  3.53000e-04  6.55000e-04 -8.63000e-04 -5.39000e-04 -6.29000e-04
 -7.72000e-04 -5.07000e-04 -2.94000e-04 -1.03300e-03 -6.62000e-04
 -9.53000e-04 -3.60400e-03 -2.14900e-03 -9.50000e-05 -4.88000e-04
 -3.15000e-04  1.19007e-01 -8.02200e-03 -7.95920e-02  2.08332e-01
  1.35514e-01 -1.67983e-01 -2.46899e-01 -7.74580e-02  2.21280e-02
 -2.28540e-02  2.54200e-03 -7.94000e-04 -2.00000e-05  5.68000e-04
 -6.19000e-04  2.56000e-04 -2.22000e-04 -2.60000e-05 -1.22700e-03
 -3.62000e-04 -9.13000e-04 -3.60000e-05 -3.04700e-03 -1.87300e-03
 -2.29100e-03 -1.57100e-03 -9.35500e-03 -4.19290e-02  8.26130e-02
 -4.66160e-02 -1.34760e-02  1.49394e-01 -1.49890e-02 -1.97461e-01
 -1.00243e-01  7.74340e-02  6.99020e-02  3.18830e-02  2.87700e-03
 -8.23000e-04 -8.53000e-04  5.60000e-05 -4.07000e-04 -5.97000e-04
 -9.40000e-05 -1.28900e-03 -6.72000e-04 -1.67000e-04 -9.76000e-04
 -1.46000e-03 -9.77000e-04 -2.60600e-03 -2.80700e-03  8.51000e-04
 -2.93650e-02 -6.41860e-02 -5.82390e-02 -1.22740e-01 -1.48689e-01
  4.02540e-02 -4.66490e-02 -1.68450e-02 -3.61480e-02  1.34423e-01
  7.31570e-02  2.99320e-02  7.81900e-03  4.03000e-04 -1.68500e-03
 -2.30000e-04 -5.43000e-04 -2.52000e-04 -1.48000e-04 -6.02000e-04
  9.10000e-05 -7.25000e-04 -9.30000e-05 -6.12000e-04 -1.45200e-03
  7.00000e-06 -3.56800e-03 -1.11680e-02 -8.64610e-02 -4.70270e-02
 -1.12293e-01 -2.66895e-01 -1.47007e-01 -4.40380e-02  1.58928e-01
 -1.95000e-03 -3.89100e-03 -5.24600e-03  9.74900e-03  1.29650e-02
  6.34600e-03  1.72000e-03 -1.47000e-04 -1.22500e-03 -1.18900e-03
 -1.30100e-03 -4.18000e-04 -5.00000e-06 -5.54000e-04  1.89000e-04
 -1.33000e-03  2.97000e-04  7.84000e-04  2.42000e-04  3.15000e-04
 -3.97650e-02 -8.99160e-02 -6.92370e-02 -8.53290e-02 -2.43857e-01
 -1.32751e-01  2.38960e-02  8.80550e-02  5.16400e-02  9.08900e-03
 -4.13460e-02 -1.51750e-02 -5.26900e-03 -9.26000e-04  9.04000e-04
 -5.09000e-04 -1.51100e-03 -3.08000e-04 -1.37500e-03 -9.36000e-04
 -9.10000e-05 -6.66000e-04 -2.97000e-04  1.90000e-05  8.30000e-05
 -5.28000e-04  5.94000e-04 -1.57800e-03 -8.47200e-03 -5.89360e-02
 -4.79180e-02 -5.85320e-02 -1.12260e-01 -3.00430e-02 -2.18747e-01
 -3.57760e-02  1.59470e-01  5.43260e-02 -1.28760e-02 -1.73470e-02
 -1.19390e-02 -1.79000e-03  1.47100e-03 -1.65000e-04 -1.01600e-03
 -8.69000e-04 -1.66300e-03 -1.02000e-04 -3.01000e-04 -3.22000e-04
 -9.06000e-04 -6.67000e-04 -8.20000e-05  1.42000e-04 -1.92100e-03
 -2.61000e-03 -1.40740e-02 -4.42770e-02 -3.36890e-02 -1.13229e-01
 -5.94830e-02  1.46000e-02 -1.56388e-01 -9.95800e-02  4.18820e-02
  3.34850e-02 -2.54270e-02 -8.48400e-03 -9.14700e-03 -4.43500e-03
  1.72000e-04 -9.09000e-04 -1.01200e-03 -1.12100e-03 -1.17200e-03
 -1.07400e-03 -5.66000e-04 -5.44000e-04 -2.71000e-04 -2.40000e-05
  1.11700e-03 -1.30000e-05 -1.75900e-03  1.18900e-03 -2.64000e-03
 -3.14620e-02 -2.88490e-02 -6.77360e-02 -7.30470e-02 -3.60080e-02
 -4.92100e-02  5.82140e-02  1.93800e-02 -7.17200e-03 -7.62100e-03
 -4.82000e-04 -7.19000e-03 -3.36500e-03 -3.16900e-03 -6.72000e-04
 -1.04400e-03 -8.60000e-04 -8.85000e-04 -6.19000e-04 -1.36500e-03
  9.40000e-05 -1.06500e-03 -1.08600e-03  4.50000e-04 -8.82000e-04
 -1.74900e-03 -2.15400e-03 -1.47100e-03 -1.21598e-01 -7.47240e-02
 -9.31220e-02 -6.17630e-02 -3.23900e-03  2.54246e-01  1.88854e-01
  4.52300e-02 -2.48230e-02 -1.81530e-02 -2.68000e-03 -1.80720e-02
 -6.94600e-03 -3.13700e-03 -4.23000e-04 -6.38000e-04 -1.31700e-03
 -2.82000e-04 -7.98000e-04 -4.85000e-04 -4.56000e-04 -6.52000e-04
 -1.01800e-03 -1.28600e-03 -3.98000e-04 -2.60100e-03 -3.86300e-03
 -5.14100e-03 -2.29900e-02 -5.32020e-02 -8.16820e-02 -5.36900e-03
  3.85220e-02  4.00990e-02  1.11880e-02 -4.65400e-03 -8.47000e-03
 -3.61700e-03 -3.65900e-03 -8.69200e-03 -8.02400e-03 -2.77500e-03
 -4.91000e-04 -1.10200e-03 -8.90000e-04 -1.02200e-03  2.90000e-05
 -3.64000e-04 -1.14500e-03 -3.91000e-04 -1.32000e-04 -1.18200e-03
 -7.17000e-04 -1.75900e-03 -6.04400e-03 -6.60600e-03 -7.85600e-03
 -4.02180e-02 -2.05100e-02  1.26530e-02  1.17470e-02  2.96080e-02
  1.19220e-02 -1.29700e-02 -2.08480e-02 -5.40000e-03 -4.53300e-03
 -5.70100e-03 -4.75900e-03 -3.51900e-03 -1.49700e-03 -1.19100e-03
 -7.91000e-04 -1.30000e-03 -7.56000e-04 -2.07000e-04 -9.18000e-04
  1.08000e-04 -1.03700e-03 -1.44000e-04  2.81000e-04 -2.92000e-04
 -8.93000e-04 -3.43000e-04  2.25500e-03  1.07496e-01  2.18529e-01
  1.51545e-01 -1.15708e-01 -2.67121e-01 -1.82661e-01 -1.41266e-01
 -1.04910e-02 -3.85400e-03 -2.50500e-03 -1.00000e-03 -3.32800e-03
 -2.86300e-03 -2.61800e-03 -1.44900e-03 -2.78000e-04 -3.43000e-04
 -6.58000e-04 -1.48700e-03 -1.01600e-03 -5.10000e-05 -6.77000e-04
 -6.13000e-04 -4.57000e-04  4.51000e-04  5.08000e-04  2.34500e-03
  3.89800e-03  6.23500e-03  7.09700e-03  6.20600e-03 -7.58000e-04
 -2.09900e-03 -3.80400e-03 -7.50000e-04 -1.75000e-03 -1.82100e-03
  1.06700e-03  1.29900e-03 -2.15000e-03 -2.43300e-03 -1.27800e-03
 -1.34700e-03 -6.77000e-04 -8.25000e-04 -2.14000e-04 -1.15700e-03
 -5.23000e-04 -9.45000e-04 -6.89000e-04 -1.70400e-03 -2.95000e-04
 -1.16400e-03 -1.45000e-03 -1.86600e-03 -2.72300e-03 -7.68000e-04
  1.12400e-03  4.81000e-04 -9.85000e-04 -5.14000e-04 -2.06100e-03
  4.14000e-04  1.03700e-03  4.17000e-04 -8.93000e-04 -7.34000e-04
 -1.46900e-03 -2.24000e-03 -2.17500e-03 -1.07500e-03 -1.08100e-03
  2.50000e-05 -1.23000e-04 -8.98000e-04  3.88000e-04 -1.06900e-03
 -1.02900e-03  7.10000e-05 -1.12600e-03 -5.30000e-05 -8.51000e-04
 -6.94000e-04 -7.79000e-04 -6.34000e-04 -7.29000e-04 -7.61000e-04
 -5.60000e-04  6.00000e-05 -8.52000e-04 -1.73000e-04 -1.33000e-04
 -1.33200e-03  1.11000e-04 -1.68000e-04 -1.47800e-03 -3.58000e-04
 -1.15300e-03 -2.97000e-04 -1.12000e-03 -3.07000e-04  5.08000e-04
 -6.26000e-04 -1.04400e-03 -4.95000e-04 -5.70000e-04 -9.08000e-04
 -1.40200e-03 -1.06900e-03 -5.71000e-04 -2.73000e-04 -1.21300e-03
 -6.60000e-04 -3.56000e-04  4.40000e-05 -2.46000e-04 -1.02900e-03
 -1.13500e-03 -1.07900e-03 -1.01000e-04 -9.10000e-04 -1.02800e-03
 -5.70000e-04 -8.42000e-04  1.01000e-04 -4.71000e-04  5.63000e-04
 -3.99000e-04 -2.83000e-04 -5.48000e-04 -1.98200e-03]
            b = -0.101988
            U = 1.162168, L = 0.788074

         Neuron : 6
            W = [ 1.26800e-03  1.15600e-03  9.81000e-04  1.48700e-03  1.29900e-03
  1.14400e-03  1.22800e-03  1.32100e-03  1.21700e-03  1.36800e-03
  1.25600e-03  1.19400e-03  1.31700e-03  1.38700e-03  1.10900e-03
  1.05800e-03  9.97000e-04  1.13000e-03  1.03500e-03  1.22500e-03
  1.41900e-03  1.25900e-03  1.28100e-03  1.16400e-03  1.35100e-03
  1.38800e-03  1.09300e-03  9.76000e-04  1.31000e-03  1.46400e-03
  1.17100e-03  1.27500e-03  1.37400e-03  1.17300e-03  1.06900e-03
  1.03300e-03  1.30200e-03  1.33300e-03  1.29900e-03  9.92000e-04
  1.07600e-03  1.21000e-03  1.41600e-03  1.32600e-03  1.48400e-03
  1.30000e-03  1.20600e-03  9.81000e-04  1.23100e-03  1.27100e-03
  1.16800e-03  1.39600e-03  1.21900e-03  1.35400e-03  1.21100e-03
  1.22500e-03  1.23300e-03  1.04100e-03  1.10600e-03  1.01300e-03
  1.30000e-03  1.12800e-03  1.56000e-03  1.36500e-03  1.39900e-03
  1.35100e-03  1.43500e-03  1.33800e-03  1.18100e-03  1.19700e-03
  1.29000e-03  1.32000e-03  1.69200e-03  1.38300e-03  1.13700e-03
  1.03100e-03  1.24200e-03  1.04200e-03  1.26800e-03  1.46700e-03
  1.07800e-03  1.34600e-03  1.21100e-03  1.47500e-03  1.25000e-03
  1.17400e-03  1.28900e-03  1.50200e-03  1.18000e-03  1.06200e-03
  1.33700e-03  1.08100e-03  1.17000e-03  1.61000e-03  1.23700e-03
  1.41500e-03  1.11800e-03  9.86000e-04  1.34400e-03  1.09900e-03
  1.70200e-03  1.34000e-03  4.69000e-04  1.60000e-04  9.01000e-04
  1.18300e-03  1.12200e-03  1.25800e-03  1.34100e-03  1.41200e-03
  1.18000e-03  1.38000e-03  1.53600e-03  1.33400e-03  1.11800e-03
  1.28500e-03  9.99000e-04  9.54000e-04  1.27900e-03  1.61100e-03
  1.38500e-03  1.10500e-03  8.91000e-04  1.27000e-03  8.89000e-04
  1.67100e-03  1.41300e-03  2.03700e-03  1.56300e-03  1.30800e-03
  3.75000e-04  4.25000e-04  7.61000e-04  1.36000e-03  1.21100e-03
  1.39900e-03  1.29600e-03  1.25200e-03  1.25900e-03  1.18900e-03
  1.32800e-03  1.12700e-03  1.36100e-03  1.23900e-03  1.59200e-03
  1.68800e-03  1.98400e-03  1.78900e-03  2.04200e-03  1.40300e-03
  7.90000e-04  1.75100e-03  2.33500e-03  5.51720e-02  6.75370e-02
  1.90750e-02 -1.69699e-01 -1.17617e-01 -2.96000e-03 -4.79000e-04
  8.26000e-04  1.22100e-03  1.53000e-03  1.51000e-03  1.55700e-03
  1.56900e-03  1.27500e-03  1.29100e-03  1.33100e-03  1.19200e-03
  1.20300e-03  1.39800e-03  1.45800e-03  1.60700e-03  2.02700e-03
  2.32900e-03  2.53800e-03  1.84100e-03  2.70600e-03  3.80900e-03
  2.96270e-02  4.81210e-02  6.46730e-02  2.15770e-02 -1.82140e-02
 -1.77480e-02 -1.21840e-02 -1.37200e-03 -5.03000e-04  5.53000e-04
  1.32900e-03  1.49200e-03  1.75600e-03  1.39600e-03  1.35100e-03
  1.00200e-03  9.66000e-04  1.55000e-03  1.16200e-03  1.51500e-03
  1.72000e-03  1.88900e-03  1.80500e-03  2.44700e-03  2.61700e-03
  2.74800e-03  4.04400e-03  5.16000e-03  7.19000e-04  1.58990e-02
  1.13352e-01  9.46510e-02  5.87530e-02  1.07870e-02 -2.21740e-02
  4.44900e-03  1.66600e-03  9.13000e-04  1.00000e-03  2.00300e-03
  1.84000e-03  1.47300e-03  1.22500e-03  1.20200e-03  1.25100e-03
  1.43600e-03  1.00700e-03  1.28300e-03  1.66700e-03  1.63700e-03
  1.73900e-03  2.46100e-03  3.25400e-03  4.15100e-03  2.83870e-02
  9.99000e-03  2.42970e-02  1.02746e-01  2.35149e-01  2.19817e-01
  8.79780e-02  4.69800e-03 -5.12880e-02 -2.16190e-02  1.39980e-02
  5.69000e-04  5.73000e-04  9.63000e-04  1.63100e-03  1.34500e-03
  1.36800e-03  1.37100e-03  1.11500e-03  1.45800e-03  1.33000e-03
  1.67400e-03  1.62000e-03  1.74200e-03  1.97400e-03  2.06400e-03
  2.29500e-03  2.74100e-03  4.50200e-03  2.27840e-02  5.18600e-02
  1.25654e-01  3.77595e-01  3.81357e-01  3.81127e-01 -2.57560e-02
 -2.28921e-01 -7.12110e-02  2.26700e-02  1.05500e-03  5.17000e-04
  7.49000e-04  1.73200e-03  1.14100e-03  1.09600e-03  1.35500e-03
  1.25800e-03  1.17800e-03  1.38700e-03  1.34400e-03  1.46000e-03
  1.86500e-03  1.44900e-03  1.92900e-03  1.81800e-03  2.99200e-03
  2.90680e-02  2.55120e-02  4.49240e-02  6.34330e-02  4.37674e-01
  4.51649e-01  3.61461e-01 -1.43803e-01 -2.59786e-01 -4.73100e-02
  1.15180e-02  2.36200e-03  4.20000e-05  1.94000e-03  1.04400e-03
  1.12200e-03  1.18600e-03  1.50900e-03  1.39700e-03  1.25100e-03
  1.03600e-03  1.17400e-03  1.61000e-03  2.00200e-03  9.06000e-04
  1.28700e-03  1.35800e-03  3.74310e-02  2.06560e-02  3.90840e-02
  9.15810e-02  1.33477e-01  5.04729e-01  2.96452e-01  7.08290e-02
 -6.45360e-02 -5.48060e-02  1.71950e-02  1.98150e-02  2.58300e-03
  1.67900e-03  1.62500e-03  1.43000e-03  1.09200e-03  1.12400e-03
  9.98000e-04  1.39800e-03  1.38300e-03  1.32500e-03  1.01700e-03
  1.53100e-03  1.62400e-03  1.00500e-03  1.81500e-03  2.20600e-03
  6.27470e-02 -4.24400e-03  4.53480e-02  1.19361e-01  1.45136e-01
  2.52331e-01  1.28738e-01  9.89900e-03 -4.88460e-02 -2.02470e-02
  2.76500e-03  3.40200e-03  1.29100e-03  1.17100e-03  1.92100e-03
  1.16100e-03  1.33300e-03  1.34500e-03  1.24800e-03  1.44300e-03
  1.47400e-03  1.38200e-03  1.09000e-03  1.16300e-03  1.65200e-03
  1.22200e-03  3.64700e-03  2.02780e-02  2.10980e-02 -8.39980e-02
 -7.43300e-03  7.17250e-02  4.74810e-02  1.41181e-01  2.19410e-02
 -2.90230e-02 -4.69380e-02 -3.52230e-02 -9.65400e-03  1.05500e-03
  2.45500e-03  1.85800e-03  1.38900e-03  1.53800e-03  1.25900e-03
  1.12600e-03  1.20600e-03  1.10900e-03  1.22600e-03  1.43000e-03
  1.18900e-03  1.02300e-03  1.59600e-03  1.07900e-03  2.73300e-03
  2.37210e-02 -3.77530e-02 -9.76050e-02 -1.94490e-02  4.60060e-02
  3.97210e-02  8.06910e-02  4.32000e-04 -9.07520e-02 -1.53922e-01
 -3.48910e-02 -9.66400e-03  1.12500e-03  2.38600e-03  2.35700e-03
  2.00000e-03  1.92000e-03  1.66500e-03  1.50000e-03  1.42200e-03
  1.31800e-03  1.33300e-03  1.26300e-03  1.08600e-03  1.34300e-03
  1.67300e-03  2.17400e-03  2.09360e-02 -4.49000e-03 -1.55431e-01
 -1.20223e-01  8.18300e-03  8.00810e-02  1.40151e-01  1.62163e-01
  7.28500e-03 -7.39710e-02 -1.25587e-01 -1.79250e-02 -6.73900e-03
 -6.17000e-04  1.56100e-03  1.92500e-03  1.93800e-03  2.18200e-03
  1.62300e-03  1.48800e-03  1.46000e-03  1.09400e-03  1.39700e-03
  1.28700e-03  8.44000e-04  1.02400e-03  1.12500e-03  1.79700e-03
  5.92190e-02 -6.19380e-02 -2.08540e-01 -9.53810e-02  4.83130e-02
  9.46360e-02  1.62357e-01  1.98151e-01  2.53340e-02 -8.94800e-03
 -2.47090e-02 -4.69800e-03 -2.84600e-03  1.19500e-03  1.34900e-03
  1.41800e-03  1.90500e-03  1.67600e-03  1.57300e-03  1.38400e-03
  1.28100e-03  1.51700e-03  9.94000e-04  1.12900e-03  1.07900e-03
  8.60000e-04  1.21900e-03  3.53900e-03  9.93200e-03  8.78200e-03
 -7.96160e-02 -1.12814e-01 -8.24540e-02  1.40270e-02  1.38513e-01
  2.09293e-01  6.50950e-02  1.02700e-03 -2.61100e-03 -1.93100e-03
  7.86000e-04  1.81100e-03  1.79900e-03  1.46800e-03  1.41800e-03
  1.48800e-03  1.47100e-03  1.21200e-03  1.22000e-03  1.37600e-03
  1.32700e-03  8.80000e-04  5.38000e-04  7.80000e-04  1.06700e-03
  1.61600e-03  1.19870e-02  1.68840e-02 -3.65410e-02 -1.57689e-01
 -5.05550e-02  1.39190e-02  8.92870e-02  9.94500e-02  1.04450e-02
  4.58800e-03  2.49800e-03 -8.39000e-04  9.21000e-04  1.64800e-03
  1.69900e-03  1.86900e-03  1.25600e-03  1.40400e-03  1.31400e-03
  1.37200e-03  1.20300e-03  1.17900e-03  1.25600e-03  1.22400e-03
  6.44000e-04  9.63000e-04  8.10000e-04  9.53000e-04  1.13200e-03
 -4.35880e-02 -6.95150e-02 -2.35020e-02  9.28990e-02  1.23097e-01
  9.82300e-02  3.00720e-02  3.20600e-03  2.61500e-03  4.98000e-04
 -3.38000e-04  1.39900e-03  2.73800e-03  1.53000e-03  1.41900e-03
  1.04100e-03  1.12600e-03  9.46000e-04  1.34100e-03  1.14600e-03
  1.09500e-03  1.37500e-03  1.31200e-03  1.00100e-03  9.31000e-04
  6.14000e-04  8.38000e-04 -1.83900e-03 -2.02139e-01 -1.39960e-01
  5.08000e-03  1.01659e-01  1.58630e-01  1.11944e-01  4.14030e-02
  7.34400e-03  7.81000e-04  6.21000e-03  5.66900e-03  5.25100e-03
  1.87400e-03  1.02000e-03  1.35700e-03  7.66000e-04  1.02100e-03
  1.16500e-03  1.35400e-03  1.35700e-03  1.25000e-03  1.36800e-03
  1.45200e-03  1.44700e-03  1.11600e-03  8.27000e-04  7.69000e-04
  7.84000e-04 -2.10700e-02 -7.88870e-02 -2.24720e-02  1.11560e-02
  1.30110e-02  5.72200e-03  7.56000e-04  1.91200e-03  3.68300e-03
  3.90300e-03  2.82800e-03  1.89300e-03  9.25000e-04  1.43000e-03
  1.40700e-03  1.21900e-03  1.33300e-03  1.38900e-03  1.28800e-03
  1.37600e-03  1.38800e-03  1.22100e-03  1.24900e-03  1.11300e-03
  1.15400e-03  4.50000e-04  4.07000e-04  5.00000e-05  3.17000e-04
 -1.21190e-02 -4.96800e-03  1.28520e-02  5.81800e-03  7.87900e-03
  6.92000e-03  6.86700e-03  9.98400e-03  3.21500e-03  2.11800e-03
  1.70500e-03  1.66300e-03  1.29600e-03  1.04700e-03  1.33800e-03
  1.56200e-03  1.25700e-03  1.21500e-03  1.36000e-03  1.37300e-03
  1.45500e-03  9.93000e-04  1.31300e-03  1.20500e-03  9.87000e-04
  6.47000e-04  1.08700e-03  1.35100e-03  2.38700e-03  3.45000e-03
  1.07585e-01  1.57852e-01  1.51736e-01  1.14036e-01  7.30210e-02
  3.79700e-03  1.30800e-03  1.38900e-03  2.15200e-03  1.92500e-03
  1.48200e-03  1.07400e-03  1.40400e-03  1.23200e-03  1.30100e-03
  1.27200e-03  1.29700e-03  1.17700e-03  1.37200e-03  1.30700e-03
  1.17000e-03  1.14800e-03  4.34000e-04  6.50000e-04  1.05400e-03
  1.52600e-03  2.49800e-03  2.66200e-03  3.65700e-03  3.57100e-03
  3.12800e-03  2.85200e-03  1.41000e-03  1.05600e-03  7.94000e-04
  1.61800e-03  1.53400e-03  1.46700e-03  1.32400e-03  1.35500e-03
  1.34200e-03  1.36000e-03  1.36700e-03  1.59400e-03  1.07000e-03
  1.37200e-03  1.38100e-03  1.20700e-03  1.46200e-03  8.64000e-04
  9.21000e-04  9.93000e-04  1.26700e-03  1.89000e-03  2.37300e-03
  2.06900e-03  2.20500e-03  2.02100e-03  1.76400e-03  1.54400e-03
  1.10200e-03  7.52000e-04  1.26300e-03  1.42900e-03  1.27900e-03
  1.22700e-03  1.42700e-03  1.39800e-03  1.06000e-03  1.20900e-03
  1.32800e-03  1.22500e-03  1.27700e-03  1.36100e-03  1.21200e-03
  1.00900e-03  1.42500e-03  1.35300e-03  1.32200e-03  1.27000e-03
  1.28500e-03  1.40100e-03  1.37100e-03  1.32400e-03  1.03000e-03
  1.34500e-03  1.40300e-03  1.28500e-03  1.28200e-03  1.42900e-03
  1.00300e-03  9.89000e-04  1.08000e-03  1.23800e-03  1.26300e-03
  1.64300e-03  1.05700e-03  1.27700e-03  1.05200e-03  1.42600e-03
  1.26300e-03  1.24800e-03  1.29800e-03  1.50900e-03  1.16300e-03
  1.00900e-03  1.47000e-03  1.44400e-03  1.28500e-03  1.39300e-03
  1.38200e-03  1.30100e-03  1.55500e-03  1.25400e-03  1.21700e-03
  1.49700e-03  9.79000e-04  1.35400e-03  1.31200e-03  1.45500e-03
  1.53400e-03  1.10700e-03  1.26300e-03  1.34600e-03  1.33400e-03
  1.35900e-03  1.35200e-03  1.09800e-03  1.23400e-03]
            b = 0.564655
            U = 5.050205, L = 4.75488

         Neuron : 7
            W = [-1.59430e-02 -2.57870e-02 -2.86610e-02 -2.30760e-02 -3.39240e-02
 -2.60330e-02 -5.25440e-02 -5.44990e-02 -2.86780e-02 -1.09379e-01
 -2.06600e-02 -3.18580e-02 -1.48820e-02 -1.48820e-02 -2.29870e-02
 -1.41720e-02 -1.73630e-02 -3.22810e-02 -2.72810e-02 -3.03630e-02
  3.58000e-04 -3.08150e-02  2.20000e-04 -9.17300e-03 -2.05500e-03
 -2.31060e-02 -5.69700e-03 -1.35270e-02 -1.72230e-02 -3.98700e-03
 -1.42030e-02 -2.93120e-02 -4.11960e-02 -1.44590e-02 -9.54000e-03
 -8.48220e-02 -2.36050e-02 -3.11580e-02 -2.00650e-02 -2.52390e-02
 -2.08230e-02 -3.83200e-02 -1.45630e-02 -4.17050e-02 -8.83600e-03
 -4.83070e-02 -2.49120e-02 -1.34610e-02 -3.87510e-02 -5.40440e-02
 -4.04260e-02 -3.84900e-03 -3.56770e-02 -1.68100e-03 -2.29430e-02
 -4.27950e-02 -1.59430e-02 -3.07510e-02 -3.93590e-02 -2.84940e-02
  5.20600e-03 -2.12170e-02 -2.33450e-02 -1.03960e-02 -2.53340e-02
 -1.51600e-02 -3.41490e-02 -4.89880e-02 -4.56970e-02 -8.06300e-03
 -2.69740e-02 -5.54730e-02 -1.27430e-02 -4.39800e-03 -1.50360e-02
 -4.33690e-02 -1.59800e-03 -4.93180e-02 -7.19220e-02 -1.41710e-02
 -1.61310e-02 -4.56080e-02 -3.03530e-02 -2.86640e-02 -1.38550e-02
 -1.36410e-02 -1.64527e-01  9.00000e-04 -8.76800e-03 -1.30090e-02
 -3.92090e-02 -2.70940e-02 -1.16950e-02 -2.96370e-02 -6.20530e-02
 -1.63960e-02  1.60700e-03  5.73000e-04 -3.91920e-02 -4.04070e-02
 -2.33150e-02 -2.01200e-02 -2.81720e-02 -7.44100e-03 -2.54180e-02
 -2.41110e-02 -2.13090e-02 -2.17390e-02 -2.17190e-02 -9.22000e-03
 -5.08780e-02 -3.37060e-02 -3.10470e-02 -2.83560e-02 -1.92290e-02
 -6.87500e-03 -2.96300e-02 -9.80300e-03 -8.87200e-02 -4.03220e-02
 -3.04380e-02 -8.39800e-02 -4.68140e-02 -2.98230e-02 -3.04190e-02
 -5.02200e-03 -6.37240e-02 -5.62090e-02 -2.13700e-03 -9.68790e-02
 -1.41720e-02 -3.58780e-02 -2.18220e-02 -2.13470e-02 -3.01450e-02
 -2.44010e-02 -4.95080e-02 -2.09810e-02 -1.94490e-02 -3.12820e-02
 -1.34060e-02 -2.21570e-02 -3.42290e-02 -1.88900e-02 -7.19600e-03
 -2.69100e-03 -1.62520e-02 -7.61480e-02 -9.71300e-02 -8.85700e-02
  8.47740e-02 -1.32110e-02 -3.74560e-02  7.52140e-02  1.95100e-03
 -2.58630e-02 -2.59950e-02 -4.46560e-02 -1.12400e-03 -5.26980e-02
 -2.37880e-02 -4.32250e-02 -2.91260e-02 -2.97980e-02 -8.85700e-03
  1.65900e-03 -9.23100e-03 -1.71910e-02 -1.30070e-02  1.10900e-03
 -9.33700e-03 -1.77830e-02 -1.37960e-02 -7.44300e-03 -2.47770e-02
 -7.40590e-02 -1.77130e-02 -2.64040e-02  9.80740e-02  1.74600e-03
 -1.98190e-02 -1.46760e-02 -5.18400e-02 -9.99710e-02 -1.02801e-01
  7.45290e-02 -1.26998e-01 -1.31735e-01  3.20710e-02 -6.26070e-02
 -3.18960e-02 -3.77450e-02 -2.71040e-02 -3.65550e-02 -6.90780e-02
 -4.36800e-03 -4.52500e-02 -2.75040e-02 -3.19850e-02 -4.32820e-02
 -8.08730e-02 -4.10810e-02 -6.59390e-02 -4.38480e-02 -3.68900e-03
 -5.39450e-02 -8.43300e-03 -2.70920e-02 -2.26790e-02  2.39800e-03
 -7.90550e-02 -5.09290e-02 -2.58140e-02 -7.29860e-02  2.49410e-02
 -3.11240e-02  3.18890e-02 -9.56350e-02 -9.27400e-03 -5.19610e-02
 -6.38180e-02 -3.47170e-02 -3.60580e-02 -3.36790e-02 -4.28210e-02
 -6.57160e-02 -3.35920e-02 -4.02500e-02 -3.19050e-02  7.54400e-03
 -1.24370e-02 -3.60200e-02  2.79000e-04 -4.36700e-02 -3.15350e-02
 -6.15160e-02 -7.00780e-02  1.19400e-02 -4.02410e-02 -9.89380e-02
 -6.35790e-02 -2.93330e-02 -2.64990e-02 -7.02930e-02 -3.26890e-02
 -1.32120e-02 -4.44290e-02 -4.99180e-02 -3.82760e-02 -2.94450e-02
 -3.88860e-02 -7.15350e-02 -2.39820e-02 -2.21220e-02 -1.64110e-02
 -3.90720e-02 -5.86660e-02 -8.76200e-03  2.32160e-02  2.19600e-02
 -1.61700e-03 -1.22749e-01 -6.36880e-02 -7.22300e-02 -7.27440e-02
 -7.22220e-02 -9.25610e-02 -1.97280e-01 -8.49400e-02 -2.66630e-02
 -7.65770e-02 -6.64800e-03 -1.17645e-01 -7.84480e-02  2.45660e-02
 -6.88500e-02 -8.77690e-02 -3.02090e-02 -3.65400e-02 -3.11500e-03
 -2.90470e-02 -3.02800e-02 -4.01650e-02 -1.96740e-02 -2.72730e-02
  2.21850e-02 -1.59830e-02  1.45620e-02 -4.97240e-02 -6.44540e-02
 -1.38514e-01 -6.14590e-02 -7.22630e-02 -6.73020e-02 -7.73500e-02
 -1.44616e-01 -1.81041e-01 -8.10390e-02 -1.23513e-01 -4.90310e-02
 -8.42060e-02 -1.67220e-02  4.69950e-02 -2.03140e-02 -1.80160e-02
 -2.64090e-02 -1.90840e-02 -1.43480e-02 -3.59870e-02 -2.01940e-02
 -4.22600e-02 -4.09580e-02 -3.40450e-02  7.32220e-02 -2.17760e-02
  4.55680e-02 -8.85270e-02 -5.69980e-02 -7.31460e-02 -1.41572e-01
 -1.73543e-01 -7.38530e-02 -5.72740e-02 -4.19110e-02 -1.07401e-01
 -1.59664e-01 -1.19389e-01 -1.76186e-01 -4.43780e-02  7.36970e-02
  5.23480e-02  6.80000e-04 -3.04210e-02  5.27500e-03 -2.96420e-02
 -3.29170e-02 -5.36300e-03 -2.68160e-02  4.14900e-03 -1.67420e-02
 -4.54860e-02  3.21200e-03 -5.20320e-02 -1.17130e-02 -8.55430e-02
 -3.96470e-02 -2.19300e-02 -7.44550e-02 -8.45440e-02 -1.12680e-01
 -7.94860e-02 -1.31959e-01 -1.51343e-01 -2.03272e-01 -8.52830e-02
 -7.23100e-02 -1.02389e-01 -8.30610e-02 -3.03280e-02  1.21965e-01
 -3.10620e-02 -2.25580e-02 -1.76490e-02  3.86400e-03 -5.77590e-02
 -3.01980e-02 -2.83090e-02 -2.46330e-02 -3.12270e-02  1.97990e-02
 -5.25650e-02  5.17700e-03 -4.51200e-02 -4.23610e-02 -2.85490e-02
 -7.10620e-02 -1.44039e-01 -5.00650e-02 -1.37409e-01 -1.56110e-01
 -5.80180e-02 -4.71100e-02 -4.46890e-02 -1.39645e-01 -9.88840e-02
 -5.16570e-02 -3.75840e-02  6.84200e-02  3.04210e-02 -3.84500e-03
 -1.99420e-02  7.65000e-03  3.29700e-03 -2.57580e-02 -3.45010e-02
 -3.46610e-02 -2.45120e-02  2.94820e-02  1.28333e-01 -6.53400e-02
 -1.61043e-01 -4.03770e-02 -1.38099e-01 -1.27028e-01 -6.35960e-02
 -1.45012e-01 -1.48987e-01 -1.62367e-01 -1.06651e-01  5.88780e-02
  3.98540e-02 -1.09065e-01 -5.26170e-02 -9.52850e-02 -1.22504e-01
  3.45400e-02 -2.50330e-02 -2.47800e-03 -1.66410e-02 -1.48380e-02
 -4.89930e-02 -3.44390e-02 -6.01940e-02 -2.86770e-02 -1.99610e-02
  1.07636e-01  8.42190e-02  1.06210e-02 -5.71190e-02 -1.20347e-01
 -9.13000e-02 -3.50950e-02 -1.51493e-01 -6.91410e-02 -1.60511e-01
 -1.31996e-01 -7.12680e-02  1.16700e-03 -1.81340e-02 -8.54290e-02
 -1.71541e-01 -9.67010e-02 -1.39355e-01 -2.86420e-02  2.75780e-02
 -7.38930e-02 -4.87350e-02 -3.29700e-03 -6.87500e-03 -1.76770e-02
 -4.03480e-02 -1.49120e-02  2.43900e-03 -4.47740e-02  2.87040e-02
 -3.24550e-02 -2.14310e-02 -1.77595e-01 -1.00841e-01 -8.78360e-02
 -6.62350e-02 -1.27689e-01 -1.86333e-01 -2.16745e-01 -1.06317e-01
  1.19340e-02 -1.13252e-01 -1.72130e-02 -4.39120e-02 -5.81530e-02
  4.09400e-03  1.16201e-01  8.70810e-02 -9.17500e-02 -3.09890e-02
 -2.11760e-02 -7.98400e-03 -2.42390e-02 -9.85280e-02 -1.77100e-03
 -3.61370e-02 -6.09800e-02  7.09810e-02  6.93000e-04 -1.48670e-02
 -5.75190e-02 -1.57625e-01 -1.67746e-01 -9.96350e-02 -1.91129e-01
 -1.21276e-01 -1.50691e-01 -1.31813e-01 -5.97530e-02 -3.23900e-02
 -1.89834e-01 -6.69020e-02 -5.74620e-02  3.73610e-02  1.02980e-01
  6.89820e-02 -7.48610e-02 -2.30540e-02 -2.00200e-02 -2.29000e-04
 -3.21220e-02 -4.05100e-03 -9.15900e-03 -2.14790e-02 -6.40180e-02
 -2.30810e-02  2.41810e-02  1.90310e-02  6.08400e-03 -7.51290e-02
 -1.00760e-01 -1.44714e-01 -1.23003e-01 -1.47739e-01 -1.21347e-01
 -5.21810e-02 -2.87540e-02 -3.71890e-02 -5.94480e-02 -9.27190e-02
  1.15530e-02  9.23500e-03  5.33400e-02  4.49380e-02 -2.45239e-01
 -3.62080e-02 -3.35020e-02 -1.83470e-02 -8.11910e-02 -1.48170e-02
 -1.14980e-02 -3.56980e-02 -6.49700e-02 -1.00014e-01 -3.09420e-02
 -9.47900e-03  8.76430e-02 -2.27250e-02 -9.27410e-02 -8.14590e-02
 -8.19120e-02 -6.72780e-02 -7.81300e-02 -8.65360e-02 -8.02620e-02
 -4.52290e-02 -1.65970e-02 -4.57250e-02 -5.54000e-03  8.05300e-02
  8.28780e-02 -5.67030e-02 -3.09990e-02 -1.88260e-01 -3.02850e-02
 -9.67400e-03 -2.31140e-02 -1.75000e-02 -4.45600e-03 -9.67820e-02
 -7.73030e-02 -8.21500e-02 -1.79440e-02 -2.29380e-02 -4.02480e-02
  4.21280e-02  4.96880e-02  5.70650e-02 -5.94000e-03 -1.00082e-01
 -1.14807e-01 -8.50090e-02 -2.64130e-02 -3.88720e-02  3.24760e-02
 -7.49880e-02 -2.17620e-02 -2.65210e-02 -1.34920e-02 -5.12140e-02
 -4.47110e-02 -1.06420e-02 -3.33700e-02 -7.54600e-03 -1.89770e-02
 -2.49260e-02 -1.83940e-02 -9.15260e-02 -7.08950e-02 -6.22460e-02
 -8.73930e-02 -6.73690e-02 -1.57100e-02  9.04850e-02  3.86650e-02
 -2.34130e-02  1.72830e-02  5.87800e-03  2.98420e-02 -3.76600e-03
  3.41670e-02  4.66380e-02  2.15860e-02  1.56800e-03  9.01070e-02
 -9.17000e-03 -1.54327e-01 -8.66360e-02 -3.09390e-02 -1.44920e-02
 -2.45410e-02 -3.29410e-02 -1.53080e-02 -3.01490e-02 -2.21430e-02
 -3.02560e-02 -8.53940e-02 -5.43300e-02 -5.19200e-02 -1.10284e-01
 -7.91150e-02 -5.69110e-02  7.87470e-02 -3.44040e-02  2.79270e-02
  7.74100e-03 -7.43700e-03 -2.87950e-02  5.69500e-03 -2.08980e-02
 -5.26680e-02 -3.16850e-02 -9.95300e-03 -5.48150e-02 -4.06300e-02
 -3.82100e-03 -2.24730e-02 -2.01670e-02  6.56000e-04 -2.31290e-02
 -2.48840e-02 -1.20802e-01 -3.17730e-02 -6.39390e-02 -7.94680e-02
 -6.39170e-02 -4.84750e-02 -7.54710e-02 -1.71174e-01 -5.11340e-02
 -6.15600e-03  4.75590e-02 -1.50580e-02 -1.91540e-02 -9.12720e-02
  4.57370e-02  1.63740e-02 -2.50860e-02 -4.67110e-02 -6.17890e-02
 -2.86560e-02 -6.78660e-02  9.36000e-04 -2.33820e-02 -6.39900e-03
 -7.41000e-04 -6.58200e-03 -7.07830e-02 -2.15000e-02 -2.27530e-02
 -3.46580e-02 -4.58340e-02 -5.08880e-02 -2.74010e-02 -5.57600e-02
 -4.44390e-02 -7.11070e-02 -7.38280e-02 -3.61000e-02 -3.93500e-02
 -3.18680e-02 -2.39110e-02 -4.08900e-02 -2.32150e-02 -3.28340e-02
 -4.45760e-02 -2.95150e-02 -1.06904e-01 -8.28200e-03 -1.98560e-02
 -2.92700e-02 -2.26860e-02 -2.33500e-02 -2.13780e-02 -1.61240e-02
 -3.36660e-02 -3.66530e-02 -9.24100e-03 -1.16270e-02 -1.55410e-02
 -3.62620e-02 -4.04730e-02 -4.07970e-02 -8.02800e-03 -1.89850e-02
 -3.53130e-02 -8.81700e-03 -7.34500e-02 -1.56210e-02 -2.43270e-02
 -4.24710e-02 -5.49720e-02 -6.44750e-02 -8.30900e-03 -5.83890e-02
 -2.05620e-02 -1.57480e-02 -2.13670e-02 -6.39170e-02 -1.29910e-02
 -1.20100e-02 -6.17400e-03 -1.39010e-02 -7.94500e-02 -3.54000e-03
 -1.56110e-02 -9.84600e-03 -2.29250e-02 -2.15060e-02 -3.27680e-02
  4.44800e-03 -1.74190e-02 -2.92070e-02 -1.54640e-02 -8.37300e-03
 -2.87980e-02 -2.36120e-02 -1.40860e-02 -1.98790e-02 -2.18980e-02
 -1.92650e-02 -1.00957e-01 -1.22340e-02 -4.76200e-03 -1.20400e-02
 -5.01790e-02 -2.59060e-02 -2.11220e-02 -3.47170e-02 -2.09090e-02
 -1.59180e-02 -4.25290e-02 -2.57420e-02 -2.79300e-02 -2.49740e-02
 -3.33280e-02 -8.46100e-03 -1.55780e-02 -1.19580e-02 -1.63480e-02
 -4.56000e-04 -6.12200e-03 -2.38500e-03 -1.79060e-02 -1.01620e-02
 -3.41410e-02 -6.53240e-02 -2.06440e-02 -6.89000e-03 -7.78010e-02
 -1.92950e-02 -2.56800e-02 -1.26840e-02 -2.04580e-02 -1.16420e-02
 -2.32560e-02 -3.84580e-02 -2.59210e-02 -1.47572e-01]
            b = -0.06903
            U = -3.816234, L = -4.533561

         Neuron : 8
            W = [-1.40000e-05 -1.56000e-04  2.48000e-04 -3.31000e-04  7.50000e-05
  1.31500e-03 -6.00000e-06  1.07200e-03 -7.23000e-04  5.21000e-04
  5.42000e-04  6.17000e-04 -6.60000e-05  4.70000e-04  6.50000e-04
  1.04500e-03  1.04200e-03  1.93000e-04 -4.52000e-04  1.36500e-03
 -6.20000e-05  3.00000e-05  4.09000e-04  8.84000e-04 -6.39000e-04
 -3.70000e-05  7.72000e-04  5.14000e-04  6.88000e-04  2.57000e-04
 -6.00000e-05  5.08000e-04  1.89100e-03  6.05000e-04  9.82000e-04
 -4.46000e-04  5.43000e-04  5.18000e-04 -1.15000e-04  2.00000e-04
 -5.80000e-05  1.21400e-03  1.37700e-03 -5.36000e-04 -2.55000e-04
  3.45000e-04 -1.96000e-04  5.00000e-04  8.82000e-04 -1.00000e-06
  9.39000e-04  2.48000e-04  5.24000e-04 -3.68000e-04 -1.37000e-04
  2.29000e-04 -2.22000e-04  7.00000e-04  3.71000e-04  7.21000e-04
  6.69000e-04 -9.81000e-04 -7.88000e-04  6.74000e-04  1.13500e-03
  1.99000e-04  1.27100e-03  1.16400e-03  1.71000e-03  1.73200e-03
  1.94000e-03  1.41100e-03  1.08200e-03 -3.90000e-05 -5.21000e-04
  1.00200e-03  4.49000e-04 -2.71000e-04  5.51000e-04  6.39000e-04
  1.01000e-03  1.25000e-03  3.98000e-04  2.80000e-05  9.11000e-04
 -2.50000e-04  4.59000e-04 -3.69000e-04  8.62000e-04  1.65000e-04
  9.63000e-04 -2.64000e-04 -2.33000e-04  1.40400e-03  1.89000e-03
  1.23300e-03  1.11500e-03  7.80000e-04  3.10000e-05  1.77500e-03
 -3.26000e-04 -1.35300e-03 -8.93000e-04 -1.61800e-03  2.04000e-04
  6.10000e-05  3.68000e-04  1.05700e-03  1.61000e-04  2.54000e-04
  2.00000e-04  8.00000e-06  2.87000e-04  1.18800e-03 -4.95000e-04
  1.12000e-04  1.90400e-03 -3.20000e-05  1.44000e-04  6.23000e-04
  1.91000e-04  9.18000e-04  2.92300e-03  3.83000e-04 -3.99800e-03
 -1.43360e-02 -1.25810e-02 -9.31600e-03 -7.63700e-03 -8.09800e-03
 -7.33900e-03 -4.65400e-03 -2.78500e-03 -1.13300e-03 -9.00000e-06
  6.45000e-04 -1.55100e-03  6.61000e-04 -7.06000e-04  4.32000e-04
  5.14000e-04  3.11000e-04  4.47000e-04  8.30000e-04 -7.23000e-04
  8.50000e-05  2.22700e-03  3.65300e-03  2.58900e-03  4.02000e-04
  1.26949e-01 -3.80000e-04 -1.37941e-01 -2.73143e-01 -2.18549e-01
 -5.30000e-02 -3.28940e-02 -4.71770e-02 -1.52640e-02 -9.71400e-03
 -5.29500e-03 -2.06300e-03 -2.61000e-04  4.61000e-04 -5.46000e-04
  8.24000e-04 -3.80000e-05  8.08000e-04  5.96000e-04  1.73900e-03
 -2.91000e-04 -1.20000e-05  5.74000e-04  4.83000e-04  3.90800e-03
  4.26400e-03  1.77600e-03  3.52180e-02  4.60370e-02  1.66000e-04
 -2.88540e-02 -4.25250e-01 -3.67749e-01 -7.63780e-02  9.20400e-03
  4.79500e-03 -3.10530e-02 -1.82730e-02 -6.16400e-03 -5.21500e-03
 -2.60800e-03 -1.84000e-03 -5.62000e-04 -7.75000e-04  5.26000e-04
 -5.60000e-05  4.20000e-05  4.96000e-04 -9.00000e-05 -3.02000e-04
  1.14900e-03  1.87900e-03  1.55500e-03  1.36400e-03  4.09300e-03
  1.10870e-02  4.86530e-02  1.69360e-02 -3.89940e-02 -2.46030e-01
 -4.03491e-01 -2.63467e-01 -6.41260e-02  2.96420e-02 -2.57580e-02
 -2.70500e-02 -1.52060e-02 -7.18400e-03 -5.16400e-03 -1.55000e-03
  8.50000e-05  1.98000e-04  1.00800e-03 -1.06000e-04  3.52000e-04
  5.85000e-04  5.62000e-04  1.54300e-03  5.34000e-04  2.71700e-03
  2.80000e-04  1.18590e-02  2.42610e-02  1.44970e-02  2.69622e-01
  2.56144e-01  1.38520e-02 -2.53872e-01 -5.22739e-01 -3.30956e-01
 -3.68620e-02  2.69760e-02 -1.81740e-02 -4.94870e-02 -1.36200e-02
 -8.72000e-04 -7.67000e-04  1.78400e-03 -2.38000e-04  1.44700e-03
  6.38000e-04  9.50000e-04  1.00400e-03  5.95000e-04  1.65000e-04
  6.79000e-04 -8.68000e-04  7.44000e-04  2.72500e-03  2.54200e-03
  3.72800e-03  9.08700e-03  2.85580e-02  2.75812e-01  1.53896e-01
 -8.40500e-02 -5.41293e-01 -4.54197e-01 -2.41451e-01 -1.59940e-02
 -4.84400e-02 -7.76000e-02 -1.97600e-02 -2.56300e-03 -2.05600e-03
  8.80000e-05  1.30200e-03 -7.50000e-04 -8.96000e-04 -9.10000e-05
 -8.14000e-04  1.81400e-03  1.68700e-03 -1.53100e-03  1.28600e-03
 -5.24000e-04 -3.21500e-03 -5.73100e-03 -3.63000e-03  2.60200e-03
  4.47620e-02  2.15645e-01  2.62453e-01  1.94466e-01 -2.81428e-01
 -4.70730e-01 -2.47874e-01 -5.93230e-02 -5.54200e-02 -6.46660e-02
 -7.01800e-03 -2.88600e-03 -6.90000e-05  1.07000e-04  2.37000e-04
  1.67000e-04  4.59000e-04 -1.40400e-03 -1.12000e-04 -8.70000e-04
 -7.28000e-04  1.64000e-04  9.96000e-04 -1.43000e-03 -3.53100e-03
 -4.02000e-03 -5.68700e-03 -1.09070e-02 -5.40780e-02  2.34267e-01
  3.23110e-01  4.51464e-01  9.53350e-02 -3.38779e-01 -1.29245e-01
 -8.65370e-02 -2.78110e-02 -2.53880e-02 -1.48390e-02 -1.08000e-03
 -2.05400e-03  1.07400e-03  1.04400e-03  5.68000e-04 -4.10000e-05
  3.16000e-04  1.47300e-03 -2.52000e-04  5.13000e-04 -2.16000e-04
 -2.10000e-05 -1.68300e-03 -2.46500e-03 -3.58000e-03 -5.67700e-03
 -2.95300e-03 -9.23030e-02  4.02460e-02  2.80114e-01  4.77365e-01
  1.38056e-01 -2.13382e-01 -1.77107e-01 -1.54561e-01 -4.27940e-02
 -6.25010e-02 -8.02000e-03 -3.48400e-03  2.28000e-04  1.90500e-03
  1.03400e-03  4.97000e-04  1.62000e-04 -5.65000e-04  7.58000e-04
 -1.75000e-04 -3.95000e-04  5.32000e-04  9.42000e-04  1.51900e-03
 -1.83400e-03 -7.03200e-03 -2.18420e-02  3.99000e-03 -5.46150e-02
 -6.80570e-02  1.74908e-01  3.20517e-01  2.81203e-01 -5.46760e-02
 -2.48455e-01 -1.24391e-01 -5.41620e-02 -3.53750e-02 -2.68500e-03
 -1.52200e-03 -1.23700e-03  4.30000e-05  1.16400e-03  9.97000e-04
  4.91000e-04  1.53000e-04  1.30200e-03  3.22000e-04 -2.21000e-04
  4.54000e-04  1.08600e-03 -1.55000e-03 -4.52200e-03 -5.62600e-03
 -2.55890e-02 -7.51390e-02 -1.47398e-01 -2.29138e-01  1.34347e-01
  3.64064e-01  2.54078e-01 -1.63320e-02 -2.76102e-01 -2.02439e-01
 -5.84830e-02 -1.61910e-02 -4.12400e-03 -2.40200e-03 -9.07000e-04
  7.35000e-04  1.41900e-03  2.70000e-04 -7.98000e-04  1.48000e-04
  8.13000e-04  9.46000e-04  1.03400e-03  2.05000e-04  6.72000e-04
 -6.18000e-04 -5.47000e-03 -2.25090e-02 -1.23648e-01 -1.38339e-01
 -1.24772e-01  5.93590e-02 -4.44830e-02  1.60564e-01  1.09710e-01
  3.89300e-03 -8.49030e-02 -1.14509e-01 -1.17500e-02 -2.54600e-03
 -4.92000e-04  2.87000e-04 -7.17000e-04  5.84000e-04  1.37000e-03
  9.48000e-04  3.94000e-04  6.82000e-04 -6.40000e-04  1.67000e-03
  9.41000e-04  1.15900e-03  3.02000e-04 -1.70900e-03 -5.09100e-03
 -1.15542e-01 -1.86395e-01 -4.08300e-02  9.84000e-03  5.58300e-03
 -5.66750e-02 -8.52930e-02  2.72271e-01  2.21680e-02  1.13740e-02
  2.76360e-02  1.12960e-02  4.35600e-03 -3.63300e-03  3.79000e-04
  2.75500e-03  6.26000e-04  1.37000e-04  2.41000e-04  5.99000e-04
 -8.50000e-05  9.12000e-04 -4.70000e-04 -1.09000e-03  8.55000e-04
 -5.01000e-04  1.10500e-03 -9.65200e-03 -2.38380e-02 -7.90660e-02
 -2.95580e-02 -3.41990e-02  1.18816e-01  4.96570e-02 -7.01240e-02
  8.19280e-02  2.60872e-01  5.40050e-02  2.13320e-02  7.81700e-03
 -5.12600e-03 -5.20500e-03  2.75300e-03  1.42500e-03  1.14200e-03
  3.65000e-04  3.20000e-05  5.42000e-04  9.00000e-04  1.04000e-03
 -4.33000e-04  9.41000e-04 -6.87000e-04  2.71000e-04 -1.83000e-04
 -7.05100e-03 -1.85600e-02 -6.03110e-02 -5.42920e-02 -1.91730e-02
 -9.44720e-02  6.01620e-02 -5.70950e-02  1.11690e-02  3.13801e-01
  4.61510e-02  4.69820e-02  3.04800e-03 -2.88000e-03 -1.19800e-03
  1.62200e-03 -1.60000e-05  2.56800e-03  3.04400e-03 -8.70000e-05
 -6.41000e-04  7.74000e-04  6.51000e-04  4.40000e-05  1.33700e-03
 -5.23000e-04 -1.53500e-03  8.80000e-05 -2.52000e-04 -4.05300e-03
 -7.99590e-02 -9.24260e-02 -1.20100e-03  5.56510e-02 -6.22600e-03
 -9.21890e-02 -1.07136e-01 -8.37100e-03  9.32500e-03  7.02300e-03
  9.99700e-03  1.83100e-03 -3.11100e-03 -4.51000e-04 -1.80000e-04
  9.91000e-04  1.31300e-03  1.07700e-03  3.34000e-04  6.35000e-04
  7.01000e-04  2.47000e-04 -1.32300e-03  1.27600e-03 -3.11000e-04
  3.63000e-04 -2.95000e-04 -8.79800e-03 -1.45808e-01 -7.86040e-02
  4.85710e-02  3.25990e-02 -3.14420e-02 -1.29465e-01 -2.96833e-01
 -2.15696e-01 -2.43960e-02  2.42570e-02  8.84650e-02  1.29485e-01
 -1.40100e-03 -3.57800e-03 -7.48000e-04 -1.12400e-03 -1.01200e-03
  1.05600e-03  9.67000e-04  8.01000e-04  6.33000e-04 -5.33000e-04
  2.10000e-04 -4.32000e-04  1.03400e-03 -7.94000e-04 -1.32100e-03
 -2.25000e-04 -2.10130e-02 -4.32630e-02  5.89000e-04 -4.42000e-04
 -2.36350e-02 -5.18330e-02 -2.06310e-02 -3.33840e-02 -1.97130e-02
 -2.70900e-03  9.00000e-03  6.25600e-03 -1.66900e-03 -7.90000e-04
  1.51100e-03 -1.44700e-03 -1.48000e-03 -7.08000e-04  1.41700e-03
  1.22000e-04 -1.32100e-03  4.40000e-05  9.50000e-05 -8.60000e-05
 -4.91000e-04 -1.10700e-03 -2.39000e-03 -1.29900e-03  6.07000e-04
 -1.42710e-02 -4.40970e-02 -7.29050e-02 -3.57370e-02 -5.84080e-02
 -1.40020e-02 -1.64130e-02 -4.14210e-02 -3.46700e-03  4.96000e-04
  1.07900e-03  5.29000e-04  1.80800e-03  8.99000e-04  1.23000e-03
 -3.25000e-04  4.27000e-04  1.67000e-04  6.55000e-04 -2.77000e-04
  9.17000e-04  4.56000e-04 -3.17000e-04  4.20000e-05  1.22400e-03
  2.65000e-04  1.90000e-05 -3.06000e-04 -4.66400e-03 -6.15140e-02
 -1.48629e-01 -1.12713e-01 -1.23325e-01 -1.09018e-01 -4.59610e-02
 -9.41600e-03 -4.16100e-03 -4.10000e-05  1.64500e-03  8.88000e-04
  1.12400e-03  1.32700e-03  2.37600e-03 -1.89000e-04 -5.70000e-05
 -1.10000e-05  5.98000e-04 -1.28000e-03 -2.07000e-04 -3.81000e-04
  9.63000e-04 -6.30000e-05  1.21000e-04  8.80000e-04 -6.85000e-04
 -2.95100e-03 -1.62800e-03 -1.74700e-03 -1.47600e-03 -1.21500e-03
 -1.21000e-04 -7.80000e-04  9.98000e-04 -3.97800e-03 -1.65100e-03
  2.50900e-03  8.64000e-04  2.83000e-04 -8.54000e-04  1.04200e-03
  1.02100e-03  1.00000e-04  4.87000e-04  4.32000e-04  1.80000e-04
  2.90000e-05 -2.63000e-04 -2.50000e-05  1.46800e-03  5.69000e-04
  1.71000e-04  2.29000e-04  2.32000e-04 -2.69000e-03 -1.43600e-03
 -1.01500e-03 -3.58000e-04  6.62000e-04 -1.16800e-03  1.26700e-03
  3.33000e-04  2.16900e-03  1.78800e-03 -1.19200e-03 -3.17000e-03
  3.99000e-04  5.17000e-04  5.21000e-04  5.01000e-04 -8.81000e-04
  5.58000e-04 -5.07000e-04  7.93000e-04  8.60000e-04  3.89000e-04
  5.39000e-04  5.95000e-04 -5.97000e-04  2.75000e-04 -3.53000e-04
  1.18600e-03  8.10000e-04  1.96800e-03  1.77200e-03  9.15000e-04
  9.74000e-04 -6.14000e-04  1.46000e-03 -3.80000e-04  1.42300e-03
  3.93000e-04  6.81000e-04 -2.34300e-03 -9.43000e-04  1.07000e-03
 -3.20000e-05  5.03000e-04  3.25000e-04  5.77000e-04  2.17000e-04
  8.75000e-04  2.38000e-04  6.77000e-04 -3.34000e-04  3.07000e-04
  2.61000e-04 -1.42000e-04  5.13000e-04  1.26300e-03  4.89000e-04
  1.22000e-04 -5.40000e-05  5.44000e-04 -4.52000e-04  5.54000e-04
 -2.01000e-04 -8.40000e-05  2.39000e-04 -2.95000e-04  4.00000e-06
 -3.25000e-04  8.92000e-04 -1.40000e-05  6.42000e-04  8.88000e-04
 -3.00000e-06  2.72000e-04  1.37800e-03 -8.20000e-05]
            b = 0.108814
            U = -4.891968, L = -5.343126

         Neuron : 9
            W = [-5.21000e-04 -7.06000e-04 -3.49000e-04 -8.73000e-04 -5.55000e-04
 -8.22000e-04 -2.03000e-04 -8.21000e-04 -8.09000e-04 -5.20000e-04
 -5.48000e-04 -4.36000e-04 -4.96000e-04 -7.32000e-04 -7.87000e-04
 -1.91000e-04 -9.49000e-04 -3.48000e-04 -4.10000e-04 -9.90000e-05
 -4.20000e-04 -6.45000e-04 -5.83000e-04 -5.76000e-04 -6.08000e-04
 -4.80000e-04 -5.76000e-04 -5.36000e-04 -6.15000e-04 -4.44000e-04
 -7.89000e-04 -7.59000e-04 -7.98000e-04 -5.21000e-04 -8.07000e-04
 -8.49000e-04 -8.01000e-04 -5.46000e-04 -4.90000e-04 -4.80000e-04
 -4.61000e-04 -5.43000e-04 -4.28000e-04 -6.65000e-04 -2.49000e-04
 -9.85000e-04 -4.84000e-04 -8.04000e-04 -5.96000e-04 -7.51000e-04
 -8.50000e-04 -7.37000e-04 -7.23000e-04 -5.07000e-04 -1.14300e-03
 -8.12000e-04 -5.47000e-04 -6.32000e-04 -6.06000e-04 -2.59000e-04
 -6.04000e-04 -4.62000e-04 -6.82000e-04 -6.80000e-04 -4.87000e-04
 -7.23000e-04 -5.33000e-04 -7.56000e-04 -2.83000e-04 -4.78000e-04
 -4.69000e-04 -2.23000e-04 -3.35000e-04 -2.16000e-04 -7.83000e-04
 -8.30000e-04 -7.69000e-04 -1.14800e-03 -9.43000e-04 -6.50000e-04
 -4.05000e-04 -5.50000e-04 -7.92000e-04 -6.83000e-04 -4.59000e-04
 -5.10000e-04 -3.86000e-04 -6.30000e-04 -6.50000e-04 -6.66000e-04
 -4.95000e-04 -3.43000e-04 -5.71000e-04 -4.42000e-04 -5.53000e-04
 -4.02000e-04  4.04000e-04  1.06100e-03  2.30000e-04 -1.40000e-05
  5.80000e-05 -6.30000e-05 -4.90000e-04 -9.67000e-04 -8.35000e-04
 -6.90000e-04 -7.40000e-04  1.04000e-04 -6.63000e-04 -1.47000e-04
 -4.07000e-04 -6.62000e-04 -5.27000e-04 -4.87000e-04 -3.07000e-04
 -5.30000e-04 -4.50000e-04 -9.63000e-04 -8.12000e-04 -3.78000e-04
 -4.10000e-04 -5.69000e-04 -5.51000e-04  2.40000e-05  9.80000e-05
  8.54000e-04 -1.90000e-05  1.74200e-03  8.63000e-04 -3.90000e-04
 -1.69600e-03 -1.50200e-03 -1.18900e-03 -1.03900e-03 -9.66000e-04
 -6.73000e-04 -3.44000e-04 -8.13000e-04 -3.72000e-04 -4.62000e-04
 -4.09000e-04 -6.84000e-04 -9.94000e-04 -4.23000e-04 -3.27000e-04
 -2.28000e-04 -1.93000e-04  1.70000e-04 -3.99000e-04 -2.47000e-04
  8.55000e-04  2.01500e-03  3.16300e-03  4.42290e-02  6.34010e-02
  9.47530e-02  1.40868e-01  8.16410e-02  2.12700e-03 -1.14400e-03
 -2.57200e-03 -1.37800e-03 -7.65000e-04 -4.56000e-04 -4.60000e-04
 -6.98000e-04 -3.60000e-04 -6.68000e-04 -6.07000e-04 -7.35000e-04
 -6.47000e-04 -9.95000e-04 -5.90000e-04  1.81000e-04  6.97000e-04
  1.49000e-04 -4.53000e-04  1.60500e-03  6.14900e-03  8.64100e-03
  4.21750e-02  4.80040e-02  6.91650e-02  4.76730e-02  1.97340e-02
  7.65500e-03  3.52730e-02  6.81200e-03 -3.03400e-03 -2.13300e-03
 -1.32200e-03 -5.68000e-04 -8.04000e-04 -3.23000e-04 -3.35000e-04
 -4.72000e-04 -4.66000e-04 -1.06000e-04 -7.97000e-04 -1.14800e-03
 -7.77000e-04 -2.00000e-05  3.87000e-04  7.50000e-05  9.35000e-04
  3.74800e-03  8.75300e-03  1.04330e-02  2.05490e-02  5.60100e-03
  2.32170e-02  1.32100e-02 -4.65620e-02 -2.92980e-02  4.31400e-02
  3.51740e-02  3.13700e-03 -3.42300e-03 -1.68600e-03 -5.92000e-04
 -9.18000e-04 -8.62000e-04 -3.44000e-04 -9.40000e-05 -5.16000e-04
 -7.90000e-04 -1.11000e-03 -4.25000e-04 -1.14000e-04  1.62000e-04
  3.01000e-04  8.58000e-04  2.34200e-03  6.32400e-03  7.33460e-02
  5.17790e-02  3.66170e-02  4.81160e-02  5.08840e-02  8.26600e-03
 -6.53910e-02 -8.34010e-02  8.58800e-02  1.49615e-01  1.85200e-02
 -1.54800e-03 -6.85000e-04 -7.88000e-04 -4.89000e-04 -9.23000e-04
 -7.71000e-04 -6.70000e-04 -3.15000e-04 -3.87000e-04 -6.81000e-04
 -4.36000e-04 -3.84000e-04 -2.71000e-04  5.00000e-06  4.62000e-04
  2.20900e-03  6.80500e-03  8.06200e-03  3.41610e-02  2.78900e-02
  3.44790e-02  8.02620e-02 -2.36870e-02 -4.16362e-01 -4.15888e-01
  1.51130e-01  2.55311e-01  3.76880e-02 -2.01200e-03 -5.67000e-04
  5.60000e-05 -3.61000e-04 -4.61000e-04 -6.20000e-04 -4.72000e-04
 -8.18000e-04 -3.91000e-04 -4.39000e-04 -5.62000e-04 -1.01300e-03
 -4.17000e-04 -7.11000e-04 -1.17000e-04  2.00800e-03  5.74100e-03
  7.10020e-02  3.49250e-02  6.12600e-03 -1.66380e-02  4.18600e-03
 -1.01323e-01 -4.93979e-01 -2.29290e-01  2.41733e-01  2.90926e-01
  1.57500e-03 -1.91000e-03 -2.71000e-04 -1.73000e-04 -1.41700e-03
 -4.93000e-04 -1.17600e-03 -2.51000e-04 -4.33000e-04 -7.32000e-04
 -5.70000e-04 -7.80000e-04 -8.67000e-04 -5.58000e-04 -5.40000e-05
  2.83000e-04  2.08300e-03  4.32070e-02  7.31270e-02  8.33940e-02
  9.37200e-03 -5.08000e-02 -1.11586e-01 -4.95590e-02 -6.11610e-02
  7.61990e-02  1.08835e-01  3.86570e-02 -1.09840e-02 -2.07000e-04
 -1.06000e-04  1.73000e-04 -7.41000e-04 -8.34000e-04 -8.84000e-04
 -3.79000e-04 -4.69000e-04 -5.00000e-05 -3.39000e-04 -2.82000e-04
 -4.24000e-04  2.36000e-04  4.21000e-04 -3.34000e-04  6.36000e-04
  1.22580e-02  1.03309e-01  1.60118e-01  4.92470e-02 -2.85680e-02
 -6.16360e-02  3.18600e-02  6.13560e-02  1.03631e-01  3.56980e-02
  9.19700e-03  1.98000e-04  2.74000e-04  7.36000e-04  8.54000e-04
 -4.18000e-04 -9.36000e-04 -4.85000e-04 -6.69000e-04 -4.62000e-04
 -6.04000e-04 -8.25000e-04 -7.54000e-04 -6.86000e-04 -5.18000e-04
  1.82000e-04  6.08000e-04  1.42870e-02 -5.35900e-02  1.86300e-02
  1.32286e-01  5.25030e-02 -1.26290e-02 -3.29260e-02  1.21288e-01
