K = 10, n = [784 100 100 100 100 100 100 100 100 100  10]



     Layer : 1, taille : 100

         Neuron : 0
            W = [-2.62000e-03  1.41000e-04 -1.44800e-03 -2.03700e-03 -2.21400e-03
  6.66000e-04 -3.53800e-03 -2.24100e-03 -3.44400e-03  1.00700e-03
  1.20300e-03 -9.19000e-04  1.36400e-03 -1.20000e-05  2.46600e-03
 -1.94400e-03 -4.49500e-03  2.05700e-03 -1.66900e-03  2.57900e-03
 -1.04500e-03  8.34000e-04 -1.60200e-03  2.91300e-03 -2.56100e-03
 -1.52000e-03  9.21000e-04 -7.40000e-05 -4.22000e-04  6.54000e-04
  1.05700e-03 -1.59800e-03  2.80000e-05 -2.22900e-03 -1.26000e-04
 -1.10000e-04  9.41000e-04 -2.66600e-03  1.44800e-03 -2.10700e-03
  1.87400e-03  7.52000e-04 -9.93000e-04  1.26000e-04 -1.71400e-03
 -2.63200e-03 -2.37100e-03 -1.92700e-03  3.03500e-03  1.48100e-03
  2.23300e-03  4.30800e-03  1.23200e-03  1.67900e-03  1.04000e-04
 -1.59000e-03 -2.59900e-03 -1.01400e-03 -8.52000e-04 -1.84800e-03
  3.20000e-04 -2.61400e-03 -1.78000e-03 -7.43000e-04  8.93000e-04
 -2.65500e-03  1.62200e-03  7.66000e-04  2.32000e-03 -3.96000e-04
  1.27100e-03 -1.95400e-03  1.61100e-03  1.03900e-03 -3.15000e-04
  1.96300e-03  9.00000e-04  2.18800e-03 -6.31000e-04 -1.27500e-03
  4.44000e-04 -2.80700e-03  9.75000e-04 -9.50000e-04 -7.14000e-04
 -1.02000e-03 -1.17800e-03 -3.70000e-04  7.06000e-04  1.71500e-03
 -2.99100e-03 -7.49000e-04 -1.41800e-03 -1.08400e-03  1.86500e-03
 -1.76000e-03  1.15100e-03 -2.34800e-03  4.26600e-03  2.41300e-03
  3.22000e-04 -2.90700e-03 -3.52000e-04 -5.13000e-04 -6.44000e-04
  4.19000e-03 -4.95600e-03  1.55300e-03  1.22000e-04  2.92500e-03
 -1.99000e-04 -2.57800e-03 -1.66600e-03  2.71000e-04 -1.71000e-04
 -3.32100e-03  2.17300e-03 -2.09700e-03  2.85800e-03  1.29000e-03
 -3.76500e-03 -1.01300e-03  2.90200e-03  3.57000e-04  3.80400e-03
 -3.69200e-03 -1.15630e-02 -1.10740e-02 -9.94000e-04 -2.95000e-04
  4.69000e-04 -3.35200e-03 -5.61000e-04 -1.19700e-03 -2.64200e-03
  2.12200e-03 -1.48800e-03  3.12000e-04 -2.33200e-03 -3.66500e-03
  1.61500e-03  1.92300e-03  3.99000e-04  2.16200e-03  1.34400e-03
 -1.11900e-03 -1.86200e-03 -1.93800e-03  2.09600e-03  1.22000e-04
 -5.84400e-03 -1.53400e-02  1.42580e-02  1.68294e-01  1.16527e-01
  1.17764e-01 -1.43759e-01 -1.81739e-01 -8.18200e-03 -2.70200e-03
  8.24000e-04  3.63700e-03 -3.91000e-03 -2.15000e-04  1.70000e-04
 -2.18100e-03 -2.64800e-03  8.46000e-04 -3.44300e-03 -1.00500e-03
 -8.29000e-04 -4.11900e-03  3.85800e-03  5.55000e-04 -1.95600e-03
 -6.16400e-03 -7.83000e-03 -1.09870e-02  1.03150e-02  8.60280e-02
  1.32179e-01  2.77430e-01  2.89830e-01  2.53735e-01  2.16300e-01
  6.01760e-02 -8.42960e-02 -1.06734e-01 -1.21920e-02  5.24000e-04
 -8.97000e-04 -8.47000e-04 -1.13100e-03  3.75000e-04 -6.85000e-04
 -1.66400e-03  1.85600e-03 -2.30500e-03  1.03600e-03 -1.84400e-03
  7.68000e-04 -1.18600e-03 -1.34990e-02 -1.72158e-01 -5.96370e-02
 -9.29510e-02  4.15890e-02  5.45600e-02  1.36523e-01  4.07130e-02
  8.41750e-02  2.96820e-02  1.21278e-01  1.39804e-01 -6.37200e-03
 -6.36410e-02 -2.35820e-02  8.31000e-04 -6.63000e-03 -2.98000e-04
  9.72000e-04  3.88500e-03 -4.04700e-03 -2.25900e-03 -2.83100e-03
 -2.98300e-03  1.05400e-03 -2.48000e-03  1.80300e-03 -8.08000e-04
 -2.66390e-02 -4.64000e-02 -3.98460e-02 -4.47180e-02 -6.76870e-02
 -9.13390e-02 -1.86169e-01 -1.40583e-01 -1.08700e-01 -6.89370e-02
 -3.63470e-02  1.38157e-01  7.51680e-02 -1.08870e-02  7.30800e-03
 -5.34900e-03 -4.79700e-03  2.81000e-04  2.29500e-03 -2.84000e-04
 -7.84000e-04 -1.29700e-03 -4.22000e-04 -1.07900e-03 -7.62000e-04
 -2.36700e-03 -1.49800e-03  2.19000e-04 -1.85410e-02 -1.30800e-02
 -1.98510e-02 -4.84470e-02 -1.85200e-02 -1.46419e-01 -1.31243e-01
 -5.44850e-02 -1.14112e-01 -1.06735e-01 -4.88470e-02  1.54600e-03
  4.98570e-02 -6.02130e-02  8.21790e-02  5.13500e-03  2.16100e-03
  2.14000e-03  7.27000e-04 -2.32600e-03 -1.20000e-03  2.35000e-04
  2.74600e-03 -1.86200e-03  4.00000e-04 -7.90000e-04  1.87500e-03
  2.74000e-03 -4.13900e-03 -3.62000e-03 -6.57900e-03 -4.37010e-02
 -1.67711e-01 -1.37064e-01 -8.08610e-02 -2.88110e-02 -2.70383e-01
 -1.70652e-01 -9.28770e-02 -6.02980e-02 -1.18150e-02 -5.36410e-02
  2.30940e-02 -6.27300e-03 -7.02900e-03  1.99100e-03  1.75000e-03
  2.04600e-03  4.33000e-04 -9.17000e-04  9.55000e-04 -1.97600e-03
 -1.28400e-03  3.61200e-03 -3.55000e-04 -1.33000e-04  1.36300e-03
 -1.50000e-03 -1.44650e-02 -7.72420e-02 -5.17870e-02 -1.57621e-01
 -1.21978e-01 -3.25900e-02 -1.71866e-01 -1.41420e-01 -4.79290e-02
  8.78720e-02  2.29130e-02 -3.08000e-04  9.03300e-03  2.98900e-03
 -1.82000e-03  1.02600e-03  2.06300e-03  2.78000e-04 -2.21100e-03
 -6.60000e-05  3.66700e-03 -3.48000e-04 -3.98000e-04 -7.63000e-04
 -2.18400e-03  2.50000e-05  6.61000e-04 -5.85900e-03 -7.14840e-02
 -2.20010e-02 -6.99390e-02 -1.63304e-01 -2.52401e-01 -1.65213e-01
 -1.91898e-01 -6.74590e-02  3.50040e-02  1.24179e-01  1.93660e-02
 -4.09000e-03 -2.72480e-02 -2.39300e-03 -2.15300e-03  3.93500e-03
 -1.15400e-03 -3.53000e-04 -3.50800e-03 -2.87000e-04  9.87000e-04
 -8.59000e-04  3.88000e-03  1.70000e-03  4.56700e-03 -1.29300e-03
 -1.81700e-03 -2.57200e-03 -2.21800e-03 -2.90500e-03 -7.37400e-02
 -2.10255e-01 -3.35141e-01 -2.68657e-01 -1.12577e-01  1.96152e-01
  9.26320e-02  5.09810e-02  5.18620e-02 -1.63440e-02 -6.71800e-03
 -3.36000e-03 -2.23000e-04  2.46700e-03  1.82600e-03 -2.05500e-03
 -3.42300e-03  1.13900e-03  7.77000e-04 -3.73300e-03 -1.36000e-04
  1.78700e-03 -3.65000e-03 -1.68000e-04  6.29000e-04 -2.39100e-03
  8.03300e-03  3.41110e-02 -1.25492e-01 -2.18101e-01 -3.62994e-01
 -1.18319e-01  2.29906e-01  7.27260e-02  1.12159e-01  2.58900e-02
  2.63730e-02 -8.57800e-03 -3.64000e-03 -7.47200e-03 -2.28600e-03
  3.35100e-03  1.48000e-04 -2.32000e-04 -2.78800e-03 -9.97000e-04
  4.79000e-04 -4.72000e-04  4.55000e-04 -3.31500e-03 -3.71400e-03
  2.38700e-03  1.17100e-03  4.95100e-03 -1.03396e-01 -2.79690e-02
 -6.28160e-02 -2.44524e-01 -1.60529e-01  1.51511e-01  2.11546e-01
 -3.38600e-02 -3.33060e-02 -1.58619e-01 -2.15510e-02 -3.76700e-03
 -2.99000e-04 -2.30500e-03  1.14500e-03 -2.63900e-03  1.85000e-04
  3.67500e-03 -3.68000e-04  3.28500e-03  4.29700e-03 -1.84000e-04
 -2.66200e-03 -2.85500e-03  2.53000e-04 -2.05300e-03  1.56000e-04
  3.49000e-03 -1.06991e-01 -6.51860e-02 -1.26737e-01 -1.59779e-01
  1.07204e-01  6.84430e-02 -7.27570e-02 -1.02632e-01 -4.98960e-02
 -1.47364e-01 -2.50440e-02 -1.91270e-02 -2.93800e-03 -7.48300e-03
 -3.69800e-03 -5.85000e-04 -5.55600e-03  2.59100e-03 -2.77600e-03
  1.19000e-04  2.96900e-03 -6.60000e-04 -3.34900e-03  1.57400e-03
 -1.82300e-03 -1.65600e-03  4.97000e-04 -5.43000e-03 -3.92880e-02
 -7.11060e-02 -1.78973e-01 -1.70560e-01  3.03526e-01  8.34770e-02
 -5.42470e-02 -8.62880e-02 -6.87030e-02 -8.47630e-02 -2.23500e-02
 -1.66230e-02 -6.26400e-03 -6.08800e-03 -6.94200e-03 -2.68000e-04
 -3.90000e-05  3.26200e-03  6.04000e-04 -1.39200e-03 -2.79500e-03
 -9.00000e-05  6.16000e-04 -2.55500e-03 -2.43700e-03  1.33100e-03
 -1.25010e-02 -8.41800e-03  4.35000e-03 -5.90230e-02 -2.30502e-01
 -4.62470e-02  2.49799e-01  1.14345e-01  5.29240e-02  5.97860e-02
 -2.49370e-02 -3.44140e-02 -2.72230e-02 -7.78300e-03 -4.18500e-03
  6.53300e-03 -3.10500e-03  5.32000e-04 -1.22400e-03  3.34800e-03
 -4.28300e-03 -1.43400e-03 -1.21800e-03  1.28600e-03  6.90000e-04
  3.00000e-04 -6.13600e-03 -7.09000e-03 -1.72980e-02 -5.61300e-03
 -3.84540e-02 -1.00883e-01 -1.92126e-01 -1.76632e-01 -1.25658e-01
  9.14260e-02  1.56139e-01  1.01625e-01  7.17900e-03 -1.13981e-01
 -3.76400e-02 -3.18980e-02 -3.77200e-03 -2.04700e-03  1.41300e-03
 -1.95400e-03 -3.49000e-04 -1.60900e-03 -4.06300e-03  1.10000e-05
  2.56100e-03 -3.38200e-03 -1.65100e-03 -3.30800e-03 -2.81000e-04
 -2.40500e-03 -2.99800e-03 -1.38700e-03 -8.07730e-02 -1.02456e-01
 -1.96034e-01 -3.19234e-01 -1.88031e-01 -5.29440e-02  1.95588e-01
  2.21978e-01  4.03540e-02 -1.47388e-01 -1.74254e-01 -1.13929e-01
 -2.41520e-02 -1.04000e-04  1.61000e-04  2.29800e-03  3.83200e-03
  8.63000e-04  1.62200e-03  1.98600e-03  3.01400e-03 -1.21800e-03
  1.65000e-04 -3.11000e-04 -4.16700e-03 -3.25700e-03 -7.92000e-04
 -3.79200e-03 -3.79370e-02 -1.12711e-01 -1.34391e-01 -9.00560e-02
 -5.60130e-02 -1.13576e-01  5.50380e-02  9.73820e-02  2.12650e-02
 -5.94770e-02 -1.14226e-01 -1.48370e-02 -9.41600e-03  5.08500e-03
 -1.04200e-03 -3.37900e-03 -1.80400e-03  1.49000e-03 -2.22900e-03
 -1.68800e-03  1.54000e-04  4.16000e-03 -7.86000e-04  8.79000e-04
 -3.33900e-03 -1.74900e-03  4.58700e-03 -1.74400e-03 -2.92470e-02
 -1.23546e-01 -7.85290e-02  8.08810e-02 -1.73610e-02 -2.15580e-02
  2.97820e-02  1.03822e-01 -7.05300e-03 -6.11530e-02 -1.66843e-01
 -6.23970e-02 -7.47500e-03  2.73400e-03  1.75800e-03  2.50000e-05
  1.95000e-03 -1.08800e-03  3.18900e-03 -3.54900e-03  7.48000e-04
  6.57000e-04  2.27400e-03 -2.50900e-03  9.68000e-04 -3.08100e-03
 -3.40400e-03 -6.06000e-04 -5.05100e-03 -1.22045e-01 -8.41600e-02
  1.20871e-01 -1.04015e-01 -6.06300e-03  1.88970e-02 -5.04800e-03
 -1.98744e-01 -2.82780e-02 -2.37700e-03 -3.44200e-03 -2.40400e-03
  2.06600e-03 -1.38800e-03  3.69500e-03 -1.99500e-03  2.70000e-05
  2.50400e-03  1.06700e-03 -7.20000e-05 -2.54100e-03 -4.50000e-05
 -1.81100e-03 -3.30600e-03 -4.22700e-03 -6.69600e-03 -6.10100e-03
 -1.58050e-02  2.73910e-02  6.39600e-03  4.16550e-02  4.06450e-02
  7.84560e-02  2.80620e-02 -7.80050e-02 -1.08250e-02 -1.38190e-02
 -1.59800e-03  4.75000e-04 -3.14700e-03  1.33500e-03  1.04700e-03
  8.14000e-04 -3.12300e-03  1.63500e-03 -2.70000e-04  2.89000e-04
  2.63000e-03 -7.96000e-04  9.88000e-04 -1.84400e-03 -2.35300e-03
 -2.70200e-03 -4.41700e-03 -1.31700e-02 -1.73010e-02 -1.90200e-03
  9.61300e-03  1.67120e-02  9.25700e-03  5.16900e-03 -8.48400e-03
 -5.85000e-04 -1.09500e-03 -1.33000e-03 -1.18300e-03 -1.11900e-03
 -4.17700e-03  3.02000e-04  1.32700e-03  8.02000e-04  1.89800e-03
 -2.31200e-03 -9.49000e-04  1.59700e-03  1.61400e-03  1.36300e-03
  1.92600e-03 -2.30000e-05 -1.74800e-03 -1.82300e-03  3.81800e-03
  2.30300e-03  5.62000e-04 -1.21800e-03 -1.86300e-03  7.47000e-04
 -8.32000e-04 -2.00100e-03  4.69000e-04  9.13000e-04  1.20300e-03
 -1.21800e-03  1.44000e-04 -2.29500e-03  2.34100e-03 -1.12100e-03
 -8.61000e-04 -8.60000e-04  3.36800e-03  5.07000e-04  1.96700e-03
 -2.06400e-03  4.73000e-04 -3.09100e-03  1.82700e-03 -2.18000e-04
 -1.20000e-03  2.66900e-03  3.79100e-03  2.50000e-04  2.39600e-03
 -1.15500e-03 -2.28900e-03  1.02800e-03 -5.63000e-04 -3.36000e-04
 -1.11400e-03 -3.65900e-03 -1.71900e-03  5.30200e-03 -6.43000e-04
  6.08000e-04 -2.98800e-03  1.24600e-03 -3.89500e-03  2.69000e-03
 -2.86400e-03  3.07800e-03 -1.00800e-03  1.22900e-03]
            b = 0.009006
            U = -2.381947, L = -3.564002

         Neuron : 1
            W = [-5.570000e-04 -5.590000e-04 -8.240000e-04 -8.370000e-04 -9.940000e-04
 -3.000000e-04 -6.670000e-04 -6.280000e-04 -5.730000e-04 -9.360000e-04
 -5.080000e-04 -7.640000e-04 -6.030000e-04 -6.130000e-04 -6.090000e-04
 -8.870000e-04 -9.980000e-04 -8.120000e-04 -6.430000e-04 -4.130000e-04
 -5.770000e-04 -6.620000e-04 -6.230000e-04 -3.550000e-04 -6.430000e-04
 -5.880000e-04 -5.640000e-04 -8.280000e-04 -6.680000e-04 -8.700000e-04
 -9.510000e-04 -7.820000e-04 -9.510000e-04 -4.980000e-04 -4.510000e-04
 -3.420000e-04 -6.840000e-04 -7.940000e-04 -6.070000e-04 -8.690000e-04
 -6.090000e-04 -6.530000e-04 -5.680000e-04 -8.980000e-04 -8.010000e-04
 -6.050000e-04 -7.060000e-04 -6.320000e-04 -5.360000e-04 -6.880000e-04
 -9.440000e-04 -7.620000e-04 -7.010000e-04 -1.088000e-03 -8.510000e-04
 -7.120000e-04 -7.560000e-04 -3.820000e-04 -7.610000e-04 -5.300000e-04
 -7.390000e-04 -4.820000e-04 -8.190000e-04 -7.940000e-04 -1.027000e-03
 -4.750000e-04 -5.130000e-04 -9.900000e-05 -1.044000e-03 -7.600000e-04
 -4.300000e-04 -9.510000e-04 -1.229000e-03 -1.279000e-03 -5.540000e-04
 -5.700000e-04 -8.920000e-04 -5.320000e-04 -4.620000e-04 -4.680000e-04
 -5.350000e-04 -7.150000e-04 -5.080000e-04 -7.040000e-04 -6.580000e-04
 -6.000000e-04 -7.790000e-04 -6.620000e-04 -7.750000e-04 -6.890000e-04
 -8.820000e-04 -1.084000e-03 -6.850000e-04 -5.070000e-04 -9.800000e-04
 -9.850000e-04 -1.120000e-03 -1.084000e-03 -1.030000e-03 -5.370000e-04
 -6.640000e-04  9.300000e-05 -1.129000e-03 -1.540000e-03 -1.566000e-03
 -1.633000e-03 -1.372000e-03 -8.890000e-04 -1.042000e-03 -4.170000e-04
 -6.130000e-04 -6.370000e-04 -6.740000e-04 -7.470000e-04 -4.630000e-04
 -7.250000e-04 -8.020000e-04 -6.700000e-04 -8.340000e-04 -6.940000e-04
 -7.180000e-04 -6.500000e-04 -5.080000e-04 -5.840000e-04 -1.498000e-03
 -2.285000e-03 -2.560000e-03 -2.969000e-03 -2.139000e-03 -1.613000e-03
 -5.520000e-04 -5.130000e-04 -5.660000e-04 -4.140000e-04 -7.760000e-04
 -8.450000e-04 -9.530000e-04 -6.980000e-04 -5.330000e-04 -6.840000e-04
 -5.050000e-04 -7.930000e-04 -7.440000e-04 -1.020000e-03 -8.860000e-04
 -9.450000e-04 -1.153000e-03 -8.250000e-04 -1.284000e-03 -1.192000e-03
 -2.521000e-03 -1.864000e-03 -1.384000e-03 -1.754100e-02 -3.142600e-02
 -5.990000e-04  2.982300e-02  7.578200e-02  1.735400e-02  3.303000e-03
  1.534000e-03 -6.400000e-05 -6.140000e-04 -5.250000e-04 -5.550000e-04
 -1.010000e-03 -6.600000e-04 -4.660000e-04 -4.690000e-04 -5.570000e-04
 -1.024000e-03 -1.284000e-03 -8.480000e-04 -1.250000e-03 -1.147000e-03
 -2.454000e-03 -2.349000e-03 -2.141000e-03 -3.320000e-03 -2.334000e-03
 -1.987000e-03 -1.197800e-02  5.097000e-03  1.047500e-02  1.646400e-02
  3.519800e-02  4.868000e-02  7.163300e-02  3.399000e-03  7.310000e-04
  4.700000e-04 -4.510000e-04 -7.440000e-04 -8.870000e-04 -5.370000e-04
 -6.780000e-04 -6.440000e-04 -8.130000e-04 -7.930000e-04 -6.940000e-04
 -6.730000e-04 -1.332000e-03 -1.191000e-03 -1.992000e-03 -3.139000e-03
 -7.175000e-03 -8.088000e-03 -2.678000e-03  1.101100e-02  1.142500e-02
  3.564000e-03 -1.838600e-02 -1.393800e-02  9.697000e-03  2.560200e-02
  4.290600e-02  1.865400e-02  3.418000e-03  7.130000e-04 -5.630000e-04
 -1.397000e-03 -6.270000e-04 -9.590000e-04 -6.220000e-04 -5.540000e-04
 -6.180000e-04 -5.820000e-04 -7.220000e-04 -1.383000e-03 -1.912000e-03
 -2.457000e-03 -4.132000e-03 -4.270000e-03 -8.526000e-03 -1.967000e-02
 -2.953000e-03  1.884800e-02  2.850600e-02  2.844500e-02 -1.564100e-02
 -2.472600e-02 -4.663000e-03  2.322700e-02  3.556000e-02  6.592000e-03
  2.782000e-03  1.576000e-03 -1.114000e-03 -1.479000e-03 -1.225000e-03
 -6.400000e-04 -9.170000e-04 -7.520000e-04 -5.550000e-04 -3.070000e-04
 -6.960000e-04 -1.799000e-03 -2.320000e-03 -2.508000e-03 -3.234000e-03
 -6.547000e-03 -9.548000e-03 -1.491700e-02 -1.834100e-02  2.860000e-03
  8.771000e-03  1.718300e-02 -3.149800e-02 -5.587600e-02 -9.337000e-03
  8.282000e-03  3.592300e-02  1.530300e-02  1.159000e-03 -1.257000e-03
 -1.728000e-03 -1.475000e-03 -1.362000e-03 -8.050000e-04 -9.980000e-04
 -9.610000e-04 -8.120000e-04 -5.040000e-04 -4.890000e-04 -1.384000e-03
 -1.449000e-03 -1.716000e-03 -2.092000e-03 -3.162000e-03 -4.738000e-03
 -6.391300e-02 -1.267400e-02 -9.405000e-03  6.937000e-03 -1.676000e-03
 -4.817100e-02 -3.464100e-02 -2.940000e-04  1.011400e-02  7.654900e-02
  2.312500e-02 -2.508000e-03 -3.441000e-03 -2.063000e-03 -1.892000e-03
 -1.154000e-03 -7.050000e-04 -7.500000e-04 -9.300000e-04 -6.530000e-04
 -2.610000e-04 -6.320000e-04 -4.890000e-04 -1.311000e-03 -2.172000e-03
 -1.149000e-03 -1.856000e-03 -2.154300e-02 -3.980500e-02 -2.578000e-03
 -3.050700e-02 -1.182800e-02 -3.859000e-03 -1.773000e-03 -1.077900e-02
 -2.005600e-02  4.755000e-03  2.437600e-02  1.003700e-02 -1.567000e-03
 -2.109000e-03 -1.869000e-03 -1.854000e-03 -1.256000e-03 -1.096000e-03
 -6.030000e-04 -8.410000e-04 -6.510000e-04 -3.130000e-04 -4.890000e-04
 -5.480000e-04 -7.120000e-04 -1.079000e-03 -2.257000e-03 -1.116400e-02
  1.900000e-04  7.193000e-03 -2.180500e-02 -5.204000e-02 -1.750400e-02
  2.129800e-02  2.862000e-03 -2.278500e-02 -4.165400e-02 -8.112000e-03
  2.454900e-02  9.020000e-03 -1.819000e-03 -1.730000e-03 -1.292000e-03
 -1.312000e-03 -1.298000e-03 -9.490000e-04 -6.150000e-04 -5.250000e-04
 -6.710000e-04 -6.600000e-04 -7.300000e-04 -7.250000e-04 -9.340000e-04
 -2.277000e-03 -2.206000e-03 -2.047200e-02  5.230000e-04 -4.006600e-02
 -4.253300e-02 -6.182800e-02 -2.239100e-02  8.845000e-03 -4.251600e-02
 -5.304800e-02 -3.583500e-02  3.678000e-03  2.695400e-02  3.170000e-03
 -2.102000e-03 -1.393000e-03 -1.429000e-03 -1.214000e-03 -9.630000e-04
 -6.820000e-04 -6.240000e-04 -6.420000e-04 -8.030000e-04 -1.096000e-03
 -1.208000e-03 -1.027000e-03 -1.245000e-03 -2.469000e-03 -3.113000e-03
 -2.592800e-02 -1.348800e-02 -2.137700e-02 -5.480000e-04 -1.050500e-02
 -2.176000e-02 -7.212100e-02 -6.592000e-03 -4.731600e-02 -2.726800e-02
 -2.063000e-03  1.295900e-02 -1.451000e-03 -2.222000e-03 -2.298000e-03
 -1.656000e-03 -1.089000e-03 -1.072000e-03 -5.830000e-04 -7.460000e-04
 -6.970000e-04 -5.730000e-04 -6.970000e-04 -9.650000e-04 -8.610000e-04
 -9.900000e-04 -9.460000e-04  3.782000e-03  8.257800e-02  5.733000e-03
  1.600000e-03  9.579000e-03  2.364500e-02  7.005000e-03 -3.279700e-02
 -6.227000e-03 -7.120300e-02 -3.775400e-02 -1.032400e-02 -7.570000e-04
 -1.716000e-03 -3.614000e-03 -2.603000e-03 -1.487000e-03 -4.330000e-04
 -1.184000e-03 -9.690000e-04 -8.300000e-04 -6.740000e-04 -7.140000e-04
 -7.760000e-04 -7.510000e-04 -8.490000e-04 -9.300000e-04  3.090000e-03
  5.334400e-02  1.339810e-01  8.624000e-03 -2.369300e-02  1.813800e-02
  1.607800e-02 -2.985100e-02 -2.542900e-02 -1.771400e-02 -2.038500e-02
 -2.044000e-03 -3.065000e-03 -2.496000e-03 -1.875000e-03 -1.607000e-03
 -1.326000e-03 -2.314000e-03 -2.790000e-04 -9.550000e-04 -8.180000e-04
 -5.590000e-04 -9.940000e-04 -6.510000e-04 -8.140000e-04 -2.380000e-04
 -3.590000e-04  1.288000e-03  1.012870e-01  4.109800e-02  3.269300e-02
 -1.240070e-01 -5.534900e-02  8.125000e-03  5.004000e-03 -2.511300e-02
 -2.718100e-02 -4.085000e-03  8.478000e-03  4.521000e-03  7.480000e-04
  1.805000e-03 -1.200000e-05 -2.471000e-03 -1.477000e-03 -2.199000e-03
 -1.522000e-03 -3.450000e-04 -5.070000e-04 -7.180000e-04 -9.390000e-04
 -3.450000e-04 -5.930000e-04 -8.770000e-04 -1.470000e-04  5.865000e-03
  1.045637e+00  4.249480e-01  1.452900e-02 -2.204540e-01 -1.152580e-01
 -7.110000e-03  3.253700e-02 -4.320000e-03  5.080000e-04  7.244000e-03
  2.408000e-03  4.725000e-03  7.297000e-03  2.127000e-03 -9.820000e-04
 -1.066000e-03 -1.393000e-03 -1.950000e-04 -8.490000e-04 -1.206000e-03
 -5.590000e-04 -9.100000e-04 -7.800000e-04 -6.470000e-04 -7.320000e-04
 -6.870000e-04  1.068000e-03  6.340000e-03  1.275069e+00  1.209846e+00
  1.393530e-01 -2.396640e-01 -1.097430e-01  4.553100e-02  3.624800e-02
  7.442000e-03  6.676000e-03  1.624000e-03  7.920000e-04  1.234000e-03
  1.542000e-03 -4.250000e-04 -2.260000e-04 -3.610000e-04 -6.020000e-04
 -4.300000e-04 -8.120000e-04 -6.290000e-04 -5.540000e-04 -6.010000e-04
 -4.710000e-04 -1.017000e-03 -7.840000e-04 -5.560000e-04 -2.600000e-04
  6.090000e-04  3.764270e-01  7.481460e-01  3.737790e-01  3.513000e-02
 -3.795900e-02  3.451000e-03 -2.887200e-02 -4.851200e-02 -5.545200e-02
 -1.261600e-02 -5.930000e-03 -6.324000e-03  3.910000e-04  9.000000e-05
 -3.158000e-03 -2.521000e-03 -1.239000e-03 -8.450000e-04 -6.040000e-04
 -4.230000e-04 -8.180000e-04 -3.870000e-04 -6.680000e-04 -9.380000e-04
 -7.850000e-04 -4.210000e-04 -1.250000e-04  6.640000e-04  2.463000e-03
  5.259000e-02  6.760000e-02  3.561600e-02 -1.383800e-02 -2.032700e-02
 -2.484400e-02 -2.717600e-02 -2.345900e-02 -4.076000e-03 -4.380000e-03
 -2.839000e-03 -1.871000e-03 -1.258000e-03 -1.092000e-03 -3.900000e-04
 -1.041000e-03 -6.750000e-04 -6.720000e-04 -1.176000e-03 -3.830000e-04
 -5.950000e-04 -8.500000e-04 -2.550000e-04 -9.500000e-04 -4.520000e-04
  6.700000e-05 -2.800000e-04 -1.889000e-03 -4.359000e-03 -1.056400e-02
 -2.007300e-02 -4.084700e-02 -4.560100e-02 -1.149600e-02 -1.099600e-02
 -9.484000e-03 -3.274000e-03 -5.117000e-03 -5.163000e-03 -1.153000e-03
 -9.500000e-04 -8.230000e-04 -8.070000e-04 -1.433000e-03 -4.070000e-04
 -3.430000e-04 -1.092000e-03 -5.820000e-04 -1.640000e-04 -7.980000e-04
 -5.070000e-04 -7.450000e-04 -9.760000e-04 -5.020000e-04  1.600000e-04
 -7.170000e-04 -1.818000e-03 -4.939000e-03 -6.447500e-02 -7.082800e-02
 -6.700400e-02 -7.972200e-02 -7.690400e-02 -3.775800e-02 -4.208000e-03
 -1.436000e-03  4.070000e-04  5.380000e-04 -2.030000e-04 -1.101000e-03
 -1.536000e-03 -1.037000e-03 -9.350000e-04 -5.570000e-04 -9.360000e-04
 -8.950000e-04 -5.160000e-04 -5.460000e-04 -4.340000e-04 -1.046000e-03
 -5.540000e-04 -6.030000e-04  4.700000e-05 -6.180000e-04 -1.597000e-03
 -2.778000e-03 -2.518000e-03 -2.806000e-03 -2.529000e-03 -2.738000e-03
 -2.654000e-03 -3.018000e-03 -5.930000e-04 -5.160000e-04 -1.070000e-03
 -8.660000e-04  1.040000e-04 -1.132000e-03 -1.351000e-03 -5.830000e-04
 -7.710000e-04 -6.130000e-04 -4.570000e-04 -9.240000e-04 -6.040000e-04
 -7.360000e-04 -7.660000e-04 -2.480000e-04 -5.840000e-04 -7.510000e-04
 -4.860000e-04 -2.460000e-04  3.370000e-04 -1.670000e-04 -1.096000e-03
 -1.668000e-03 -1.935000e-03 -2.016000e-03 -1.880000e-03 -2.069000e-03
 -1.710000e-03 -9.400000e-04 -9.070000e-04 -2.760000e-04 -1.280000e-04
 -1.672000e-03 -1.321000e-03 -8.070000e-04 -6.310000e-04 -4.700000e-04
 -6.790000e-04 -4.510000e-04 -6.130000e-04 -4.920000e-04 -4.810000e-04
 -6.840000e-04 -9.160000e-04 -8.210000e-04 -5.520000e-04 -7.240000e-04
 -7.850000e-04 -5.640000e-04 -7.640000e-04 -9.250000e-04 -8.410000e-04
 -1.122000e-03 -1.054000e-03 -1.455000e-03 -1.017000e-03 -7.650000e-04
 -8.930000e-04 -5.870000e-04 -3.090000e-04 -9.520000e-04 -7.030000e-04
 -9.460000e-04 -5.990000e-04 -7.940000e-04 -9.400000e-04 -6.070000e-04
 -7.540000e-04 -7.690000e-04 -7.600000e-04 -5.930000e-04 -4.140000e-04
 -4.010000e-04 -6.960000e-04 -4.410000e-04 -6.250000e-04 -6.550000e-04
 -6.900000e-04 -4.850000e-04 -6.640000e-04 -9.720000e-04 -9.260000e-04
 -6.570000e-04 -6.780000e-04 -2.900000e-04 -5.730000e-04 -1.010000e-03
 -9.380000e-04 -9.310000e-04 -7.410000e-04 -9.240000e-04 -7.070000e-04
 -7.270000e-04 -7.990000e-04 -4.710000e-04 -3.000000e-04]
            b = -0.531089
            U = -1.007947, L = -1.607931

         Neuron : 2
            W = [ 0.033931 -0.080403 -0.055216 -0.087522 -0.060723  0.047747 -0.029756
 -0.06444  -0.029971  0.01854   0.009671 -0.072624  0.03261   0.090686
 -0.018691  0.022216 -0.006036  0.009204  0.101808 -0.071168 -0.056681
 -0.060456 -0.002724 -0.022213  0.028173 -0.005944  0.064744 -0.004582
 -0.05334  -0.006541  0.025632 -0.052253  0.018771 -0.015005 -0.057014
 -0.093432  0.039375  0.026961 -0.128397  0.022354  0.008588 -0.0385
 -0.030538  0.021339  0.07849   0.03625  -0.099364  0.035995 -0.060313
 -0.037408  0.000773  0.006352  0.018628 -0.016885 -0.000506 -0.069778
 -0.01704  -0.046706 -0.025659 -0.009603  0.010781 -0.055681 -0.017232
  0.076179 -0.001347 -0.00114   0.011486 -0.042764  0.051366  0.012914
  0.025678 -0.047584 -0.07326  -0.149723 -0.010933 -0.061155  0.006534
 -0.053518 -0.002512 -0.069047 -0.014463  0.032091 -0.013674 -0.118605
 -0.006457  0.064686 -0.065627 -0.024662 -0.078453  0.004896  0.032843
  0.010968  0.046844 -0.114936  0.040597 -0.029787 -0.038714 -0.016082
 -0.069732  0.05178  -0.13837  -0.012697 -0.016156  0.057304 -0.025404
  0.032208  0.030704 -0.027891 -0.061889  0.002287  0.030034  0.028485
 -0.115388  0.078225  0.041633 -0.034147  0.002281  0.064294 -0.067442
  0.020441 -0.051025  0.04907   0.017691 -0.016519 -0.083099  0.009125
  0.028043  0.0467   -0.026154 -0.134393 -0.016125 -0.080962 -0.111427
 -0.026184 -0.069197 -0.026007  0.011277  0.020367 -0.0714   -0.067556
 -0.026518 -0.050242  0.002958 -0.075999 -0.044298 -0.034413  0.016784
 -0.006864  0.018708  0.033371  0.005546 -0.003875  0.039468  0.065124
 -0.057122 -0.022505 -0.085657  0.016028  0.087858 -0.034039 -0.011144
  0.001011 -0.079849 -0.042894 -0.024549 -0.075137  0.018116 -0.023599
 -0.016357 -0.0345   -0.096733  0.068476 -0.129201 -0.049433  0.110008
  0.034336 -0.008115 -0.041867 -0.093085  0.031874 -0.107786  0.023453
  0.052057 -0.005078  0.053837 -0.025556 -0.07086   0.013346 -0.045347
 -0.07957   0.009296  0.029592  0.017501 -0.034533 -0.06696  -0.029932
 -0.040713  0.045478 -0.009781  0.000462  0.050176  0.029036 -0.121183
 -0.001477 -0.045361 -0.019717 -0.084282 -0.030881 -0.03395  -0.002085
  0.037566 -0.034308 -0.014712  0.026601 -0.077143 -0.045796  0.026992
 -0.018384  0.060399 -0.053635 -0.015912  0.001087 -0.031295  0.04212
  0.000596 -0.00153  -0.015871 -0.004791 -0.023697  0.055217 -0.008476
 -0.008396 -0.031922 -0.081302 -0.0207   -0.037115 -0.047631 -0.003838
 -0.048331 -0.007671 -0.050132  0.021535  0.001737  0.04762   0.077499
 -0.039985  0.034716 -0.02716   0.032265 -0.04945   0.01081   0.032865
 -0.014213 -0.033605  0.002354 -0.000221  0.004618  0.07292  -0.059815
 -0.121308  0.045552 -0.061992  0.023569 -0.040903  0.008844 -0.004646
 -0.011952 -0.064865  0.017353 -0.037608  0.014117  0.008401  0.041188
 -0.003296 -0.0201    0.061006 -0.074888 -0.062054  0.012714 -0.073821
  0.035639  0.046541 -0.119986  0.03183   0.067271 -0.027674  0.004081
 -0.076554 -0.02307  -0.030134 -0.050531 -0.03072  -0.062027 -0.012437
 -0.025262  0.006914  0.017546 -0.054623  0.006963 -0.01666   0.010797
  0.029919 -0.007352 -0.009571 -0.087456 -0.02789   0.017252 -0.018148
 -0.022438  0.077566 -0.048996  0.050329 -0.07919   0.107765 -0.030426
 -0.017996 -0.033073 -0.018676 -0.017367 -0.080474 -0.021526 -0.03204
 -0.063732 -0.123465  0.022793 -0.071943 -0.019095 -0.043773 -0.005349
  0.022518 -0.066096 -0.044862 -0.040003 -0.033436 -0.003816  0.029336
  0.026316 -0.046189  0.006233  0.04133  -0.006234  0.059898 -0.058728
  0.044483  0.108172 -0.169459  0.022807  0.00161  -0.033613  0.006221
 -0.034555 -0.051241  0.002465  0.025287 -0.042652 -0.009976  0.058627
 -0.040753  0.012741 -0.033531 -0.028887  0.037611 -0.013776  0.064543
 -0.065225  0.037135  0.023904  0.006923  0.001218  0.023639 -0.071444
  0.030455  0.006414 -0.081924 -0.02085  -0.11416  -0.018528 -0.068137
 -0.061746 -0.065546 -0.048522  0.037667 -0.02305  -0.060273  0.04556
 -0.099938 -0.002786 -0.03197  -0.06212   0.123069  0.003274  0.065866
 -0.092976 -0.033131  0.02137   0.001257 -0.094028 -0.051891 -0.104756
 -0.025483 -0.031033 -0.014622 -0.080015 -0.096836  0.024553 -0.086059
  0.035856 -0.075678 -0.053823  0.011272 -0.061808 -0.068857 -0.061955
  0.016042 -0.067077  0.023538 -0.020442 -0.061419  0.014266 -0.075099
  0.009349 -0.013829 -0.013857 -0.071206  0.018332 -0.10255  -0.017551
  0.038297  0.056875  0.028086 -0.034498 -0.025766  0.036381 -0.082063
 -0.013071 -0.013139 -0.005127 -0.017548  0.030918  0.029614  0.029216
 -0.057479 -0.057088  0.01184  -0.083656  0.004997  0.072549 -0.027206
 -0.0005    0.049905  0.056115  0.04575  -0.036853 -0.052787 -0.017811
 -0.006172 -0.026081 -0.021785 -0.041077 -0.047548 -0.031964  0.027908
 -0.072947 -0.051408 -0.038102 -0.022135 -0.081315  0.016401 -0.030363
 -0.028598 -0.043644  0.03385  -0.078652  0.058234 -0.031028  0.016243
 -0.014209  0.012072  0.047645  0.042117  0.016764 -0.106529  0.058686
  0.031702 -0.024569 -0.0047   -0.015616  0.023075 -0.023217 -0.039142
 -0.010652  0.011237 -0.061193 -0.086425  0.097953 -0.063078 -0.081879
 -0.052884 -0.009723  0.016272 -0.020205 -0.032985 -0.072868  0.028385
  0.039732 -0.032688 -0.068074 -0.07202   0.088407  0.071483 -0.024427
 -0.08377  -0.035092 -0.124389 -0.002095  0.027293 -0.016004  0.00424
 -0.081889  0.039176 -0.115173 -0.096288  0.033182 -0.028474 -0.000943
  0.057225 -0.04421  -0.14501   0.040747 -0.050072  0.022219  0.007527
  0.128587 -0.102107  0.021039 -0.017126 -0.015706 -0.088124  0.025889
  0.072263 -0.00095   0.088237 -0.045961 -0.147079 -0.10256  -0.158484
  0.028749  0.01014  -0.01644  -0.016594 -0.07566   0.020771  0.091209
  0.02964  -0.018606 -0.032626 -0.001347 -0.063062  0.022393  0.014548
  0.108855 -0.07838  -0.076574 -0.01483   0.033825  0.040456  0.018279
  0.01142   0.04579  -0.056769  0.048209  0.073829  0.003425  0.090771
 -0.001065 -0.051103  0.041883  0.031261 -0.03884   0.000524  0.055911
 -0.073787  0.037329  0.034542 -0.033367  0.021998  0.000661 -0.056455
 -0.014232  0.066554 -0.042539 -0.029726 -0.102406 -0.053023 -0.004542
  0.034149 -0.074202  0.010301  0.046915 -0.07245   0.014551 -0.05651
  0.040249 -0.00412  -0.041708 -0.086871  0.015504 -0.010287 -0.029802
 -0.017597 -0.003218  0.015131  0.050404 -0.079965 -0.026438 -0.060285
  0.112716  0.024469 -0.051181 -0.041588  0.063993 -0.041722 -0.087716
 -0.011068 -0.045565 -0.023151 -0.076255 -0.046593 -0.032125 -0.023361
 -0.048013 -0.000352  0.03721   0.067793 -0.008698  0.020553 -0.034672
 -0.071217  0.003617 -0.002325  0.062861 -0.096773  0.067808 -0.046263
 -0.059851 -0.043061 -0.03843  -0.00659  -0.097239 -0.065772  0.055259
 -0.050802 -0.013617 -0.02341   0.002173 -0.025055 -0.104587 -0.013861
 -0.051184 -0.015042 -0.045716 -0.061281 -0.000791  0.02309  -0.006667
  0.009472 -0.089938  0.015407 -0.017412 -0.052878  0.032367 -0.09894
 -0.071155 -0.073559 -0.011063 -0.007373  0.038592 -0.009839 -0.016767
 -0.106842 -0.010712  0.00759  -0.063403  0.022521 -0.020649 -0.073513
 -0.05696  -0.025799 -0.014451 -0.0336   -0.004292  0.022501 -0.023693
 -0.019484  0.022861 -0.002127 -0.012335  0.013691 -0.04479   0.093879
  0.001302 -0.023477  0.01972   0.063856 -0.009384 -0.07846   0.014646
 -0.028234 -0.009693  0.016256 -0.039332 -0.031044 -0.016566  0.063161
  0.043034  0.047982 -0.032671 -0.056501 -0.0316    0.005168 -0.057468
  0.04832  -0.014558  0.053019  0.014162 -0.029468 -0.031192 -0.037449
  0.016649 -0.059974  0.01072   0.022232  0.002457 -0.031007 -0.030184
  0.042881  0.017425 -0.039792 -0.008245  0.015752 -0.077881 -0.058186
  0.049087 -0.057355 -0.044125 -0.009838 -0.031796 -0.058954  0.005241
 -0.054262  0.056805  0.01022   0.039217  0.110331  0.055865 -0.017909
  0.06991  -0.068533 -0.021192  0.034615  0.00792  -0.100517 -0.065857
 -0.065327  0.05371   0.133156  0.002157 -0.009805  0.066845  0.024497
  0.033605  0.02955  -0.013701  0.127379 -0.003475 -0.025452 -0.030487
  0.054723  0.016436  0.006907 -0.018362  0.006924  0.007581 -0.043376]
            b = -0.035832
            U = -0.867795, L = -2.522743

         Neuron : 3
            W = [ 2.160000e-04  3.870000e-04  1.850000e-04  2.990000e-04  1.740000e-04
  1.800000e-05  1.720000e-04  1.850000e-04  4.500000e-04  1.910000e-04
  3.360000e-04  2.500000e-05 -4.700000e-05  1.210000e-04  1.630000e-04
  2.310000e-04  1.730000e-04  3.640000e-04  1.680000e-04  2.590000e-04
  1.310000e-04  3.620000e-04  7.200000e-05  1.600000e-04  2.670000e-04
  3.720000e-04  2.520000e-04  1.210000e-04  2.000000e-04  2.810000e-04
  2.950000e-04  2.290000e-04  2.280000e-04  8.900000e-05  2.300000e-04
  3.580000e-04  2.130000e-04  7.400000e-05  9.500000e-05  2.950000e-04
  2.870000e-04  2.350000e-04  1.480000e-04  1.050000e-04  3.600000e-04
  1.940000e-04  4.060000e-04  2.610000e-04  4.260000e-04  7.100000e-05
  2.260000e-04  4.000000e-05  1.210000e-04  1.280000e-04  3.890000e-04
  8.700000e-05  3.000000e-05  2.090000e-04  3.900000e-05  2.970000e-04
  4.070000e-04  2.970000e-04  3.620000e-04  0.000000e+00  1.560000e-04
  5.320000e-04  4.260000e-04  3.680000e-04  1.300000e-05  1.300000e-04
  5.020000e-04 -9.100000e-05 -3.100000e-04 -7.250000e-04 -4.100000e-04
 -6.200000e-05  3.500000e-04  1.270000e-04  3.790000e-04  1.780000e-04
  1.710000e-04  8.200000e-05  3.130000e-04  1.360000e-04  2.360000e-04
  2.540000e-04  3.150000e-04  1.240000e-04  3.150000e-04  3.120000e-04
  3.730000e-04  3.570000e-04  2.500000e-05  3.010000e-04  3.130000e-04
  3.890000e-04  6.330000e-04  1.240000e-04 -1.500000e-05 -3.520000e-04
 -2.710000e-04 -2.080000e-04 -9.750000e-04 -9.880000e-04 -5.330000e-04
  1.050000e-04  2.250000e-04 -2.600000e-05  1.570000e-04  4.380000e-04
  3.460000e-04  1.400000e-04  1.500000e-04  3.390000e-04  1.150000e-04
  1.680000e-04  2.170000e-04 -3.000000e-06  1.120000e-04  1.900000e-05
  6.120000e-04  6.440000e-04  3.820000e-04  5.230000e-04  6.670000e-04
  6.330000e-04 -4.310000e-04 -1.380000e-04  8.870000e-04  1.150000e-04
 -6.590000e-04 -1.284000e-03 -8.080000e-04 -1.770000e-04  8.000000e-06
  8.300000e-05  3.940000e-04  3.620000e-04  2.800000e-04  3.860000e-04
  1.220000e-04  2.190000e-04  4.680000e-04  3.250000e-04  8.600000e-05
  1.080000e-04  1.140000e-04  3.200000e-04  3.100000e-04  6.300000e-04
  1.130000e-04 -2.570000e-04 -8.870000e-04  2.075700e-02  8.349600e-02
  1.267500e-01  1.021300e-01  4.050300e-02  2.834000e-03 -1.767000e-03
 -1.305000e-03 -9.000000e-04 -5.190000e-04 -2.280000e-04 -2.660000e-04
  2.060000e-04  3.180000e-04  2.900000e-04  1.240000e-04  2.780000e-04
  3.130000e-04  2.670000e-04  2.020000e-04  1.190000e-04  2.090000e-04
  3.020000e-04  2.600000e-05  3.370000e-04 -3.050000e-04 -3.174000e-03
 -1.671000e-03  4.400000e-03  4.513000e-03  3.032900e-02  4.749300e-02
  6.684600e-02  2.947900e-02 -7.955000e-03 -8.410000e-04 -1.238000e-03
 -6.560000e-04 -3.660000e-04 -2.930000e-04  9.200000e-05  2.630000e-04
 -5.800000e-05 -7.000000e-06  1.960000e-04  1.080000e-04  2.900000e-05
  1.430000e-04  4.350000e-04  3.650000e-04  9.900000e-05  9.390000e-04
  2.984000e-03 -2.500000e-03 -2.687000e-03  1.193200e-02  1.615000e-03
  6.411000e-03  3.704900e-02  9.691100e-02  8.182700e-02  7.294200e-02
  3.907000e-02  3.043000e-03 -7.430000e-04 -2.032000e-03 -1.896000e-03
 -1.490000e-04  1.310000e-04  1.210000e-04  1.100000e-04  3.590000e-04
  1.910000e-04  2.660000e-04  1.500000e-05  3.710000e-04  2.110000e-04
 -4.000000e-06  4.320000e-04  2.270000e-04  2.986000e-03  2.213300e-02
  2.790100e-02  4.576700e-02  4.994200e-02  1.551930e-01  2.024890e-01
  1.173750e-01  9.354900e-02  1.080830e-01  7.209100e-02  1.561800e-02
 -5.500000e-04 -2.380000e-04 -3.110000e-04  1.790000e-04 -1.150000e-04
  2.210000e-04  3.330000e-04  3.230000e-04  8.000000e-05  1.750000e-04
  3.330000e-04  4.620000e-04  3.650000e-04  3.870000e-04  1.023000e-03
  2.084000e-03  8.456000e-03  1.187200e-02  3.728700e-02  2.280800e-02
  3.446000e-02  1.402490e-01  1.505720e-01  1.766150e-01  9.353800e-02
  7.912200e-02  8.923500e-02  2.355200e-02  4.970000e-04 -9.180000e-04
 -6.750000e-04 -6.000000e-06  2.930000e-04  8.500000e-05 -3.000000e-05
  1.160000e-04  5.150000e-04  1.990000e-04  1.530000e-04  6.350000e-04
  4.280000e-04  7.450000e-04  1.628000e-03  3.000000e-03  9.363000e-03
  8.410500e-02  2.773200e-02  3.705000e-03  3.969100e-02  2.405060e-01
  2.246350e-01  1.327350e-01  2.979600e-02  1.152790e-01  1.795390e-01
  3.490000e-02  2.263000e-03  4.880000e-04  2.800000e-05 -1.790000e-04
  5.730000e-04  1.430000e-04  1.740000e-04  2.950000e-04  3.690000e-04
  7.000000e-05  9.700000e-05  4.150000e-04  5.480000e-04  4.420000e-04
  1.765000e-03  4.108000e-03  1.467720e-01  1.290530e-01  5.714500e-02
  6.123000e-03  6.396700e-02  2.960140e-01  1.367140e-01  4.062000e-02
  8.835300e-02  1.822780e-01  8.844200e-02  2.136600e-02  1.833000e-03
  5.580000e-04  2.950000e-04 -2.710000e-04  2.240000e-04  2.090000e-04
  2.600000e-04  2.790000e-04  3.660000e-04  3.580000e-04  2.700000e-05
  6.200000e-05  2.600000e-04  4.980000e-04  1.815000e-03  5.688300e-02
  1.368750e-01  9.121900e-02  5.154200e-02  4.766000e-02  1.204350e-01
  4.375420e-01  2.557770e-01  7.965300e-02  1.683360e-01  7.182100e-02
  7.919000e-03 -1.313000e-03 -3.880000e-04  5.090000e-04  2.710000e-04
 -5.800000e-05  4.250000e-04  4.450000e-04  2.170000e-04  1.460000e-04
  5.200000e-05  3.100000e-05  1.840000e-04  5.900000e-05  6.260000e-04
  1.251000e-03  2.017000e-03  5.102100e-02  4.593500e-02 -7.494000e-02
 -3.866600e-02  1.049150e-01  2.041020e-01  1.040878e+00  3.474060e-01
  1.225560e-01  6.242600e-02  1.879300e-02 -1.291800e-02 -1.756000e-03
  1.600000e-05  6.220000e-04  7.260000e-04  8.520000e-04  5.950000e-04
  2.520000e-04  2.560000e-04  1.420000e-04  2.950000e-04 -7.200000e-05
  2.350000e-04  4.160000e-04  6.220000e-04  1.096000e-03  1.564000e-03
 -4.375600e-02 -9.272800e-02 -3.250080e-01 -6.904900e-02  5.377000e-03
  1.248210e-01  3.378380e-01  4.099000e-03  1.285000e-03 -7.381000e-03
 -3.896000e-03 -1.179300e-02 -1.260000e-03  1.930000e-04  6.450000e-04
  2.570000e-04  4.220000e-04  3.010000e-04  3.930000e-04  1.300000e-04
  8.900000e-05  2.240000e-04  1.310000e-04  2.800000e-04 -2.300000e-05
  5.340000e-04  2.200000e-04 -1.750000e-03 -2.500500e-01 -1.349820e-01
 -2.888030e-01 -1.933790e-01 -7.239800e-02  1.665400e-02  8.806000e-03
 -4.897000e-03 -8.945400e-02 -4.583900e-02 -9.255000e-03 -1.311000e-03
 -1.739000e-03 -1.210000e-04 -1.600000e-05  5.050000e-04  2.510000e-04
  3.400000e-04  2.260000e-04  1.890000e-04  4.120000e-04  1.230000e-04
  1.170000e-04  1.430000e-04 -1.260000e-04  8.200000e-05 -1.010000e-04
 -1.409400e-02 -2.220900e-01 -3.167660e-01 -2.879890e-01 -1.172370e-01
 -1.741500e-02 -1.369500e-02 -1.080860e-01 -5.678300e-02 -4.545000e-02
 -2.114300e-02 -1.156000e-03 -2.734000e-03 -1.303000e-03 -8.600000e-04
  1.650000e-04  2.850000e-04  1.670000e-04  1.050000e-04  0.000000e+00
  4.410000e-04 -5.000000e-06  3.490000e-04 -1.740000e-04  2.600000e-05
  3.800000e-05  2.290000e-04  5.000000e-06 -1.362000e-03 -4.232800e-02
 -2.618750e-01 -1.305270e-01  1.391600e-02  1.686400e-02 -4.385800e-02
 -1.036960e-01 -2.631200e-02  7.900000e-05 -5.780000e-04 -2.685000e-03
 -1.855000e-03 -3.380000e-04  1.190000e-03  5.240000e-04  6.690000e-04
  4.590000e-04  3.270000e-04  2.640000e-04  1.890000e-04  1.300000e-04
 -3.600000e-05  5.500000e-05  1.560000e-04  1.870000e-04  1.440000e-04
  2.900000e-04  6.070000e-04 -1.421500e-02 -8.312500e-02 -1.920900e-02
  1.063500e-02 -3.464800e-02 -2.956700e-02 -1.581900e-02  2.329200e-02
  7.566000e-03  5.731000e-03 -1.153000e-03 -3.960000e-04 -5.290000e-04
  1.277000e-03  3.170000e-04  7.740000e-04  2.770000e-04  5.190000e-04
  5.080000e-04  2.100000e-04  1.800000e-04  2.870000e-04  9.100000e-05
  4.370000e-04  6.270000e-04 -1.910000e-04  1.500000e-05  1.970000e-03
 -1.700000e-04 -1.018690e-01 -3.864500e-02 -9.527900e-02 -6.664900e-02
 -1.991600e-02  4.073400e-02  1.950500e-02  1.040100e-02  1.195900e-02
 -3.020000e-04  4.570000e-04  4.700000e-05 -5.380000e-04 -3.140000e-04
  8.320000e-04  4.510000e-04  1.840000e-04  2.700000e-04  2.770000e-04
  1.340000e-04  2.400000e-04  2.880000e-04  3.640000e-04  4.340000e-04
  3.060000e-04 -8.400000e-05  3.456000e-03  8.732800e-02  6.078700e-02
  4.921500e-02  1.080000e-02 -1.506800e-02  7.873000e-02  1.849440e-01
  7.190100e-02  2.095300e-02  1.594500e-02  3.870000e-04  9.270000e-04
  6.400000e-05  5.750000e-04  1.720000e-04  2.190000e-04  3.030000e-04
  2.880000e-04  4.990000e-04  8.100000e-05  3.710000e-04  5.550000e-04
  2.060000e-04 -1.500000e-05  2.880000e-04  3.130000e-04 -3.650000e-04
  3.370000e-04  3.675200e-02  9.937600e-02  1.031610e-01  4.040800e-02
  4.156300e-02  5.577000e-02  5.946300e-02  9.435000e-03  2.512000e-03
  5.280000e-04 -6.300000e-05 -1.210000e-04 -1.840000e-04  3.850000e-04
 -3.000000e-06 -5.900000e-05  3.390000e-04  3.670000e-04  1.890000e-04
  1.750000e-04  1.710000e-04  3.800000e-04  3.070000e-04 -7.800000e-05
 -6.000000e-05 -1.900000e-05 -3.820000e-04  6.070000e-04  3.910000e-03
  1.564160e-01  1.257780e-01  1.039210e-01  2.401400e-02  3.154200e-02
  2.760300e-02  4.939000e-03  2.471000e-03 -9.470000e-04 -1.870000e-04
 -1.380000e-04 -1.680000e-04  2.800000e-04  3.180000e-04  2.620000e-04
  2.100000e-04  1.760000e-04  3.250000e-04  8.600000e-05  2.700000e-04
  3.500000e-05  1.870000e-04 -1.400000e-05  5.400000e-05 -2.420000e-04
 -6.210000e-04 -6.950000e-04 -5.440000e-04  1.011400e-02  3.260900e-02
  1.510330e-01  3.121530e-01  3.021800e-01  1.797410e-01  4.347000e-02
  2.101000e-03 -5.630000e-04 -5.400000e-05 -9.000000e-06  2.660000e-04
  2.130000e-04  4.540000e-04  1.770000e-04  7.400000e-05  2.230000e-04
  1.160000e-04  1.630000e-04  3.530000e-04  3.170000e-04  3.450000e-04
  1.630000e-04  6.800000e-05  3.100000e-05 -3.470000e-04 -9.520000e-04
 -9.340000e-04 -1.321000e-03 -1.198000e-03 -1.489000e-03 -1.268000e-03
 -1.276000e-03 -5.110000e-04  2.530000e-04  2.530000e-04 -2.930000e-04
 -6.130000e-04  2.310000e-04  4.220000e-04  2.950000e-04  2.870000e-04
 -2.090000e-04 -8.900000e-05  3.090000e-04  2.200000e-04  3.300000e-04
  1.120000e-04  2.480000e-04  3.130000e-04  1.900000e-04  2.450000e-04
  4.470000e-04  3.760000e-04  6.050000e-04  4.220000e-04  2.520000e-04
  2.780000e-04  5.250000e-04  5.640000e-04 -2.420000e-04  4.210000e-04
  6.050000e-04  4.620000e-04  6.460000e-04  2.350000e-04  1.140000e-04
  5.630000e-04  1.710000e-04  3.750000e-04  1.830000e-04  6.600000e-05
  1.960000e-04  4.900000e-04  3.320000e-04  2.650000e-04  1.500000e-05
  3.700000e-04  3.720000e-04  3.090000e-04  4.350000e-04  4.660000e-04
  3.630000e-04  4.340000e-04  5.860000e-04  8.580000e-04  7.120000e-04
  4.060000e-04  6.800000e-04  4.910000e-04  1.140000e-04  1.390000e-04
  2.260000e-04  2.900000e-04  3.300000e-05  3.220000e-04  3.520000e-04
  2.430000e-04  1.710000e-04  2.510000e-04 -1.000000e-06  2.810000e-04
  2.810000e-04  3.760000e-04  1.310000e-04  3.030000e-04  1.190000e-04
  4.960000e-04  2.460000e-04  2.290000e-04  4.580000e-04  1.450000e-04
  1.660000e-04  6.100000e-05  1.340000e-04 -4.500000e-05  3.850000e-04
  1.720000e-04  3.120000e-04  3.350000e-04  8.700000e-05  2.430000e-04
  2.500000e-04  7.000000e-05  2.310000e-04  8.800000e-05  2.490000e-04
  3.610000e-04  1.830000e-04  1.440000e-04  1.170000e-04]
            b = 0.412969
            U = 5.535369, L = 4.694131

         Neuron : 4
            W = [-1.59700e-03 -1.12000e-04 -1.45600e-03  5.97000e-04 -5.76000e-04
  7.10000e-04 -5.63000e-04 -7.51000e-04  2.52000e-04 -1.05100e-03
 -7.16000e-04  1.60000e-05 -9.78000e-04 -1.15100e-03 -1.17400e-03
  1.12000e-04 -1.02200e-03 -5.29000e-04 -3.65000e-04 -3.98000e-04
 -9.65000e-04  2.41000e-04 -8.87000e-04 -1.65000e-03 -1.04900e-03
 -2.88000e-04 -1.24300e-03 -5.90000e-04 -1.51000e-04 -1.66900e-03
 -1.28000e-04 -5.67000e-04 -1.30000e-03 -1.50100e-03 -7.71000e-04
 -7.34000e-04 -1.11300e-03 -1.54100e-03 -7.50000e-04  1.51000e-04
 -7.32000e-04 -6.57000e-04 -1.53100e-03  9.00000e-05  1.87900e-03
 -1.38800e-03 -1.06700e-03 -5.44000e-04 -1.85800e-03  3.90000e-04
 -3.73000e-04 -1.16100e-03 -5.80000e-04 -1.42500e-03 -6.15000e-04
 -1.10900e-03 -1.32700e-03 -7.06000e-04 -6.60000e-05 -4.60000e-04
 -6.47000e-04 -7.31000e-04 -3.70000e-04 -1.30000e-04 -6.21000e-04
 -1.35900e-03  4.37000e-04  2.09300e-03  1.13800e-03  2.63500e-03
  3.44600e-03  2.75800e-03  4.02290e-02  1.92700e-03  1.09000e-04
 -1.27800e-03 -8.45000e-04 -4.34000e-04 -2.42000e-04 -7.47000e-04
 -1.12000e-04 -2.37000e-04 -1.01700e-03  2.10000e-05 -7.55000e-04
 -7.47000e-04 -8.89000e-04 -6.96000e-04 -3.57000e-04  4.18000e-04
  3.98000e-04 -5.72000e-04 -2.90000e-04  8.69000e-04  1.50100e-03
  2.51500e-03  4.85000e-03  6.07500e-03  7.90200e-03  9.13300e-03
  6.19242e-01  7.95536e-01  1.36900e-03 -1.65800e-03 -5.19000e-04
 -1.35500e-03 -2.08700e-03 -2.27000e-04 -1.05200e-03 -5.97000e-04
 -3.07000e-04 -9.08000e-04 -2.39000e-04 -5.80000e-05 -1.16100e-03
 -1.07000e-03 -2.92000e-04 -1.44900e-03 -7.08000e-04 -8.82000e-04
  3.90000e-04  1.24700e-03  1.06600e-03  2.34400e-03  5.04400e-03
  7.04200e-03  6.57700e-03  4.06000e-03  6.00407e-01  4.91046e-01
  6.34000e-04 -4.51200e-03 -1.74900e-03 -2.31200e-03 -2.92700e-03
 -4.18000e-04  3.78000e-04 -3.91000e-04 -1.06000e-03 -1.93600e-03
 -5.26000e-04 -7.43000e-04 -6.99000e-04  8.51000e-04 -1.88700e-03
 -1.45800e-03 -2.37000e-04  3.07000e-04 -3.02000e-04  2.99200e-03
  2.08600e-03  4.30200e-03 -8.51000e-04 -8.06910e-02 -2.90100e-01
 -4.27141e-01  8.39620e-02  3.30962e-01  1.51360e-02 -3.46300e-03
 -2.65300e-03 -7.75000e-04  1.28000e-04 -7.50000e-04 -1.40300e-03
 -3.79000e-04 -1.86200e-03 -1.56600e-03  4.16000e-04 -9.81000e-04
 -2.60000e-04  3.29000e-04 -4.80900e-03 -2.49600e-03 -2.64700e-03
  5.04000e-04 -1.07500e-03 -1.04200e-03 -2.96300e-03 -1.57800e-03
 -1.48560e-02 -9.06630e-02 -1.52911e-01 -2.48699e-01 -1.90671e-01
  4.28550e-02  5.38350e-02 -4.47460e-02  5.05000e-04  3.35000e-04
 -1.59000e-04 -6.52000e-04 -2.46000e-04 -1.13000e-04 -3.34000e-04
 -6.91000e-04 -1.12600e-03 -1.42100e-03 -8.98000e-04 -7.25000e-04
 -4.12700e-03 -3.76700e-03  1.49300e-03  1.60000e-04 -3.26700e-03
 -7.82300e-03 -1.39500e-02 -1.45680e-02 -2.79270e-02  1.12050e-02
 -4.41830e-02 -3.03936e-01 -2.15833e-01  3.26120e-02  8.31110e-02
  3.61000e-04  1.40190e-02 -2.56700e-03 -6.79300e-03  4.36000e-04
 -1.55100e-03 -2.21500e-03 -9.80000e-04 -7.11000e-04 -2.23000e-04
 -8.64000e-04 -1.22100e-03 -1.42000e-04 -4.18700e-03 -3.50000e-03
 -2.82800e-03 -8.50000e-04 -2.41900e-03 -6.50600e-03 -1.20540e-01
 -1.16821e-01 -8.38020e-02 -2.85380e-02 -1.38452e-01 -2.18223e-01
 -7.56880e-02  6.93110e-02  4.47720e-02  1.77260e-02  1.27120e-02
 -4.61300e-03 -8.14600e-03  1.42900e-03  1.49800e-03 -2.47000e-03
 -9.84000e-04 -1.70300e-03 -5.96000e-04 -5.86000e-04 -1.30900e-03
  3.16000e-04 -4.17500e-03 -2.48800e-03 -8.00000e-05 -5.97000e-04
 -2.66500e-03 -3.02910e-02 -6.39880e-02 -9.33740e-02 -3.28350e-02
 -2.51460e-02 -4.44110e-02 -8.45610e-02 -8.99580e-02  7.72000e-02
 -3.48030e-02 -4.95410e-02 -1.22900e-02 -7.51100e-03 -8.41200e-03
  2.72800e-03 -1.93000e-04 -8.47000e-04 -1.74300e-03 -9.70000e-04
 -3.29000e-04 -3.21000e-04 -1.43600e-03 -1.22200e-03 -4.49700e-03
 -1.86600e-03  4.73000e-04 -1.66000e-03 -6.78600e-03 -2.85210e-02
 -1.78883e-01 -7.04070e-02 -4.09790e-02 -4.43470e-02 -5.83270e-02
 -1.96108e-01 -9.31980e-02  7.16900e-02 -9.10980e-02 -1.13149e-01
 -1.05860e-02 -5.71100e-03  9.74000e-04  6.91000e-04  4.37000e-04
 -1.19500e-03 -1.40200e-03 -3.80000e-04 -1.41100e-03  3.77000e-04
 -4.02000e-04 -5.22000e-04 -3.57100e-03 -1.72500e-03 -6.35000e-04
 -4.87600e-03 -3.97700e-03 -8.50260e-02 -1.18948e-01 -6.10080e-02
 -2.94270e-02 -6.12360e-02 -9.11910e-02 -5.35790e-02  5.49200e-03
  7.09500e-03 -1.01855e-01 -7.72440e-02  1.67000e-04  1.12200e-03
  1.60000e-04  5.08000e-04  2.02700e-03  9.36000e-04 -6.87000e-04
 -1.08800e-03 -7.16000e-04 -1.40000e-05 -1.04900e-03 -7.08000e-04
 -3.37900e-03 -3.34000e-03 -2.46400e-03 -1.57200e-03  1.61280e-02
 -3.83800e-03 -4.18730e-02 -8.81650e-02 -6.26480e-02  5.26000e-03
 -1.97680e-02  2.51970e-02  4.58750e-02  2.33000e-04 -2.38340e-02
 -4.69570e-02 -6.25000e-04 -7.02000e-04 -3.12000e-04 -1.79900e-03
  1.23000e-04 -8.60000e-05 -8.21000e-04 -1.12000e-03 -7.00000e-05
 -3.31000e-04 -4.23000e-04 -1.32000e-04 -4.91200e-03 -4.57100e-03
 -8.30400e-03 -8.15000e-04 -1.57450e-02 -1.26060e-02 -1.43123e-01
 -8.46690e-02  2.70710e-02  1.63100e-03 -2.27055e-01  1.33389e-01
  8.85520e-02 -3.73650e-02 -1.58760e-02 -5.86150e-02 -5.67200e-03
 -3.04500e-03 -7.52600e-03 -1.80000e-04 -7.05000e-04  2.70000e-05
 -3.87000e-04 -6.86000e-04 -4.77000e-04 -8.63000e-04  1.95000e-04
 -2.30000e-05 -4.20200e-03 -7.45100e-03 -4.07200e-03 -1.96800e-03
 -4.06770e-02 -1.12876e-01 -2.06353e-01 -2.33100e-02  6.54060e-02
 -2.45130e-02 -2.09837e-01  2.98500e-03  2.24190e-02 -1.08823e-01
 -4.00030e-02 -6.06220e-02 -4.64600e-03 -6.58200e-03 -4.21100e-03
 -1.33900e-03 -8.86000e-04 -9.65000e-04  8.50000e-05 -1.25300e-03
 -1.27200e-03  3.33000e-04 -5.97000e-04  5.94000e-04 -2.40700e-03
 -4.69000e-03 -3.87900e-03  1.94100e-03 -1.41290e-01 -4.44530e-02
  1.13274e-01  1.61068e-01  1.21765e-01  6.71610e-02  5.86970e-02
  7.34100e-03 -8.15820e-02 -2.05337e-01 -6.77330e-02 -1.74520e-02
 -4.03200e-03 -6.76000e-03 -2.99500e-03 -1.38300e-03 -6.54000e-04
 -8.10000e-04 -2.16000e-04  2.24000e-04 -1.60700e-03 -1.09000e-04
 -3.01000e-04 -4.10000e-05 -1.94000e-04 -2.25800e-03  1.12100e-03
  2.47200e-03  6.10500e-02  2.61236e-01  1.41557e-01  9.48120e-02
  6.34330e-02  9.38120e-02  9.84330e-02  1.66729e-01 -7.08300e-03
 -1.25549e-01 -2.25390e-02 -1.67200e-02 -1.27730e-02 -7.17400e-03
 -4.63200e-03 -2.53300e-03  1.75900e-03  7.54000e-04 -2.53000e-04
 -6.42000e-04  7.59000e-04 -9.21000e-04 -2.27000e-04 -1.01900e-03
 -5.15000e-04 -5.07000e-04 -5.58000e-04 -1.46320e-02 -1.46200e-02
 -1.70760e-01 -1.79540e-01 -1.23464e-01 -1.72251e-01  3.27630e-02
  1.27900e-01  1.94465e-01  2.93727e-01  8.21200e-03 -1.97100e-03
 -1.52960e-02 -1.65530e-02 -1.32620e-02 -4.85600e-03  5.42000e-04
  2.00200e-03  3.18000e-04 -1.41900e-03 -1.09600e-03 -1.19900e-03
 -9.76000e-04 -1.38400e-03 -1.11900e-03 -8.37000e-04  3.37600e-03
 -4.90000e-05 -4.57870e-02  1.29093e-01 -1.70513e-01 -1.62176e-01
 -6.73290e-02  3.84070e-02  1.31389e-01  1.23275e-01 -2.95720e-02
  3.68700e-02  1.52867e-01  5.36100e-03  3.09500e-03 -4.17900e-03
 -7.66200e-03 -1.11200e-03  2.14000e-04  1.85300e-03  4.80000e-04
 -9.20000e-04 -6.80000e-04 -5.03000e-04 -7.69000e-04 -7.34000e-04
 -1.75500e-03 -1.73000e-03  3.31400e-03 -1.31000e-03 -7.28800e-03
  3.58310e-01  4.20713e-01  5.81490e-02  2.96636e-01  2.91087e-01
  1.59950e-01 -3.18500e-02 -3.03780e-02 -1.56000e-02  3.93820e-02
  9.84000e-03  6.32000e-04 -5.36900e-03 -1.87100e-03  6.06000e-04
  2.45200e-03  6.18000e-04 -9.29000e-04 -6.46000e-04 -6.10000e-04
 -5.94000e-04  3.78000e-04 -1.51900e-03 -2.36700e-03  1.00000e-05
  2.16300e-03 -3.77400e-03 -6.63900e-03 -2.10101e-01  2.41851e-01
  2.35739e-01  1.73161e-01 -8.16590e-02 -2.08993e-01 -3.41042e-01
 -1.83817e-01 -6.13260e-02 -7.28890e-02 -3.47710e-02 -5.17600e-03
 -7.33000e-03 -1.08800e-03  1.96800e-03  4.62000e-04  2.60000e-04
 -1.15300e-03 -5.50000e-05  3.98000e-04 -1.29300e-03 -8.78000e-04
 -4.80000e-04 -1.94900e-03  7.34000e-04  8.24000e-04 -9.03000e-04
 -9.93200e-03 -8.06390e-02 -1.35270e-01 -1.95459e-01 -1.35572e-01
 -9.64360e-02 -1.31032e-01 -1.42322e-01 -1.75920e-02 -7.91300e-03
 -2.69700e-03 -3.47200e-03  9.26000e-04 -1.22100e-03  2.28000e-04
  5.18000e-04 -1.29000e-04 -1.42700e-03 -3.78000e-04 -1.56300e-03
 -6.38000e-04 -1.53000e-04 -2.10000e-04  8.00000e-06 -1.01600e-03
 -1.33000e-03 -1.03500e-03  1.50200e-03 -9.95000e-04 -6.82490e-02
 -3.17937e-01 -1.93331e-01 -1.63815e-01 -3.27100e-02 -4.48100e-02
 -2.65750e-02 -2.82400e-03 -5.63500e-03 -1.13030e-02 -5.14000e-04
 -1.05900e-03 -2.83000e-04 -1.05600e-03  1.14800e-03 -8.66000e-04
 -2.49200e-03 -2.00200e-03 -6.54000e-04 -1.34700e-03 -6.63000e-04
 -1.31700e-03 -7.73000e-04  1.37000e-04 -2.00000e-04 -9.98000e-04
 -7.29000e-04 -7.24000e-04  3.25000e-04 -5.55800e-03  3.85220e-02
 -3.69900e-02 -4.07790e-02 -8.52000e-03 -2.90370e-02 -3.39730e-02
 -3.40500e-03  5.56000e-04  1.40500e-03 -4.64200e-03 -3.02200e-03
 -1.35400e-03  4.65000e-04 -1.23900e-03 -3.30000e-05 -3.28000e-04
 -1.50000e-03 -1.20500e-03 -9.30000e-04 -1.38300e-03 -4.19000e-04
 -1.22700e-03 -8.56000e-04 -1.16000e-03 -7.73000e-04  8.08000e-04
  9.50400e-03  4.07200e-03  1.25900e-03 -3.84000e-04  5.30000e-05
  8.09000e-04  4.07000e-04  3.03200e-03  3.57000e-04  2.08400e-03
  3.28300e-03  1.18000e-04 -4.89000e-03 -4.04100e-03 -1.21100e-03
 -1.02000e-04 -3.39000e-04 -1.41000e-04 -5.18000e-04 -4.74000e-04
 -1.53400e-03 -1.13300e-03 -2.20000e-05 -6.33000e-04  8.00000e-06
  2.40000e-04  5.70000e-05  4.90000e-04  3.78000e-04  7.55000e-04
  1.25900e-03  1.68000e-04 -2.89000e-04  1.64600e-03  9.22000e-04
 -5.45000e-04  6.08000e-04  1.51400e-03  1.01000e-03  9.00000e-04
  5.16000e-04  4.74000e-04 -2.53000e-04  3.12000e-04 -6.43000e-04
 -7.15000e-04 -1.03200e-03 -5.62000e-04  1.20000e-04 -1.10700e-03
  4.83000e-04 -6.13000e-04 -1.11300e-03 -5.69000e-04 -5.16000e-04
 -5.23000e-04 -1.49200e-03 -1.59800e-03  1.66000e-04  3.90000e-05
 -2.99000e-04 -5.36000e-04  3.23000e-04  5.50000e-05 -7.03000e-04
  0.00000e+00 -1.81600e-03 -1.34000e-04  2.41000e-04  1.23000e-04
 -1.40400e-03  7.90000e-05 -6.77000e-04 -3.24000e-04 -1.06500e-03
  1.00000e-05 -5.41000e-04 -7.50000e-04 -1.25400e-03 -7.50000e-05
 -6.09000e-04 -6.49000e-04 -9.30000e-04  6.60000e-05 -4.06000e-04
  7.45000e-04 -9.40000e-05 -7.30000e-05 -8.89000e-04 -1.66000e-03
 -3.09000e-04 -1.80000e-05  4.76000e-04 -1.26300e-03 -2.82000e-04
 -1.53800e-03 -1.06200e-03 -1.55800e-03 -4.22000e-04 -3.39000e-04
 -6.68000e-04 -1.06100e-03 -1.27300e-03 -3.36000e-04]
            b = -0.027991
            U = -1.102423, L = -2.2407

         Neuron : 5
            W = [ 2.73000e-04  1.72000e-04 -4.00000e-05  3.55000e-04  2.15000e-04
  6.01000e-04  2.34000e-04  3.55000e-04  4.70000e-04  2.61000e-04
  6.00000e-05  3.07000e-04  3.16000e-04  3.61000e-04  5.20000e-05
  5.25000e-04  1.88000e-04  4.28000e-04  1.35000e-04  1.83000e-04
  3.15000e-04  5.10000e-04  5.32000e-04  3.44000e-04  2.59000e-04
  5.27000e-04  3.46000e-04  3.98000e-04  2.66000e-04  1.69000e-04
 -3.90000e-05  3.97000e-04  2.57000e-04  1.34000e-04  1.94000e-04
 -1.57000e-04  1.46000e-04 -1.90000e-05  3.59000e-04  5.11000e-04
  3.60000e-04  2.43000e-04  5.85000e-04  7.50000e-05  7.50000e-05
  2.86000e-04  1.66000e-04  2.18000e-04  5.37000e-04  1.29000e-04
 -6.80000e-05  1.98000e-04  4.80000e-04  5.70000e-05 -8.00000e-06
  4.10000e-04  3.70000e-05  3.12000e-04  2.82000e-04  2.52000e-04
  4.09000e-04  5.19000e-04  4.80000e-04  2.19000e-04  9.30000e-05
 -1.54000e-04  3.25000e-04  4.94000e-04  4.76000e-04  2.78000e-04
  8.74000e-04  6.44000e-04  6.31000e-04 -6.60000e-05 -1.20000e-05
 -4.57000e-04  1.92000e-04  4.20000e-05  2.71000e-04  1.34000e-04
  1.03000e-04  3.28000e-04  4.12000e-04  4.18000e-04  2.30000e-04
  7.70000e-05  2.25000e-04  2.02000e-04  4.11000e-04  1.00000e-04
  8.15000e-04  3.77000e-04  2.90000e-04  4.42000e-04  5.74000e-04
  7.92000e-04  4.42000e-04  7.46000e-04  1.39900e-03  1.52100e-03
  1.28800e-03 -2.37000e-04 -3.47000e-04  3.61000e-04  4.76000e-04
  3.96000e-04  8.14000e-04  4.61000e-04  1.14000e-04  4.90000e-04
  1.61000e-04  3.87000e-04  8.09000e-04  1.08000e-04 -8.20000e-05
  3.67000e-04  1.05000e-04  3.89000e-04  1.91000e-04 -1.99000e-04
 -3.04000e-04 -1.18000e-04  1.16000e-04  1.87000e-04  1.56400e-03
  2.26400e-03  1.25500e-03  1.06000e-03 -2.03000e-04  7.80000e-04
  2.91500e-03  3.35800e-03  1.30700e-03  3.09000e-04  2.50000e-05
 -3.11000e-04 -2.09000e-04  3.20000e-04 -2.22000e-04  1.62000e-04
  3.12000e-04  4.02000e-04 -4.20000e-05  3.56000e-04  1.77000e-04
  6.98000e-04 -2.07000e-04  2.27000e-04  6.19000e-04  1.15000e-04
  8.63000e-04  2.53500e-03  5.04500e-03  7.98310e-02  1.24792e-01
 -1.03670e-02 -5.56360e-02  5.16910e-02  1.44230e-02  6.08700e-03
  2.63100e-03  2.05000e-04 -6.76000e-04 -4.08000e-04  2.61000e-04
  4.86000e-04 -1.76000e-04  6.93000e-04  2.40000e-05  1.71000e-04
 -4.40000e-05  1.65000e-04 -1.67000e-04  3.29000e-04  8.90000e-05
  5.56000e-04  1.34000e-04 -1.07700e-03  1.84200e-03  1.00290e-02
  2.46190e-02  1.64611e-01  7.56860e-02 -1.70120e-02 -2.32700e-02
  3.54920e-02  2.22990e-02  1.47480e-02  2.29100e-03  1.08600e-03
 -5.38000e-04  1.25000e-04  9.10000e-05  2.49000e-04 -1.02000e-04
 -3.90000e-05 -1.40000e-05  3.53000e-04 -2.20000e-05  4.13000e-04
 -7.60000e-05 -5.65000e-04 -7.50000e-05 -1.23300e-03 -3.18600e-03
 -9.39000e-04  2.75460e-02  4.35000e-02  1.63998e-01  9.82170e-02
  1.69560e-02  1.45700e-02 -7.25000e-04  1.34040e-02  1.01390e-02
  3.94300e-03  2.59700e-03  4.94300e-03  1.02700e-03  4.30000e-04
 -2.53000e-04  1.11000e-04  1.17000e-04  4.55000e-04  5.74000e-04
  1.24000e-04  9.10000e-05  4.86000e-04 -2.45000e-04 -5.80000e-05
  2.23000e-04 -7.66000e-04 -1.53200e-03  6.97000e-03  1.88703e-01
  2.86298e-01  2.25275e-01 -2.82960e-02 -2.12707e-01 -1.65781e-01
 -2.45710e-02  2.25800e-03  5.57100e-03  1.83760e-02  1.90190e-02
  5.26700e-03  3.23500e-03  7.48000e-04  9.17000e-04  4.40000e-04
  5.83000e-04  4.18000e-04  1.01000e-04 -6.00000e-06 -2.50000e-05
 -6.30000e-05 -1.57000e-04  9.00000e-06  3.65000e-04 -1.52200e-03
  2.73700e-03  2.69260e-02  1.04982e-01  2.08854e-01  2.85450e-02
 -1.07159e-01 -2.16583e-01 -7.77280e-02 -6.89000e-02 -1.27300e-03
 -3.07460e-02 -2.56000e-03  4.57370e-02  2.78800e-03  1.08300e-03
  5.95000e-04  4.96000e-04  2.38000e-04  1.14000e-04  3.85000e-04
  6.60000e-05 -5.30000e-05  2.38000e-04  4.05000e-04 -7.50000e-05
 -1.30000e-05  1.52000e-04 -4.07000e-04  4.10800e-03  3.87130e-02
  5.32734e-01  1.55829e-01 -6.85730e-02 -2.41278e-01 -3.04268e-01
 -8.44310e-02  9.96800e-03  3.29980e-02 -8.54990e-02 -5.63000e-04
  4.38960e-02  2.58100e-03  1.34200e-03  4.90000e-04 -2.28000e-04
  4.52000e-04  1.81000e-04  4.76000e-04  4.83000e-04  5.07000e-04
  4.78000e-04 -4.70000e-05  6.98000e-04 -2.16000e-04  2.62000e-04
 -4.99000e-04  7.13800e-03  5.02567e-01  5.42288e-01  6.82890e-02
 -1.40093e-01 -1.71505e-01 -1.39292e-01  1.00544e-01  7.32680e-02
  4.45910e-02 -3.97650e-02  1.85000e-02  1.82820e-02  1.33000e-03
  3.09000e-04  1.14500e-03  3.55000e-04  3.40000e-05  4.44000e-04
  2.66000e-04  1.34000e-04  4.00000e-04  7.12000e-04  4.30000e-04
  7.61000e-04  5.04000e-04  6.90000e-04  2.53000e-04  6.89290e-02
  5.25016e-01  3.96747e-01 -7.19920e-02 -2.45010e-01 -1.33955e-01
  6.50840e-02  1.75728e-01  8.03000e-02  5.65050e-02  8.99400e-03
  9.91700e-03  1.63400e-03 -9.00000e-05  2.06000e-04  1.17900e-03
  7.48000e-04  2.30000e-04  5.23000e-04  4.66000e-04  3.24000e-04
  1.88000e-04  2.75000e-04  4.63000e-04  6.87000e-04  8.58000e-04
  4.23000e-04 -1.02000e-04 -1.12960e-02  3.79699e-01  5.01360e-01
 -9.21510e-02 -2.79056e-01 -1.07151e-01  1.01563e-01  1.46377e-01
  5.91940e-02  5.91000e-04 -4.29200e-03  8.24400e-03 -2.65000e-04
 -4.24000e-04  2.01000e-04  4.14000e-04  6.70000e-04  3.91000e-04
  2.68000e-04  8.50000e-05 -8.20000e-05  2.10000e-04  3.93000e-04
  2.60000e-04  1.50000e-04  9.23000e-04 -4.08000e-04 -1.52000e-03
 -3.16804e-01  7.33280e-02  3.99899e-01 -8.74800e-03 -1.90901e-01
 -1.29972e-01  5.25170e-02  4.80000e-05 -5.87350e-02 -9.54320e-02
 -1.21260e-02  2.05100e-03 -6.93000e-04 -2.31000e-04 -2.57000e-04
 -9.00000e-05  1.42000e-04  4.63000e-04  1.32000e-04  3.91000e-04
  4.42000e-04  2.60000e-04  3.26000e-04  5.15000e-04  1.80000e-04
  1.41000e-04 -7.90000e-05 -1.27600e-02 -5.60028e-01 -2.70640e-02
  1.57464e-01 -3.98590e-02 -1.30405e-01 -1.07940e-02  9.83870e-02
 -7.12200e-03 -1.72115e-01 -1.48975e-01 -1.87250e-02 -4.53100e-03
 -1.37300e-03 -3.67000e-04  1.38000e-04 -4.82000e-04  2.05000e-04
  1.16000e-04  5.16000e-04  2.08000e-04  2.85000e-04  2.03000e-04
  3.87000e-04  6.00000e-05  1.40000e-04  5.00000e-04 -3.34000e-04
 -2.26910e-02 -2.27852e-01  5.86620e-02  8.67360e-02 -2.83800e-02
  2.00680e-02  2.04292e-01  1.44224e-01 -5.52530e-02 -1.31913e-01
 -5.95410e-02 -5.14100e-03 -3.10200e-03 -7.30000e-04  1.58000e-04
  9.58000e-04 -4.00000e-05  3.04000e-04  1.77000e-04  3.97000e-04
  1.14000e-04  2.94000e-04  5.31000e-04 -1.17000e-04 -1.25000e-04
  7.38000e-04  4.84000e-04  1.07100e-03 -1.59400e-03  1.86000e-04
  3.87680e-02 -1.17712e-01 -7.03220e-02  1.13633e-01  2.43227e-01
  9.31170e-02 -6.62750e-02 -4.26690e-02 -4.56900e-03  1.66400e-03
  2.12000e-03  3.69600e-03  3.08700e-03  6.43000e-04  4.35000e-04
  6.80000e-04  7.89000e-04  4.91000e-04  4.10000e-05  3.82000e-04
  3.21000e-04 -1.08000e-04  1.95000e-04  6.29000e-04  6.16000e-04
  3.46500e-03  1.16200e-03  9.11800e-03 -4.85000e-02 -1.14381e-01
 -4.83400e-03  1.30173e-01  9.07460e-02  1.82300e-02 -2.17400e-02
 -2.44400e-03  2.13770e-02  8.66900e-03  4.42000e-03  2.52400e-03
  4.58700e-03  1.40900e-03  8.17000e-04  7.18000e-04  4.38000e-04
  1.59000e-04  1.54000e-04  2.04000e-04  6.06000e-04  5.16000e-04
  1.05400e-03  1.19200e-03  7.89000e-04  2.36300e-03  4.35000e-04
  5.80400e-03 -5.80570e-02  7.85300e-03  1.33031e-01  1.28675e-01
  4.31300e-02 -6.56600e-03 -7.89400e-03  5.46400e-03  2.26050e-02
  6.28700e-03  4.11800e-03  3.06700e-03  2.14200e-03  6.60000e-04
  6.76000e-04  3.60000e-04  4.33000e-04  2.70000e-04  5.33000e-04
  5.27000e-04 -5.00000e-05  5.09000e-04  6.67000e-04  7.69000e-04
  2.74000e-04 -1.20000e-04 -4.27000e-04 -5.35000e-04  1.31820e-02
  3.73800e-02  6.41410e-02  8.28520e-02  7.32760e-02  6.54050e-02
  1.99490e-02  2.72140e-02  5.26310e-02  1.54270e-02 -5.97000e-04
 -1.93000e-04 -4.11000e-04  5.56000e-04  1.20700e-03  5.44000e-04
  5.78000e-04  3.78000e-04  6.42000e-04  4.26000e-04  4.38000e-04
  3.57000e-04  3.40000e-04 -1.00000e-06  1.63000e-04 -4.49000e-04
 -7.25000e-04  2.67300e-03  2.01860e-02  7.93400e-03 -7.70000e-05
 -8.00600e-03  2.79000e-04  1.57910e-02  6.63100e-03  8.87000e-03
  7.42800e-03  3.58400e-03  4.80000e-04  3.15000e-04  6.31000e-04
  8.54000e-04  8.57000e-04  4.08000e-04  7.80000e-05  1.48000e-04
  1.87000e-04  5.24000e-04  2.59000e-04  5.80000e-05  1.09000e-04
 -1.34000e-04 -2.79000e-04 -1.91000e-04  4.57000e-04  1.05400e-03
  6.53100e-02  2.50560e-02  1.36100e-02 -9.28000e-04 -2.19000e-03
  4.17300e-03  5.04900e-03  1.33330e-02  9.48800e-03  3.40800e-03
  1.25800e-03  6.94000e-04  5.59000e-04  7.47000e-04  6.94000e-04
  3.00000e-06  6.00000e-06  1.42000e-04  6.29000e-04  3.62000e-04
  1.90000e-04  2.00000e-05  3.44000e-04  1.82000e-04 -4.29000e-04
 -1.64000e-04  8.47000e-04  2.74900e-03  2.87250e-02  7.20500e-02
  5.88400e-02  2.47790e-02  7.95000e-02  9.19880e-02  6.43160e-02
  9.69100e-03  1.95900e-03  1.37900e-03  2.69000e-04  4.08000e-04
  4.91000e-04  2.51000e-04  2.95000e-04  2.39000e-04  3.43000e-04
  4.70000e-04  3.94000e-04  2.14000e-04  4.02000e-04  2.57000e-04
  1.21000e-04  2.25000e-04 -3.52000e-04  4.49000e-04  5.83000e-04
  1.04200e-03 -2.97000e-04 -5.01000e-04 -1.27700e-03 -1.17500e-03
  6.47000e-04  2.08400e-03  2.71300e-03  2.74900e-03  2.14700e-03
  8.06000e-04  8.09000e-04  2.28000e-04  7.08000e-04  4.19000e-04
  1.20000e-05  1.33000e-04  3.76000e-04  4.15000e-04  3.26000e-04
  3.13000e-04  3.90000e-05  1.20000e-05  4.50000e-05  2.50000e-05
  6.37000e-04  7.15000e-04  5.80000e-04  4.38000e-04 -3.78000e-04
 -1.34800e-03 -1.74700e-03 -7.80000e-05  4.85000e-04  6.35000e-04
  8.60000e-05  2.10000e-04  6.92000e-04  4.24000e-04  6.06000e-04
  2.39000e-04  7.75000e-04  3.95000e-04  2.77000e-04  6.98000e-04
  1.83000e-04  4.07000e-04  2.64000e-04  5.05000e-04  2.94000e-04
  4.72000e-04  1.69000e-04  1.97000e-04  2.00000e-04  1.35000e-04
  4.51000e-04  3.31000e-04 -2.84000e-04 -2.44000e-04  1.65000e-04
  5.70000e-04  1.07900e-03  4.72000e-04  3.09000e-04  1.28000e-04
  4.98000e-04  2.25000e-04  4.36000e-04  2.96000e-04  3.72000e-04
  2.09000e-04  5.75000e-04  2.44000e-04 -1.50000e-05  4.55000e-04
  3.11000e-04  2.99000e-04 -1.15000e-04 -1.00000e-06  6.02000e-04
  9.90000e-05  2.92000e-04  3.57000e-04  4.23000e-04  3.68000e-04
  2.15000e-04  3.28000e-04  2.52000e-04 -2.30000e-05  2.57000e-04
  4.69000e-04  2.25000e-04  4.70000e-04  3.69000e-04  3.23000e-04
  1.41000e-04  1.58000e-04 -7.60000e-05  1.17000e-04  3.85000e-04
  3.09000e-04  3.18000e-04  2.82000e-04  4.66000e-04]
            b = 0.221191
            U = 2.826955, L = 1.937052

         Neuron : 6
            W = [-1.74600e-03 -1.61500e-03 -1.47100e-03 -1.63700e-03 -1.61400e-03
 -1.78900e-03 -1.38400e-03 -1.40900e-03 -1.32500e-03 -1.39700e-03
 -1.30100e-03 -1.36900e-03 -1.15900e-03 -1.41500e-03 -2.05700e-03
 -1.77900e-03 -1.98900e-03 -1.89800e-03 -1.84200e-03 -1.64900e-03
 -9.16000e-04 -1.12400e-03 -1.29200e-03 -1.90500e-03 -1.07200e-03
 -2.04400e-03 -8.27000e-04 -1.52500e-03 -1.25700e-03 -9.59000e-04
 -2.13300e-03 -1.43300e-03 -1.84000e-03 -1.74800e-03 -1.97600e-03
 -1.67300e-03 -1.40900e-03 -1.63700e-03 -1.73100e-03 -1.49400e-03
 -2.15300e-03 -1.49600e-03 -1.41100e-03 -1.72200e-03 -2.14300e-03
 -1.68700e-03 -1.33500e-03 -1.79300e-03 -1.86700e-03 -2.12700e-03
 -1.03100e-03 -1.87600e-03 -1.29300e-03 -1.22000e-03 -1.38200e-03
 -1.91000e-03 -1.85500e-03 -1.74800e-03 -1.49400e-03 -1.51200e-03
 -1.06000e-03 -6.75000e-04 -1.29100e-03 -1.67400e-03 -1.49100e-03
 -1.76200e-03 -1.09000e-03 -1.39700e-03 -2.13700e-03 -1.33200e-03
 -1.63200e-03 -2.38400e-03 -1.60300e-03 -1.67900e-03 -1.35700e-03
 -1.23200e-03 -1.56600e-03 -1.58100e-03 -1.45900e-03 -1.35900e-03
 -1.47100e-03 -2.04800e-03 -1.14200e-03 -1.32200e-03 -1.02700e-03
 -1.41700e-03 -1.33400e-03 -1.42300e-03 -1.81300e-03 -1.44700e-03
 -1.29800e-03 -1.55300e-03 -2.04600e-03 -1.79100e-03 -1.81300e-03
 -1.57200e-03 -1.11800e-03 -1.35500e-03 -2.29400e-03 -2.94100e-03
 -2.73800e-03 -1.72200e-03 -2.51800e-03 -2.36900e-03 -2.79100e-03
 -2.30500e-03 -1.12900e-03 -1.35700e-03 -1.53800e-03 -1.43100e-03
 -1.14000e-03 -1.46000e-03 -1.98900e-03 -1.24200e-03 -1.21800e-03
 -1.52700e-03 -1.63700e-03 -2.11600e-03 -1.38800e-03 -1.42300e-03
 -1.15100e-03 -1.29000e-03 -3.48000e-04 -4.32000e-04  8.17000e-04
  5.82000e-04 -1.17200e-03 -1.03500e-03 -2.70100e-03 -5.53600e-03
 -5.38100e-03 -3.52000e-03 -2.53300e-03 -1.74700e-03 -6.60000e-04
 -7.28000e-04 -1.50800e-03 -1.62600e-03 -2.16900e-03 -1.60000e-03
 -1.25600e-03 -1.61300e-03 -1.06700e-03 -1.96500e-03 -1.57600e-03
 -1.68800e-03 -1.01100e-03 -1.06800e-03  8.41000e-04 -2.69000e-04
 -8.85000e-04 -2.52000e-04 -8.00000e-06 -2.18900e-03  3.41900e-03
 -2.47470e-02 -9.72730e-02 -2.63020e-02  1.74210e-02  1.02080e-02
  6.35400e-03  7.34500e-03  1.57300e-03 -7.35000e-04 -7.00000e-04
 -2.34500e-03 -1.42600e-03 -1.24000e-03 -1.38000e-03 -1.33000e-03
 -1.91700e-03 -1.41700e-03 -1.65000e-03 -8.42000e-04 -8.61000e-04
 -1.64000e-04  9.23000e-04 -6.55000e-04  5.34000e-04  6.74100e-03
  6.63700e-03 -2.09320e-02  1.62470e-02  8.47760e-02  2.51229e-01
  4.06716e-01  3.63034e-01  5.02588e-01  3.66190e-02  1.38200e-02
  3.76800e-03 -4.09000e-04 -1.61900e-03 -1.85000e-03 -1.70300e-03
 -1.44300e-03 -1.58900e-03 -1.91500e-03 -1.90000e-03 -1.21800e-03
 -1.45400e-03 -1.39500e-03 -1.85000e-04  9.12000e-04  1.41700e-03
 -6.52000e-04 -4.60700e-03 -3.87500e-03 -7.36190e-02 -5.32520e-02
  5.43930e-02  2.34148e-01  3.49705e-01  2.72960e-01  3.25775e-01
  2.77585e-01  1.64359e-01  3.29880e-02  1.22100e-03 -3.96900e-03
 -2.08500e-03 -1.65200e-03 -1.88000e-03 -1.64600e-03 -1.54100e-03
 -1.32200e-03 -1.72500e-03 -1.64600e-03 -6.95000e-04 -1.89000e-04
 -7.50000e-04 -4.40000e-05  1.57600e-03 -5.15900e-03 -1.02019e-01
 -1.07800e-01 -1.09528e-01 -1.51300e-02  2.22100e-02 -5.04600e-02
 -1.46685e-01 -1.42130e-01 -2.68607e-01 -1.71310e-01  1.08160e-02
  3.03900e-03 -3.28700e-03 -2.33500e-03 -1.94600e-03 -1.96300e-03
 -1.99900e-03 -1.48100e-03 -1.81800e-03 -1.57400e-03 -1.18200e-03
 -1.36700e-03 -1.76400e-03 -3.24000e-04 -7.92000e-04  5.34000e-04
  8.26000e-04 -1.51770e-02 -4.55050e-02 -3.83300e-02 -2.13300e-02
 -1.00000e-05 -2.06868e-01 -4.88415e-01 -7.45143e-01 -6.56010e-01
 -4.30728e-01 -2.57283e-01 -2.49900e-03 -2.05600e-03 -3.77300e-03
 -9.06000e-04 -1.89800e-03 -2.30400e-03 -1.94300e-03 -6.27000e-04
 -1.55700e-03 -1.87900e-03 -1.44300e-03 -1.20700e-03 -1.18900e-03
 -8.42000e-04 -3.95000e-04  1.93000e-03  4.82000e-04 -7.98100e-03
  6.94500e-02  1.59450e-02  1.83720e-02  1.18390e-02 -2.11810e-01
 -4.11700e-01 -2.55047e-01 -2.88851e-01 -2.80752e-01 -2.57671e-01
 -4.30520e-02 -2.25900e-03 -1.40600e-03 -2.19400e-03 -2.76800e-03
 -1.76000e-03 -1.00700e-03 -1.60100e-03 -1.59300e-03 -1.26600e-03
 -1.46000e-03 -5.60000e-04 -2.07400e-03 -6.16000e-04  1.87000e-04
  3.31800e-03 -2.51000e-04  4.63040e-02  1.08164e-01  6.16580e-02
  4.39700e-02  1.05186e-01  1.50642e-01  1.25152e-01  1.07994e-01
  7.39290e-02 -9.90820e-02 -5.62970e-02 -4.91190e-02 -1.14600e-03
 -2.65000e-03 -2.19900e-03 -2.11100e-03 -2.12900e-03 -1.21600e-03
 -1.87700e-03 -1.46100e-03 -1.90300e-03 -1.43000e-03 -1.61200e-03
 -2.06100e-03 -3.75000e-04  2.25500e-03  3.32300e-03  2.13910e-02
  4.04520e-02  9.06480e-02  9.31040e-02  7.30100e-02  9.72600e-02
  2.93094e-01  2.15190e-01  1.05520e-01  1.70127e-01  3.61250e-02
 -1.33600e-03 -1.78770e-02 -1.50400e-03 -1.87100e-03 -1.53500e-03
 -2.50800e-03 -1.77400e-03 -1.34300e-03 -1.46700e-03 -1.76000e-03
 -9.93000e-04 -1.57900e-03 -1.72200e-03 -1.63300e-03 -3.03000e-04
  2.47800e-03  4.14300e-03  4.34540e-02  2.19600e-02  2.15700e-03
 -8.38300e-03 -8.16500e-03 -3.30650e-02 -1.70250e-02 -1.12080e-02
  4.86670e-02  8.07670e-02  4.97340e-02  1.32390e-02 -1.80000e-03
 -1.93700e-03 -2.09000e-03 -1.04900e-03 -1.20200e-03 -1.31200e-03
 -1.58100e-03 -1.54000e-03 -1.76800e-03 -1.57100e-03 -1.55400e-03
 -1.19900e-03 -1.69200e-03 -1.83600e-03  6.60000e-05  1.22800e-03
  5.50280e-02  1.72300e-03 -4.91850e-02 -6.78400e-03 -4.52480e-02
 -8.61820e-02 -1.66876e-01 -6.15200e-03 -5.90670e-02  2.74000e-02
  4.62920e-02  3.51960e-02 -1.58800e-03 -9.60000e-05 -4.81000e-04
 -4.48000e-04 -4.71000e-04 -1.29900e-03 -1.75000e-03 -1.50400e-03
 -1.77500e-03 -8.14000e-04 -7.25000e-04 -1.64900e-03 -1.09300e-03
 -2.25900e-03 -1.79600e-03  1.36700e-03 -1.08460e-02 -1.36190e-02
 -1.92200e-02  1.25745e-01  6.24250e-02 -3.99580e-02 -7.97440e-02
 -9.84600e-03 -1.58874e-01 -2.99000e-04  1.75650e-02  8.24500e-03
  1.09500e-03 -2.40000e-04 -6.72000e-04 -1.23100e-03 -4.22000e-04
 -7.34000e-04 -1.54700e-03 -1.74300e-03 -2.10000e-03 -1.24300e-03
 -1.26600e-03 -1.38200e-03 -2.14500e-03 -2.21600e-03 -2.24000e-04
 -4.91000e-03 -6.18400e-02 -8.99040e-02  3.27920e-02  1.72471e-01
  4.65260e-02  2.39590e-02 -8.27690e-02 -6.44890e-02 -7.41350e-02
 -2.27300e-03  1.65100e-03  5.28700e-03  8.35000e-04  2.03000e-04
 -6.91000e-04 -9.49000e-04 -1.38800e-03 -1.35500e-03 -1.79600e-03
 -1.55500e-03 -1.84300e-03 -1.58200e-03 -1.50500e-03 -1.70700e-03
 -1.43600e-03 -1.06700e-03  4.00000e-06 -1.17000e-03 -1.94680e-02
 -1.59814e-01 -4.57300e-02 -5.69520e-02 -1.15849e-01  2.31630e-02
  5.29400e-03 -4.16910e-02 -4.75900e-02 -1.19040e-02  1.04800e-03
  3.96500e-03  2.41000e-03  1.35800e-03 -5.00000e-06 -6.59000e-04
 -5.94000e-04 -1.07900e-03 -9.76000e-04 -1.47400e-03 -1.49400e-03
 -1.11900e-03 -1.50400e-03 -1.73000e-03 -1.31600e-03 -8.98000e-04
 -1.49800e-03 -4.46600e-03 -1.12060e-02 -5.38800e-02 -9.46690e-02
 -1.39989e-01 -6.41460e-02  1.93130e-02  4.80380e-02  7.23600e-03
 -6.39300e-03 -2.00800e-02 -3.19500e-03  1.33700e-03  2.44400e-03
  3.03500e-03  1.11300e-03  8.70000e-05 -1.11100e-03 -1.60700e-03
 -1.95600e-03 -1.41900e-03 -1.63100e-03 -1.33500e-03 -1.43100e-03
 -1.60200e-03 -3.72000e-04 -1.46800e-03 -1.29800e-03 -1.63000e-04
  4.14730e-02  5.53890e-02  6.42410e-02  2.93000e-03  4.40250e-02
  2.54080e-02  9.98800e-03 -5.21700e-03 -5.63300e-03 -1.92050e-02
 -3.87000e-04  1.53000e-03  1.62000e-03  2.51000e-04 -6.00000e-05
 -1.65000e-04 -1.16400e-03 -9.94000e-04 -1.15600e-03 -1.53100e-03
 -1.42700e-03 -1.70700e-03 -1.51100e-03 -1.89300e-03 -7.48000e-04
 -1.37400e-03 -3.71000e-04 -1.40700e-03  3.37550e-02  9.03690e-02
  8.61130e-02  4.24730e-02  2.65700e-03 -4.25910e-02 -9.16640e-02
 -4.55120e-02 -2.30160e-02 -1.10870e-02  1.71930e-02  5.03500e-03
  1.90700e-03  1.19100e-03 -5.91000e-04 -1.50600e-03 -6.75000e-04
 -9.68000e-04 -1.51500e-03 -1.48700e-03 -1.24000e-03 -1.47600e-03
 -1.57700e-03 -1.38600e-03 -9.67000e-04 -8.46000e-04 -6.90000e-04
  2.20000e-04 -7.58000e-03 -4.40000e-04 -2.33090e-02 -1.66200e-02
 -3.14010e-02 -3.56150e-02 -3.67420e-02 -4.68800e-03 -3.13900e-03
  6.01000e-04  3.80300e-03  1.64700e-03  1.02300e-03  3.56000e-04
 -5.25000e-04 -3.90000e-04 -4.22000e-04 -1.13100e-03 -1.72900e-03
 -1.63600e-03 -1.20200e-03 -1.71600e-03 -1.85400e-03 -1.76300e-03
 -1.68400e-03 -1.57100e-03 -2.01900e-03 -1.46900e-03 -2.25500e-03
 -2.72430e-02 -7.68000e-04 -8.12100e-03 -1.11100e-02 -7.63900e-03
 -6.44300e-03 -1.44000e-03  4.00700e-03  5.02300e-03  2.49300e-03
  1.06300e-03 -1.10300e-03  2.80000e-05 -1.00000e-04 -5.89000e-04
 -1.14900e-03 -1.54200e-03 -1.57500e-03 -1.69300e-03 -1.70700e-03
 -1.40400e-03 -1.57600e-03 -1.65500e-03 -9.65000e-04 -1.91400e-03
 -9.67000e-04 -9.61000e-04 -5.91000e-04  1.97770e-02  1.03684e-01
  2.06054e-01  2.32394e-01  1.91064e-01  1.19588e-01  6.09540e-02
  1.03100e-03  1.27100e-03  3.16000e-04 -1.28700e-03 -1.07900e-03
 -6.73000e-04 -1.42800e-03 -1.51800e-03 -1.63800e-03 -1.59400e-03
 -1.30800e-03 -1.27100e-03 -1.39000e-03 -1.73200e-03 -1.78300e-03
 -1.45200e-03 -1.35500e-03 -9.50000e-04 -5.18000e-04  2.74000e-04
  7.09000e-04  5.80000e-05  2.08800e-03  1.83900e-03  1.20800e-03
  1.40500e-03 -3.53000e-04 -1.05200e-03 -5.51000e-04 -1.04600e-03
 -1.28700e-03 -1.09600e-03 -4.52000e-04 -6.79000e-04 -1.58300e-03
 -1.75500e-03 -1.10700e-03 -1.54700e-03 -1.51100e-03 -1.69100e-03
 -1.61600e-03 -1.66000e-03 -6.79000e-04 -1.78800e-03 -1.90100e-03
 -1.50300e-03 -9.26000e-04 -6.90000e-05 -8.44000e-04 -7.67000e-04
 -2.98000e-04 -1.19200e-03 -8.56000e-04 -1.45100e-03 -2.62000e-03
 -2.00300e-03 -7.40000e-04 -1.53500e-03 -1.35500e-03 -9.40000e-04
 -1.38300e-03 -1.62500e-03 -1.19500e-03 -1.50100e-03 -1.19900e-03
 -1.42500e-03 -1.14200e-03 -1.36900e-03 -1.59000e-03 -1.26700e-03
 -1.38000e-03 -1.59500e-03 -5.01000e-04 -1.17200e-03 -1.55400e-03
 -1.76500e-03 -1.17600e-03 -1.58900e-03 -1.33300e-03 -1.48700e-03
 -1.21100e-03 -1.89200e-03 -1.81500e-03 -2.63800e-03 -1.69100e-03
 -1.77300e-03 -1.39900e-03 -1.76500e-03 -2.37100e-03 -1.38300e-03
 -1.57500e-03 -9.27000e-04 -1.15700e-03 -1.82600e-03 -1.86700e-03
 -1.47900e-03 -1.58700e-03 -1.40100e-03 -1.49400e-03 -1.69300e-03
 -1.60000e-03 -1.20900e-03 -2.08300e-03 -1.55700e-03 -1.51200e-03
 -1.07900e-03 -1.26100e-03 -1.44600e-03 -1.83400e-03 -1.62700e-03
 -1.47900e-03 -2.37700e-03 -1.24900e-03 -2.08900e-03 -1.44000e-03
 -1.09400e-03 -1.40000e-03 -1.96900e-03 -1.48900e-03 -1.50400e-03
 -1.29300e-03 -1.58300e-03 -1.39200e-03 -1.82600e-03]
            b = 0.111871
            U = -2.929431, L = -3.857618

         Neuron : 7
            W = [-9.29670e-02 -6.07710e-02 -1.51526e-01 -6.09800e-03  3.57300e-03
 -9.67440e-02 -9.40910e-02 -4.57560e-02 -1.41410e-01 -8.92080e-02
 -8.46130e-02 -6.92790e-02 -1.98740e-02 -3.71090e-02 -4.84650e-02
 -7.09800e-03 -5.48670e-02 -2.44040e-02 -1.56000e-02 -1.91060e-02
 -3.85970e-02 -5.14560e-02  2.62200e-03 -6.90440e-02 -1.18770e-02
 -4.96840e-02 -1.46600e-02 -4.76550e-02 -7.40270e-02 -2.96470e-02
 -1.90040e-02 -4.49150e-02 -1.53150e-02 -2.03840e-02 -1.43300e-01
  4.49700e-03 -8.21730e-02 -9.75320e-02 -6.05240e-02 -3.31700e-02
 -2.07230e-02 -3.27760e-02 -8.97810e-02  5.54900e-03 -1.39029e-01
 -1.78088e-01 -1.79850e-02  3.09000e-03 -1.31528e-01 -4.94010e-02
 -6.99470e-02  2.66500e-03 -6.12120e-02 -8.77600e-02 -2.03200e-03
 -7.69910e-02 -4.80520e-02 -6.79970e-02 -5.84870e-02 -2.54110e-02
 -5.37520e-02 -6.35020e-02 -7.41180e-02 -3.51510e-02 -2.05980e-02
 -7.86340e-02 -1.46395e-01 -2.50140e-02 -5.66840e-02 -2.55930e-02
 -6.86710e-02 -3.11380e-02 -1.29978e-01 -3.13570e-02 -1.78200e-02
 -3.44680e-02 -2.68350e-02 -1.03692e-01 -7.46400e-03 -4.85390e-02
 -1.64540e-02 -4.04270e-02 -5.36970e-02 -1.25800e-01 -1.62877e-01
 -1.69560e-02 -5.01240e-02 -3.62770e-02 -2.09150e-02 -9.82700e-03
 -9.57270e-02 -3.34670e-02 -3.19910e-02 -8.18600e-02 -1.65587e-01
 -8.33700e-03 -7.19080e-02 -3.88730e-02 -2.90280e-02 -3.64750e-02
 -1.12705e-01 -8.51320e-02  6.48700e-03 -7.85430e-02 -1.03350e-01
 -9.73750e-02 -3.40640e-02 -5.10070e-02 -2.37940e-02 -1.03148e-01
 -1.04786e-01 -2.87650e-02 -8.05410e-02 -7.64730e-02 -1.03512e-01
 -3.64600e-03 -5.36240e-02 -1.36300e-02 -1.17750e-02 -7.38210e-02
 -6.24650e-02 -4.32000e-02 -1.11940e-02 -7.50890e-02 -2.35095e-01
 -8.58770e-02  9.63000e-03 -1.28732e-01 -1.92319e-01 -3.37147e-01
 -3.47732e-01 -2.22023e-01 -8.57390e-02 -1.19069e-01 -7.58920e-02
 -1.17684e-01 -4.29190e-02 -7.93190e-02 -1.09161e-01 -4.52130e-02
 -1.21386e-01 -3.20960e-02 -3.63090e-02 -9.43450e-02 -1.00958e-01
 -5.89110e-02 -8.80820e-02 -2.01804e-01 -2.24829e-01 -1.51595e-01
 -4.29500e-02 -4.14490e-02 -1.58984e-01 -3.24845e-01 -3.53539e-01
 -4.09076e-01 -3.88939e-01 -5.14775e-01 -5.09309e-01 -4.64985e-01
 -1.17619e-01 -1.61139e-01 -1.76133e-01 -1.09333e-01 -9.67650e-02
 -1.31632e-01 -4.23860e-02 -1.01087e-01 -4.10770e-02 -8.98980e-02
 -1.59580e-02 -1.46725e-01 -6.46600e-03 -6.06570e-02 -1.25883e-01
 -4.01380e-02 -7.83270e-02 -9.81170e-02 -1.51722e-01 -4.56403e-01
 -3.38903e-01 -1.31759e-01  4.34160e-02 -2.40640e-02 -2.30000e-04
 -5.88470e-02 -1.85140e-02 -7.91150e-02 -7.49150e-02 -2.47040e-02
 -1.99190e-01 -2.80240e-01 -2.49376e-01 -1.26164e-01 -2.22370e-02
 -5.12480e-02 -5.21760e-02 -3.96660e-02 -1.00739e-01 -6.46720e-02
 -1.13740e-02 -1.05480e-02  2.09500e-03  3.02400e-03 -2.50900e-02
 -2.66930e-02 -6.23000e-02 -1.41002e-01 -8.55430e-02 -3.00180e-02
 -5.21600e-02 -4.68330e-02  6.56420e-02  1.46183e-01  5.71170e-02
  1.17250e-02 -6.43300e-03 -5.25500e-03 -3.11460e-01 -3.68752e-01
 -5.13100e-03 -1.11210e-02 -1.00649e-01 -5.42470e-02 -2.06310e-02
 -3.80810e-02 -3.06440e-02 -3.01150e-02 -5.56600e-03 -3.09400e-02
 -5.47040e-02 -8.52500e-03  5.23900e-03  1.93370e-02 -3.25500e-02
 -3.41870e-02  2.62430e-02  7.69710e-02 -4.52670e-02  4.48950e-02
  1.22562e-01  2.39831e-01  1.20156e-01  3.30950e-02  4.19490e-02
  1.06100e-02 -5.12940e-02 -1.34810e-01 -7.86500e-02 -1.01077e-01
 -6.87800e-02 -1.44260e-02 -5.76980e-02 -4.90720e-02 -6.97500e-03
 -2.96820e-02 -2.81310e-02  3.55500e-03 -1.22150e-02 -2.55600e-02
  9.24800e-03  4.97400e-02  6.78840e-02  7.20580e-02  5.02910e-02
  1.62500e-02  7.10600e-03  9.04360e-02  4.89120e-02  7.08560e-02
  1.08604e-01  1.01428e-01 -1.30700e-03 -3.54220e-02 -3.68320e-02
 -6.99230e-02 -1.43483e-01 -2.12000e-01 -5.35300e-02 -7.65600e-03
 -1.67517e-01 -1.31797e-01 -9.22280e-02 -9.80300e-03  5.65700e-03
  5.81500e-03  9.03500e-03 -9.82000e-03 -2.68700e-03  8.82660e-02
  5.93820e-02  1.14912e-01  2.97910e-02  3.32600e-03  1.16940e-02
  1.81141e-01  1.01823e-01 -2.38470e-02  7.66550e-02  4.15310e-02
  3.64310e-02 -3.57880e-02 -3.04670e-02 -7.87000e-03 -4.38890e-02
 -1.85150e-02 -2.53750e-02 -2.89470e-02 -6.81780e-02 -8.16720e-02
 -7.52660e-02 -3.13430e-02 -1.60360e-02 -6.52930e-02 -8.32310e-02
 -1.31990e-02  2.54060e-02  1.22767e-01  1.41300e-03  5.33930e-02
 -4.75360e-02 -9.20910e-02  8.71930e-02  1.28286e-01 -1.14720e-02
  2.35310e-02  9.92800e-02  5.02400e-03  4.56200e-03 -1.58970e-02
 -5.18420e-02 -5.96940e-02 -1.04763e-01 -2.24410e-02 -1.61940e-02
 -1.11790e-01 -5.78700e-02 -2.00890e-02 -5.57510e-02 -1.88760e-02
 -4.23900e-03 -1.61035e-01 -1.39965e-01 -6.32900e-03  4.49310e-02
  3.93900e-02 -6.39420e-02 -8.53500e-02 -2.15136e-01 -2.66671e-01
 -5.27800e-02  9.52220e-02  3.40100e-02  3.15740e-02  2.82370e-02
  2.11500e-03 -1.87650e-02 -2.27600e-02 -9.80220e-02 -5.81850e-02
 -3.47900e-02 -1.87050e-02 -1.95450e-02 -1.19353e-01 -3.70780e-02
 -1.21709e-01 -8.62450e-02 -1.63370e-02 -3.42450e-02 -6.29340e-02
 -2.79500e-02 -2.57570e-02 -1.61710e-02 -6.49460e-02 -1.01404e-01
 -1.61163e-01 -9.19860e-02 -1.04957e-01  1.54026e-01  2.55182e-01
  1.06359e-01  5.61030e-02  3.22780e-02  2.50560e-02  8.98600e-03
  7.66000e-04 -8.87900e-02 -4.24560e-02 -9.23200e-03 -3.90490e-02
 -9.80360e-02 -2.00245e-01 -7.58220e-02  1.28000e-04 -5.95440e-02
 -5.55810e-02 -3.92400e-03 -9.34380e-02 -2.06550e-02 -9.90420e-02
 -1.58030e-01 -9.67420e-02 -5.90220e-02  2.49420e-02 -9.38660e-02
  2.81430e-02  2.59022e-01  1.20206e-01  7.00460e-02  1.17711e-01
  6.76140e-02  3.47950e-02 -2.02300e-03 -2.21720e-02 -9.57480e-02
 -3.08780e-02 -4.42590e-02 -3.53190e-02 -3.83250e-02 -1.71110e-02
 -1.40160e-02 -1.80410e-02 -9.16800e-02 -4.75720e-02  5.07000e-04
 -2.17963e-01 -1.39306e-01 -1.96997e-01 -1.31152e-01 -9.53060e-02
  1.36100e-02  9.62830e-02  1.26065e-01  4.72300e-03  1.14917e-01
  7.83500e-02  5.93580e-02  9.31560e-02  1.56270e-02 -3.76400e-03
 -3.08920e-02  5.66400e-03 -1.01010e-01 -5.35900e-03 -4.86800e-03
 -1.49440e-02 -3.19880e-02 -9.04120e-02 -2.66240e-02 -2.22910e-02
 -6.14980e-02 -7.76450e-02 -5.82010e-02 -2.26233e-01 -2.44294e-01
 -1.56378e-01 -1.72840e-01 -1.22502e-01  1.74270e-02  9.11170e-02
  6.45510e-02 -3.30690e-02  4.52750e-02  7.96390e-02  1.19167e-01
 -3.65000e-03 -3.55000e-04 -5.26680e-02 -2.59321e-01 -1.84054e-01
 -1.29053e-01 -8.56920e-02 -2.08842e-01 -7.06100e-03 -3.48300e-02
 -7.97700e-02 -1.38202e-01 -9.64370e-02 -7.11760e-02 -3.24940e-02
 -6.97150e-02 -3.53800e-02 -2.96932e-01 -2.59197e-01 -1.94790e-01
 -1.47189e-01 -9.06670e-02 -2.33150e-02 -5.31730e-02 -1.30710e-02
  5.10180e-02  1.53602e-01  5.15640e-02 -3.51380e-02 -2.81650e-02
 -9.64830e-02 -3.13985e-01 -2.90110e-01 -1.04337e-01 -2.47350e-02
 -7.90900e-03 -1.34820e-02 -8.45980e-02 -2.12790e-02 -3.85780e-02
 -1.43085e-01 -3.57850e-02  1.29500e-03 -4.06050e-02 -4.15120e-02
 -3.11950e-01 -2.43238e-01 -1.97199e-01 -2.15315e-01 -5.02470e-02
  1.14600e-02  6.44840e-02  2.39660e-02  8.31200e-02  1.24827e-01
 -4.57500e-03 -7.77790e-02 -1.09068e-01 -1.20669e-01 -1.38545e-01
 -1.88966e-01 -8.26490e-02 -2.52500e-02 -3.01200e-03 -4.85400e-02
 -8.93480e-02 -4.81000e-02 -9.59600e-03 -6.34600e-02 -6.64490e-02
 -1.99220e-02 -5.53770e-02 -1.08195e-01 -1.88549e-01 -2.66406e-01
 -4.41808e-01 -1.88914e-01 -9.97210e-02 -3.31570e-02  1.32180e-02
 -2.86450e-02  6.50650e-02 -2.20500e-03 -7.31890e-02 -1.33246e-01
 -1.72419e-01 -1.80520e-01 -1.76683e-01 -1.48354e-01 -1.33983e-01
 -1.76650e-01 -1.44252e-01 -1.76080e-02 -5.16220e-02 -4.34100e-03
 -9.84580e-02 -8.45100e-03 -1.11320e-02 -7.50240e-02 -5.00160e-02
 -1.03882e-01 -8.31250e-02 -2.13402e-01 -2.10286e-01 -1.91358e-01
 -1.15790e-01 -4.06200e-02 -5.63950e-02 -3.10370e-02  2.23700e-03
  2.11230e-02 -3.90420e-02 -1.75338e-01 -3.81599e-01 -3.43533e-01
 -2.67000e-01 -2.83181e-01 -1.62991e-01 -2.09932e-01 -1.64530e-02
 -2.42250e-02 -6.70540e-02  3.44000e-03 -1.01677e-01 -2.04188e-01
 -8.15870e-02 -1.27546e-01 -3.54180e-02 -1.00986e-01 -6.90910e-02
 -6.80000e-02 -4.83960e-02  4.53700e-03 -4.09390e-02 -7.80730e-02
 -4.54600e-02 -1.87830e-02  2.03050e-02 -8.54000e-03 -1.82450e-02
 -6.33450e-02 -5.02374e-01 -2.31667e-01 -1.07261e-01 -2.24847e-01
 -4.07910e-02 -5.98990e-02 -3.65340e-02 -7.91130e-02 -4.94710e-02
 -8.25680e-02 -2.74270e-02 -4.92150e-02 -1.73110e-02 -7.85540e-02
 -9.90100e-03 -5.91270e-02 -1.70820e-02 -1.77400e-03  1.49100e-02
 -3.83980e-02 -9.15320e-02 -9.85750e-02 -8.11730e-02 -2.91550e-02
 -2.25330e-02  2.12200e-03 -1.42530e-02 -5.56660e-02 -3.60087e-01
 -1.84733e-01 -1.61674e-01 -1.32076e-01 -1.07136e-01 -4.77330e-02
 -3.50750e-02 -8.33430e-02 -3.68840e-02 -3.45560e-02 -9.65030e-02
 -9.86220e-02 -2.70000e-02 -3.35030e-02  2.26500e-03 -2.41150e-02
 -1.60200e-03  6.55900e-03  1.05620e-02 -1.10236e-01 -1.83977e-01
 -2.39627e-01 -1.16154e-01 -7.93590e-02 -8.59940e-02 -3.13470e-02
 -1.39560e-02 -5.64410e-02 -1.12211e-01 -1.74224e-01 -1.00265e-01
 -1.38850e-02 -2.99340e-02 -8.59700e-03 -1.84056e-01 -2.16130e-02
 -1.53657e-01 -2.10920e-02 -2.32000e-03 -9.00970e-02 -2.46950e-02
 -8.96890e-02 -6.54020e-02 -3.76230e-02  8.56500e-03  8.55000e-03
 -1.69430e-02 -3.07210e-02 -3.64970e-02 -3.69440e-02 -7.04000e-04
  1.59660e-02  1.76490e-02  9.13000e-04 -2.34240e-02 -8.47800e-03
 -2.62640e-02 -5.02130e-02 -6.36860e-02 -7.32810e-02 -7.50010e-02
 -5.07190e-02 -2.59130e-02 -2.95470e-02  1.24400e-03  1.22110e-02
 -5.75540e-02 -9.31930e-02 -6.83600e-03 -5.23440e-02 -1.12159e-01
  1.51400e-03  8.82100e-03  9.05300e-03 -1.21680e-02 -6.99000e-03
 -2.75370e-02 -5.58000e-04  1.34300e-02  2.51270e-02  2.85190e-02
  2.63400e-03 -1.43150e-02 -1.01110e-02 -4.34000e-03 -1.22250e-01
 -1.91450e-02 -9.74440e-02 -6.97460e-02 -4.88460e-02 -6.75160e-02
 -6.98540e-02 -1.45640e-02 -1.22840e-01 -2.91560e-02 -7.23890e-02
 -2.03260e-02 -7.80760e-02 -2.49580e-02 -3.83740e-02 -1.30260e-02
 -1.08350e-02 -6.44100e-03  9.11300e-03  3.50000e-05 -1.47470e-02
 -4.78100e-03  2.53000e-03 -5.09700e-03  8.05400e-03 -4.63700e-03
 -1.13710e-02 -3.72520e-02 -1.17010e-02 -6.94610e-02 -7.45000e-02
 -2.52890e-02 -1.58850e-02 -1.06584e-01  5.58100e-03 -3.34690e-02
 -2.26470e-02 -1.15622e-01 -4.99170e-02  3.83000e-03 -1.06960e-02
 -2.73090e-02 -3.83670e-02 -5.86740e-02 -1.76463e-01 -7.47000e-02
 -1.76480e-02 -2.34680e-02 -1.82120e-02 -3.57790e-02 -1.26260e-02
 -3.42570e-02  2.67100e-03 -1.83400e-03 -3.47120e-02 -9.54600e-02
 -1.10370e-02 -8.07750e-02 -1.32726e-01 -1.42970e-01 -7.51210e-02
 -6.45610e-02 -3.94500e-02 -1.44090e-02 -1.25390e-02]
            b = 0.08789
            U = 3.402936, L = 0.396536

         Neuron : 8
            W = [ 1.700000e-04  2.200000e-05  7.910000e-04  7.770000e-04  9.240000e-04
  9.140000e-04  6.230000e-04  6.750000e-04  4.280000e-04  9.150000e-04
  2.600000e-04  4.960000e-04  1.760000e-04  2.540000e-04  4.970000e-04
  3.530000e-04  7.290000e-04  3.580000e-04  4.360000e-04  4.430000e-04
  2.420000e-04  2.820000e-04  2.010000e-04  6.080000e-04  8.230000e-04
  4.740000e-04  2.890000e-04  8.020000e-04  6.090000e-04  3.660000e-04
  7.600000e-05  3.610000e-04  9.700000e-05  9.140000e-04  5.970000e-04
  8.400000e-04  4.910000e-04  6.250000e-04  2.480000e-04  9.880000e-04
  1.830000e-04  7.590000e-04  1.950000e-04  4.410000e-04  2.610000e-04
  2.030000e-04  4.410000e-04  4.560000e-04  6.540000e-04  8.650000e-04
  9.010000e-04  2.930000e-04  7.070000e-04  2.630000e-04  1.890000e-04
  5.040000e-04  9.510000e-04  3.960000e-04  5.280000e-04  4.910000e-04
  2.930000e-04  4.100000e-04  2.560000e-04  1.186000e-03  3.410000e-04
  7.920000e-04  3.280000e-04  4.600000e-04  6.480000e-04  1.390000e-04
  2.660000e-04  7.330000e-04  9.880000e-04  1.113000e-03  1.410000e-04
 -6.300000e-05  5.380000e-04  4.570000e-04  9.350000e-04  4.430000e-04
  3.630000e-04  7.460000e-04  9.440000e-04  8.450000e-04  2.820000e-04
  6.920000e-04  8.380000e-04  6.290000e-04  4.180000e-04  6.020000e-04
  2.060000e-04  1.073000e-03  4.120000e-04  7.100000e-05  5.370000e-04
  3.600000e-04  5.170000e-04 -6.470000e-04 -1.088000e-03 -1.430000e-04
 -4.310000e-04 -1.090000e-03 -1.319000e-03 -8.270000e-04 -6.300000e-04
 -2.410000e-04  9.160000e-04 -3.600000e-05  6.900000e-05  7.870000e-04
  3.630000e-04  4.900000e-04  8.860000e-04  8.690000e-04  4.530000e-04
  7.170000e-04  3.170000e-04  6.930000e-04  1.680000e-04  7.590000e-04
  4.000000e-05  7.840000e-04  2.310000e-04 -3.240000e-04 -1.251000e-03
 -4.110000e-04  7.510000e-04  6.980000e-04 -1.962000e-03 -1.653000e-03
 -2.318000e-03 -1.990000e-03 -1.570000e-03 -5.020000e-04 -2.610000e-04
 -1.480000e-04 -3.510000e-04  3.310000e-04  2.190000e-04  5.690000e-04
  9.670000e-04  4.160000e-04  2.860000e-04  4.120000e-04  2.750000e-04
  8.880000e-04 -2.880000e-04  8.990000e-04  4.530000e-04 -1.500000e-05
 -3.277000e-03 -1.784000e-03 -2.032000e-03 -2.067300e-02 -3.053800e-02
 -6.194400e-02 -1.722000e-03  1.554900e-02  8.906000e-03  1.510000e-03
 -7.730000e-04 -8.660000e-04 -8.640000e-04 -5.090000e-04  5.150000e-04
  2.480000e-04  6.200000e-04  3.670000e-04  7.590000e-04  5.820000e-04
  1.060000e-04  3.560000e-04  3.770000e-04 -5.000000e-05  4.000000e-06
  9.330000e-04 -5.750000e-04 -2.564000e-03 -7.572000e-03 -3.552000e-03
 -4.807000e-03 -5.166200e-02 -5.320400e-02 -2.563900e-02  6.018000e-03
  3.715200e-02  2.403700e-02  2.559000e-02  5.180000e-04 -2.259000e-03
 -1.689000e-03 -3.580000e-04  3.380000e-04  2.420000e-04  5.670000e-04
  5.690000e-04  6.650000e-04  8.410000e-04  3.390000e-04  3.470000e-04
  3.000000e-04 -3.600000e-05  5.140000e-04  1.269000e-03 -1.961000e-03
 -6.537000e-03 -8.080000e-04 -3.433000e-03 -1.657800e-02 -2.917600e-02
 -3.789300e-02 -1.941500e-02  3.000000e-05 -7.579000e-03 -3.299000e-03
 -1.494800e-02  1.576000e-03  7.090000e-04  2.180000e-04  1.022000e-03
  8.800000e-04  7.000000e-04  6.000000e-04  5.800000e-04  2.600000e-04
 -4.140000e-04  3.310000e-04  4.240000e-04  1.024000e-03  2.530000e-04
  5.120000e-04 -1.174000e-03 -2.831000e-03 -2.450000e-03  3.754000e-03
 -3.910500e-02 -4.020000e-02 -1.991000e-02 -5.200000e-04  3.399000e-02
  3.872000e-03  1.850900e-02 -4.834000e-02 -5.195400e-02 -5.695000e-03
  5.830000e-04  8.650000e-04  1.690000e-04  1.559000e-03  5.580000e-04
  6.740000e-04  2.170000e-04  1.110000e-03  1.110000e-04  9.740000e-04
  1.040000e-04  6.300000e-04 -6.800000e-04  3.060000e-04 -8.750000e-04
 -1.725000e-03 -3.734000e-03 -1.251400e-02 -4.874300e-02 -2.777200e-02
  1.078700e-02  2.589000e-02 -2.216000e-02 -2.296300e-02  9.069000e-03
 -9.279200e-02 -9.677400e-02 -1.398600e-02  7.930000e-04  3.111000e-03
  1.083000e-03  2.910000e-04  2.400000e-05  5.300000e-04  4.870000e-04
  7.270000e-04  6.830000e-04  5.650000e-04  1.810000e-04  6.540000e-04
  8.430000e-04  1.181000e-03 -1.397000e-03  5.980000e-04  5.040000e-04
 -2.624200e-02 -6.528800e-02 -2.918700e-02  4.111100e-02  5.910100e-02
 -2.964500e-02 -4.076000e-03 -2.483500e-02 -7.725900e-02  2.487000e-03
  4.554700e-02  1.166660e-01  2.483000e-03  2.190000e-04  6.050000e-04
  1.238000e-03  5.550000e-04  3.820000e-04  1.023000e-03  4.290000e-04
  2.430000e-04  4.050000e-04  6.850000e-04  8.010000e-04  9.560000e-04
  1.630000e-04  4.800000e-04  5.571100e-02 -4.152600e-02 -2.919400e-02
  2.137300e-02  6.599200e-02  3.526900e-02 -1.602000e-03  1.206300e-02
  7.255000e-03  7.993600e-02  8.749100e-02  1.187050e-01  8.610000e-04
  4.630000e-04  3.190000e-04  8.210000e-04  9.250000e-04  3.910000e-04
  3.650000e-04  7.300000e-05  1.079000e-03  5.040000e-04  6.350000e-04
  4.040000e-04  8.900000e-05  1.509000e-03 -4.870000e-04  1.818000e-03
  1.921000e-02  3.000000e-06  1.628900e-02  2.079000e-02  5.066700e-02
 -1.294200e-02  6.477000e-03  4.416500e-02  1.472160e-01  2.608000e-02
  1.455600e-02 -7.403000e-03 -4.950000e-04  6.040000e-04  3.930000e-04
  5.480000e-04  9.720000e-04  5.640000e-04  7.920000e-04  7.530000e-04
  5.650000e-04  4.450000e-04  8.690000e-04  6.930000e-04  2.840000e-04
 -1.910000e-04  5.240000e-04  4.710000e-03 -2.824700e-02 -4.263600e-02
  4.010300e-02  7.974000e-02 -3.470000e-04 -1.236900e-01  9.569800e-02
  1.160190e-01  6.028500e-02 -1.949000e-03 -5.627400e-02 -6.344000e-03
 -1.799000e-03  7.180000e-04  9.800000e-04  4.350000e-04  1.038000e-03
  3.820000e-04  4.470000e-04  4.490000e-04  5.090000e-04  7.770000e-04
  8.020000e-04  2.000000e-05  4.370000e-04 -2.370000e-04 -1.856000e-03
 -8.393400e-02 -1.215900e-01 -1.123120e-01  7.443300e-02  9.327700e-02
  1.689300e-02  4.295200e-02  8.000000e-06  4.359200e-02 -5.671000e-03
 -6.567800e-02 -6.848500e-02 -5.813000e-03 -1.530000e-04  4.000000e-04
  9.700000e-05 -6.100000e-04  6.540000e-04  8.500000e-04  3.050000e-04
  5.780000e-04  5.570000e-04  3.920000e-04  2.480000e-04  2.690000e-04
 -2.760000e-04 -1.348000e-03 -1.104800e-02 -1.861440e-01 -9.089600e-02
  1.058610e-01  2.722080e-01  1.027500e-01  1.151100e-02 -1.009000e-03
  4.890000e-04 -3.546100e-02 -1.148990e-01 -9.667600e-02 -1.371000e-02
 -6.436000e-03 -7.980000e-04  2.420000e-04  1.000000e-04 -4.390000e-04
  3.660000e-04  1.040000e-03  5.900000e-04  4.170000e-04  6.290000e-04
  3.820000e-04  9.300000e-04 -4.450000e-04 -7.970000e-04 -7.687000e-03
 -2.320700e-02  6.119000e-02  3.549310e-01  4.452030e-01  6.358000e-03
 -7.493500e-02 -7.336900e-02 -9.008800e-02 -7.064000e-03 -2.405200e-02
 -6.007600e-02 -1.090100e-02 -1.722000e-02 -3.626000e-03 -1.154000e-03
  3.150000e-04  2.190000e-04  2.570000e-04  3.910000e-04  7.970000e-04
  1.420000e-04  4.260000e-04  3.430000e-04  6.560000e-04  1.047000e-03
 -1.420000e-04 -3.370000e-03 -7.436000e-03  2.052500e-02  4.618400e-01
  1.099282e+00 -1.004200e-02 -5.000140e-01 -2.191110e-01 -9.658800e-02
 -2.376700e-02 -2.209100e-02 -2.027400e-02 -7.420000e-03 -9.390000e-03
 -1.437900e-02 -4.533000e-03 -1.621000e-03 -8.510000e-04  3.810000e-04
  5.750000e-04 -6.700000e-05  5.640000e-04  9.720000e-04  1.800000e-05
  6.590000e-04  5.390000e-04  1.350000e-04 -1.335000e-03 -4.575000e-03
  7.056000e-03  3.376790e-01  6.885090e-01  3.231800e-02 -5.080280e-01
 -1.157450e-01  7.346500e-02  6.310000e-03 -1.805000e-03 -1.214000e-02
 -9.137000e-03 -9.794000e-03 -1.289600e-02 -4.932000e-03 -1.768000e-03
 -5.380000e-04 -2.182000e-03 -8.400000e-04  6.880000e-04  7.000000e-04
  1.820000e-04  5.960000e-04  7.790000e-04  1.600000e-05  6.370000e-04
  1.940000e-04 -2.324000e-03 -4.248000e-03  1.505300e-02  4.417580e-01
  1.727750e-01 -5.294830e-01 -3.940920e-01  9.913600e-02  1.037040e-01
 -6.115000e-03 -1.557300e-02 -7.599000e-03 -5.658000e-03 -4.061000e-03
 -3.159000e-03 -1.704000e-03 -4.790000e-04 -4.120000e-04 -2.012000e-03
 -2.130000e-04  8.710000e-04  5.330000e-04  3.550000e-04  8.520000e-04
  6.760000e-04  2.510000e-04 -6.500000e-05 -2.400000e-05 -1.812000e-03
 -2.147000e-03  1.559100e-02  2.384920e-01  6.776000e-02 -3.574230e-01
 -1.771940e-01  3.793200e-02  7.455000e-03 -6.402400e-02 -6.099200e-02
 -1.942500e-02 -7.042000e-03 -4.635000e-03  2.122000e-03 -8.370000e-04
 -1.146000e-03 -1.117000e-03 -1.019000e-03 -1.850000e-04  2.740000e-04
  5.490000e-04  4.510000e-04  9.380000e-04  6.730000e-04  4.160000e-04
  5.420000e-04 -5.990000e-04 -1.425000e-03 -1.545000e-03  2.757000e-03
  5.910700e-02  3.150600e-02 -7.133000e-03 -3.769100e-02 -8.403000e-03
 -1.318300e-02 -1.930700e-02 -1.941300e-02 -5.881000e-03 -3.668000e-03
 -8.700000e-04  7.640000e-04 -2.890000e-04 -1.371000e-03 -2.273000e-03
  1.560000e-04  9.130000e-04  9.950000e-04  1.350000e-04  8.300000e-05
  8.540000e-04  5.920000e-04  2.030000e-04  4.440000e-04  3.280000e-04
  5.970000e-04 -6.660000e-04 -3.870000e-04  8.211000e-03  3.442100e-02
  3.872300e-02  3.223700e-02  2.262600e-02 -1.994000e-03 -4.639000e-03
 -1.257500e-02 -4.047000e-03 -1.076000e-03 -1.398000e-03 -6.950000e-04
 -4.800000e-04 -7.400000e-05 -2.140000e-04  1.137000e-03  1.618000e-03
  9.190000e-04  1.196000e-03  3.440000e-04  7.100000e-04  1.127000e-03
  3.560000e-04  4.310000e-04  7.420000e-04  6.780000e-04 -9.650000e-04
 -9.100000e-04 -5.070000e-04  1.211000e-03  4.183500e-02  4.053200e-02
  3.299000e-03 -5.327800e-02 -2.289600e-02  1.150000e-02  5.460000e-04
 -3.669000e-03 -1.566000e-03 -1.240000e-03 -2.490000e-04  6.160000e-04
  4.370000e-04  7.940000e-04  3.140000e-04  1.289000e-03  5.600000e-04
  3.550000e-04  7.700000e-04  4.530000e-04  6.570000e-04  6.250000e-04
  5.660000e-04  1.770000e-04 -1.780000e-04 -8.960000e-04 -2.000000e-05
 -5.350000e-04  4.280000e-04  1.001000e-03  9.400000e-04  4.350000e-04
 -3.700000e-05 -1.074000e-03 -1.390000e-03 -3.023000e-03 -1.472000e-03
 -2.990000e-04  2.930000e-04  3.830000e-04  8.010000e-04  1.402000e-03
  5.390000e-04  4.420000e-04  3.520000e-04  5.780000e-04  5.550000e-04
  2.730000e-04  3.760000e-04  8.450000e-04  5.780000e-04  5.790000e-04
 -2.530000e-04 -1.420000e-04 -8.390000e-04  9.000000e-06 -1.335000e-03
 -1.300000e-04  3.540000e-04 -2.960000e-04  2.360000e-04 -7.070000e-04
 -9.880000e-04 -2.300000e-04  1.560000e-04 -1.480000e-04  9.900000e-05
  8.740000e-04  6.670000e-04  6.510000e-04  8.750000e-04  4.710000e-04
  2.410000e-04  5.520000e-04  6.680000e-04  6.800000e-04  3.850000e-04
  1.014000e-03  1.710000e-04  3.510000e-04  1.040000e-04  6.300000e-05
  2.840000e-04  1.950000e-04 -4.650000e-04  7.620000e-04  5.060000e-04
  7.040000e-04  6.400000e-04  3.700000e-05  9.200000e-05 -2.640000e-04
  1.980000e-04 -1.980000e-04  1.590000e-04  4.430000e-04  4.680000e-04
  6.030000e-04  9.980000e-04  7.310000e-04  4.590000e-04  5.660000e-04
  6.550000e-04  7.520000e-04  2.760000e-04  4.900000e-04  3.270000e-04
  4.010000e-04  7.790000e-04  7.050000e-04  2.960000e-04  6.070000e-04
  2.700000e-04  6.890000e-04  5.230000e-04  3.870000e-04  1.169000e-03
  1.002000e-03  1.850000e-04  1.740000e-04  9.520000e-04  1.260000e-04
  6.920000e-04  6.110000e-04 -1.170000e-04  7.350000e-04  5.330000e-04
  4.710000e-04  5.810000e-04  3.390000e-04  6.200000e-04]
            b = -0.60402
            U = 0.097718, L = -0.652424

         Neuron : 9
            W = [-2.840000e-04 -4.740000e-04 -4.350000e-04 -2.240000e-04 -6.020000e-04
 -5.410000e-04 -3.780000e-04 -3.990000e-04 -7.450000e-04 -1.146000e-03
 -3.040000e-04 -5.860000e-04 -6.290000e-04 -7.530000e-04 -5.790000e-04
 -6.420000e-04 -6.300000e-04 -5.170000e-04 -5.330000e-04 -6.900000e-04
 -4.220000e-04 -2.560000e-04 -6.270000e-04 -5.950000e-04 -3.160000e-04
 -4.490000e-04 -5.950000e-04 -7.400000e-04 -7.840000e-04 -7.150000e-04
 -4.290000e-04 -3.030000e-04 -9.560000e-04 -4.800000e-04 -4.120000e-04
 -9.800000e-04 -5.210000e-04 -4.560000e-04 -5.150000e-04 -9.110000e-04
 -3.680000e-04 -6.970000e-04 -4.870000e-04 -9.870000e-04 -4.360000e-04
 -5.780000e-04 -8.040000e-04 -7.860000e-04 -5.860000e-04 -4.350000e-04
 -5.310000e-04 -7.400000e-04 -6.660000e-04 -7.950000e-04 -1.184000e-03
 -6.870000e-04 -6.890000e-04 -5.230000e-04 -2.100000e-04 -7.360000e-04
 -8.650000e-04 -4.320000e-04 -3.290000e-04 -5.400000e-04 -8.980000e-04
 -6.920000e-04 -3.590000e-04 -6.110000e-04 -1.054000e-03 -9.320000e-04
 -6.150000e-04 -1.550000e-04 -7.670000e-04  1.920000e-04 -4.810000e-04
 -6.750000e-04 -5.070000e-04 -5.880000e-04 -6.350000e-04 -3.410000e-04
 -6.800000e-04 -3.910000e-04 -5.540000e-04 -4.460000e-04 -5.850000e-04
 -5.100000e-04 -5.660000e-04 -3.820000e-04 -4.210000e-04 -7.390000e-04
 -3.420000e-04 -6.840000e-04 -5.110000e-04 -4.950000e-04 -1.298000e-03
 -1.434000e-03 -1.053000e-03 -1.214000e-03 -9.330000e-04 -4.120000e-04
 -7.500000e-05  7.500000e-05  6.580000e-04  8.060000e-04 -1.820000e-04
 -4.880000e-04 -2.830000e-04 -5.720000e-04 -4.920000e-04 -9.210000e-04
 -6.770000e-04 -5.930000e-04 -3.860000e-04 -4.170000e-04 -4.430000e-04
 -6.970000e-04 -8.690000e-04 -2.250000e-04 -3.630000e-04 -6.260000e-04
 -8.970000e-04 -1.647000e-03 -1.442000e-03 -1.398000e-03 -2.280000e-04
  5.500000e-04 -6.400000e-04 -1.373000e-03 -1.446000e-03 -1.290000e-04
 -6.620000e-04 -4.410000e-04  2.270000e-04 -2.110000e-04 -6.000000e-06
  8.100000e-05 -2.500000e-04 -2.470000e-04 -8.200000e-04 -7.260000e-04
 -1.143000e-03 -8.800000e-04 -7.470000e-04 -3.420000e-04 -6.800000e-04
 -5.460000e-04 -4.900000e-04 -5.070000e-04 -3.360000e-04 -7.900000e-04
 -1.190000e-03 -1.900000e-04 -8.600000e-05 -5.410000e-04 -2.169400e-02
 -3.532700e-02 -4.568800e-02 -3.301800e-02 -4.810000e-04 -1.510000e-04
 -6.670000e-04 -4.550000e-04 -9.250000e-04 -9.010000e-04 -5.090000e-04
 -5.340000e-04 -7.910000e-04 -2.250000e-04 -2.810000e-04 -2.510000e-04
 -7.120000e-04 -2.890000e-04 -3.820000e-04 -9.400000e-04 -1.040000e-04
  2.230000e-04  1.130000e-03 -6.550000e-04 -1.386000e-03 -9.680000e-04
 -1.044000e-03 -9.824000e-03 -2.466900e-02 -6.289000e-03  8.460000e-03
 -6.781000e-03 -4.156000e-03 -1.527700e-02 -2.572000e-03 -2.269000e-03
 -1.504000e-03 -1.189000e-03 -8.530000e-04 -4.710000e-04 -5.400000e-04
 -7.310000e-04 -4.150000e-04 -5.540000e-04 -3.220000e-04  9.500000e-05
 -1.970000e-04 -4.750000e-04  6.950000e-04  1.744000e-03  1.170000e-03
  4.710000e-03  7.589000e-03 -4.100000e-05 -1.418500e-02 -1.166500e-02
 -7.220000e-04  4.414200e-02  1.950400e-02 -9.882000e-03 -7.234000e-03
 -1.317000e-03  7.172000e-03  1.986000e-03  4.170000e-04 -1.618000e-03
 -7.560000e-04 -7.520000e-04 -9.790000e-04 -3.290000e-04 -6.740000e-04
 -3.120000e-04 -5.790000e-04 -4.950000e-04 -1.780000e-04 -7.040000e-04
  9.210000e-04  2.810000e-03  3.008000e-03  2.746000e-03  3.422000e-03
 -1.602200e-02 -4.813000e-03  6.287000e-03  2.699600e-02  3.059400e-02
 -2.208400e-02 -1.177400e-02 -3.613000e-03 -3.294000e-03  1.437000e-02
  9.319000e-03  2.600000e-03 -1.805000e-03 -1.445000e-03 -1.151000e-03
 -6.020000e-04 -6.310000e-04 -9.480000e-04 -3.040000e-04 -7.440000e-04
 -4.070000e-04 -2.770000e-04  4.010000e-04  2.619000e-03  3.012000e-03
  2.755000e-03 -1.163000e-03 -6.870000e-04  2.122100e-02  1.885900e-02
  1.228400e-02 -8.714000e-03 -3.564700e-02 -6.706500e-02 -4.069900e-02
 -4.007500e-02 -2.118000e-03  1.609200e-02  4.445000e-03  4.346000e-03
 -2.708000e-03 -1.224000e-03 -7.480000e-04 -2.090000e-04 -6.650000e-04
 -7.570000e-04 -5.050000e-04 -6.160000e-04 -4.570000e-04 -5.100000e-05
  1.109000e-03  2.846000e-03  3.442000e-03  1.042000e-03  8.730000e-04
  1.979400e-02  1.999800e-02  1.009900e-02 -1.358000e-02 -6.328400e-02
 -7.766400e-02 -5.380800e-02 -2.590200e-02 -2.184400e-02  1.580900e-02
  1.404100e-02  8.469000e-03  6.070000e-04 -1.566000e-03 -1.136000e-03
 -8.240000e-04 -8.510000e-04 -6.820000e-04 -8.940000e-04 -6.710000e-04
 -4.750000e-04 -5.090000e-04 -4.960000e-04  1.561000e-03  1.930000e-03
  2.769000e-03  9.855000e-03 -4.706500e-02 -9.073000e-03 -1.847800e-02
 -1.754000e-03 -1.193800e-02 -6.698900e-02 -2.544200e-02 -6.069000e-03
  1.381100e-02 -3.608400e-02  7.169000e-03  2.254800e-02  5.880000e-04
 -4.470000e-04 -9.040000e-04 -1.562000e-03 -9.300000e-04 -8.230000e-04
 -4.600000e-04 -8.780000e-04 -6.490000e-04 -6.150000e-04 -5.640000e-04
 -6.940000e-04  6.840000e-04  1.442000e-03  4.282980e-01  9.850400e-02
 -1.124540e-01 -5.886700e-02 -2.311700e-02 -1.796100e-02 -3.147000e-02
 -8.467900e-02 -2.824100e-02 -4.357000e-03 -3.166500e-02 -3.374200e-02
 -7.895000e-03  2.849700e-02 -1.709000e-03 -8.940000e-04 -5.290000e-04
 -9.770000e-04 -7.450000e-04 -1.980000e-04 -4.400000e-04 -5.940000e-04
 -4.010000e-04 -6.500000e-04 -4.930000e-04  2.220000e-04  1.023000e-03
  5.812900e-01  8.752130e-01 -1.030950e-01 -2.086990e-01 -4.795600e-02
  1.858700e-02 -1.136200e-02 -2.106500e-02 -1.040950e-01 -1.506000e-02
 -4.870000e-04 -3.076000e-02 -2.046200e-02  1.633900e-02  7.130000e-04
 -1.687000e-03 -1.213000e-03  9.460000e-04 -1.210000e-03 -6.560000e-04
 -9.070000e-04 -3.570000e-04 -6.350000e-04 -7.420000e-04 -3.590000e-04
 -3.710000e-04  6.450000e-04  3.152000e-03  1.451874e+00  7.007590e-01
 -4.959600e-01 -2.126480e-01  4.170000e-04  2.069000e-02  1.435700e-02
  1.516000e-03  4.927000e-03  1.192000e-03 -1.114100e-02 -1.211300e-02
